
\data\
ngram 1=3799
ngram 2=10890
ngram 3=15131

\1-grams:
-3.925366	1000:1000	-0.07864812
-3.925366	100:100	-0.07888751
-3.925366	108:108	-0.07306492
-3.925366	109:109	-0.07306492
-3.716233	10:10	-0.07725333
-3.925366	1100:1100	-0.07864812
-3.925366	112:112	-0.07306492
-3.925366	116:116	-0.07306492
-3.925366	118:118	-0.07306492
-3.925366	119:119	-0.07306492
-3.781936	11:11	-0.2191348
-3.925366	1200:1200	-0.07864812
-3.781936	120:120	-0.07293986
-3.925366	122:122	-0.07306492
-3.925366	123:123	-0.07306492
-3.925366	124:124	-0.07306492
-3.925366	125:125	-0.07306492
-3.925366	127:127	-0.07306492
-3.925366	128:128	-0.07306492
-3.781936	12:12	-0.0776455
-3.546631	1300:1300	-0.1419643
-3.925366	130:130	-0.07884762
-3.925366	132:132	-0.07306492
-3.925366	133:133	-0.07306492
-3.925366	1350:1350	-0.07864812
-3.925366	135:135	-0.07306492
-3.925366	137:137	-0.07306492
-3.925366	138:138	-0.07306492
-3.925366	140:140	-0.07776921
-3.925366	142:142	-0.07306492
-3.925366	144:144	-0.07306492
-3.925366	145:145	-0.07306492
-3.925366	146:146	-0.07306492
-3.925366	148:148	-0.07306492
-3.925366	14:14	-0.07852837
-3.925366	1500:1500	-0.07880773
-3.925366	150:150	-0.07306492
-3.925366	151:151	-0.07306492
-3.925366	152:152	-0.07306492
-3.925366	153:153	-0.07306492
-3.925366	154:154	-0.07306492
-3.781936	156:156	-0.07299218
-3.925366	1578:1578	-0.06658912
-3.925366	157:157	-0.07306492
-3.925366	158:158	-0.07306492
-3.925366	159:159	-0.06658912
-3.716233	15:15	-0.07172125
-3.925366	160:160	-0.07306492
-3.925366	161:161	-0.07306492
-3.925366	162:162	-0.07306492
-3.925366	164:164	-0.07306492
-3.925366	165:165	-0.07306492
-3.925366	166:166	-0.07306492
-3.925366	167:167	-0.07306492
-3.925366	168:168	-0.07306492
-3.781936	169:169	-0.2135117
-3.925366	1700:1700	-0.07880773
-3.925366	170:170	-0.07306492
-3.925366	171:171	-0.07306492
-3.925366	172:172	-0.07306492
-3.925366	173:173	-0.07306492
-3.925366	176:176	-0.07306492
-3.925366	17:17	-0.07852837
-3.925366	181:181	-0.07306492
-3.925366	183:183	-0.07306492
-3.925366	184:184	-0.07306492
-3.925366	186:186	-0.07306492
-3.925366	1874:1874	-0.07776921
-3.925366	187:187	-0.07306492
-3.925366	188:188	-0.07306492
-3.925366	189:189	-0.07306492
-3.925366	1917:1917	-0.07776921
-3.925366	1920:1920	-0.07776921
-3.925366	1923:1923	-0.07776921
-3.925366	192:192	-0.07306492
-3.925366	1930:1930	-0.07880773
-3.925366	193:193	-0.07306492
-3.925366	1940:1940	-0.07880773
-3.925366	1943:1943	-0.07776921
-3.925366	1944:1944	-0.07776921
-3.925366	194:194	-0.07306492
-3.925366	1952:1952	-0.07776921
-3.925366	195:195	-0.07306492
-3.925366	1964:1964	-0.07776921
-3.925366	1968:1968	-0.07776921
-3.925366	196:196	-0.07306492
-3.925366	1977:1977	-0.07776921
-3.925366	197:197	-0.07306492
-3.925366	1980:1980	-0.07776921
-3.925366	1989:1989	-0.07776921
-3.925366	198:198	-0.07306492
-3.925366	1991:1991	-0.07776921
-3.925366	199:199	-0.07306492
-3.925366	19:19	-0.07306492
-3.078315	1:1	-0.1104441
-3.781936	2001:2001	-0.218216
-3.781936	2003:2003	-0.218216
-3.781936	2004:2004	-0.218216
-3.716233	2005:2005	-0.2644109
-3.716233	2006:2006	-0.2644109
-3.925366	2007:2007	-0.07891942
-3.925366	200:200	-0.07306492
-3.925366	2010:2010	-0.07776921
-3.925366	201:201	-0.07306492
-3.925366	202:202	-0.07306492
-3.925366	203:203	-0.07306492
-3.925366	204:204	-0.07306492
-3.925366	206:206	-0.07306492
-3.925366	207:207	-0.07306492
-3.925366	208:208	-0.07306492
-3.925366	209:209	-0.07306492
-3.781936	20:20	-0.07261623
-3.925366	210:210	-0.07306492
-3.925366	211:211	-0.07306492
-3.925366	212:212	-0.07306492
-3.925366	213:213	-0.07306492
-3.925366	214:214	-0.07306492
-3.925366	215:215	-0.07306492
-3.925366	217:217	-0.07306492
-3.925366	218:218	-0.07306492
-3.925366	219:219	-0.07306492
-3.925366	21:21	-0.06658912
-3.925366	220:220	-0.07306492
-3.925366	221:221	-0.07306492
-3.925366	222:222	-0.07306492
-3.925366	224:224	-0.07306492
-3.925366	226:226	-0.07306492
-3.925366	228:228	-0.07306492
-3.925366	229:229	-0.07306492
-3.925366	235:235	-0.07306492
-3.925366	236:236	-0.07306492
-3.925366	237:237	-0.07306492
-3.925366	238:238	-0.07306492
-3.925366	240:240	-0.07306492
-3.925366	242:242	-0.07306492
-3.925366	244:244	-0.07306492
-3.925366	245:245	-0.07306492
-3.925366	246:246	-0.07306492
-3.925366	247:247	-0.07306492
-3.925366	249:249	-0.07306492
-3.925366	250:250	-0.07306492
-3.925366	251:251	-0.07306492
-3.925366	252:252	-0.07306492
-3.925366	253:253	-0.07306492
-3.925366	254:254	-0.07306492
-3.925366	255:255	-0.07306492
-3.925366	256:256	-0.07306492
-3.925366	257:257	-0.07306492
-3.925366	258:258	-0.07306492
-3.925366	259:259	-0.07306492
-3.716233	25:25	-0.06004918
-3.925366	261:261	-0.07306492
-3.925366	262:262	-0.07306492
-3.925366	263:263	-0.07306492
-3.925366	266:266	-0.07306492
-3.925366	267:267	-0.07306492
-3.925366	269:269	-0.07306492
-3.925366	2700:2700	-0.07884762
-3.781936	271:271	-0.07229237
-3.925366	272:272	-0.07306492
-3.925366	273:273	-0.07306492
-3.925366	274:274	-0.07306492
-3.925366	276:276	-0.07306492
-3.925366	277:277	-0.07306492
-3.925366	278:278	-0.07306492
-3.925366	279:279	-0.07306492
-3.781936	27:27	-0.07840487
-3.925366	28:28	-0.06279754
-3.925366	2913:2913	-0.07884762
-3.252188	2:2	-0.1080891
-3.925366	308:308	-0.07306492
-3.925366	309:309	-0.07306492
-3.925366	30:30	-0.07306492
-3.925366	315:315	-0.07889923
-3.925366	31:31	-0.07852837
-3.925366	32:32	-0.07891942
-3.925366	34:34	-0.07891942
-3.925366	35:35	-0.07306492
-3.925366	368:368	-0.07306492
-3.925366	369:369	-0.07306492
-3.925366	370:370	-0.07306492
-3.925366	379:379	-0.07306492
-3.033002	3:3	-0.1024749
-3.925366	40:40	-0.07306492
-3.925366	413:413	-0.07306492
-3.925366	41:41	-0.07306492
-3.781936	46:46	-0.07733713
-3.925366	48:48	-0.07306492
-3.925366	493:493	-0.07306492
-3.925366	49:49	-0.07306492
-3.033002	4:4	-0.08966024
-3.925366	50:50	-0.07306492
-3.925366	51:51	-0.07306492
-3.186191	5:5	-0.1527749
-3.925366	600:600	-0.07864812
-3.925366	63:63	-0.07306492
-3.925366	650:650	-0.07864812
-3.925366	680:680	-0.07888751
-3.546631	6:6	-0.1429318
-3.716233	700:700	-0.07872424
-3.925366	713:713	-0.07776921
-3.925366	721:721	-0.07776921
-3.925366	735:735	-0.07306492
-3.128912	7:7	-0.1083513
-3.925366	80:80	-0.07884762
-3.546631	8:8	-0.1426521
-3.925366	996:996	-0.07776921
-3.781936	9:9	-0.07272576
-2.756151	</s>
-99	<s>	-0.285283
-3.925366	fm:fm	-0.07852837
-3.716233	ic:ic	-0.05887736
-3.330044	jr:jr	-0.1107731
-3.546631	km:km	-0.3743779
-3.925366	lostage:lostage	-0.05938996
-3.781936	m:m	-0.06266949
-3.781936	nhk:nhk	-0.06274401
-3.925366	u:u	-0.07844852
-3.925366	uhf:uhf	-0.07856829
-3.925366	verde:verde	-0.07889923
-1.835377	、:、	-0.10907
-1.649472	。:。	-2.176895
-3.925366	あすか野:アスカノ	-0.07856829
-3.781936	あたり:アタリ	-0.0758015
-3.925366	あたる:アタル	-0.06912577
-3.716233	あっ:アッ	-0.2638907
-3.716233	あやめ池:アヤメイケ	-0.07716148
-3.716233	あり:アリ	-0.1548973
-3.128912	ある:アル	-0.05220252
-3.546631	あるいは:アルイハ	-0.07869234
-3.925366	あわせ:アワセ	-0.07724902
-3.781936	い:イ	-0.1654645
-3.925366	いい:イイ	-0.07257954
-3.781936	いう:イウ	-0.1571333
-3.781936	いくつ:イクツ	-0.219346
-3.925366	いこま:イコマ	-0.05938996
-3.781936	いずれ:イズレ	-0.0782968
-3.925366	いっ:イッ	-0.07724902
-3.716233	いる:イル	-0.03937494
-3.781936	いわ:イワ	-0.1664248
-3.925366	いわゆる:イワユル	-0.07888751
-3.925366	う:ウ	-0.07249859
-3.925366	うけ:ウケ	-0.07257954
-3.925366	うち:ウチ	-0.07168506
-3.925366	おおさか:オオサカ	-0.07876783
-3.925366	おか:オカ	-0.07828878
-3.925366	おく:オク	-0.07871623
-3.925366	おこし:オコシ	-0.07257954
-3.925366	おこなう:オコナウ	-0.07876783
-3.925366	おこなわ:オコナワ	-0.07828878
-3.925366	おば:オバ	-0.07889923
-3.925366	おもに:オモニ	-0.07876783
-3.925366	およそ:オヨソ	-0.07891942
-2.954489	および:オヨビ	-0.07951844
-3.925366	おら:オラ	-0.07889923
-3.925366	おり:オリ	-0.06952973
-3.925366	おん:オン	-0.07888751
-3.925366	お茶の水女子大学:オチャノミズジョシダイガク	-0.06279754
-3.781936	か:カ	-0.2032444
-3.925366	かかわら:カカワラ	-0.07889923
-3.925366	かけ:カケ	-0.0778092
-3.781936	かつて:カツテ	-0.1033912
-3.925366	かめ:カメ	-0.07848845
-2.258203	から:カラ	-0.1115768
-2.015454	が:ガ	-0.1768817
-3.925366	き:キ	-0.07724902
-3.925366	きた:キタ	-0.07889923
-3.925366	くる:クル	-0.07891942
-3.925366	ぐり:ぐり	-0.05938996
-3.781936	けい:ケイ	-0.219346
-3.925366	ここ:ココ	-0.07656784
-3.033002	こと:コト	-0.2561143
-3.781936	こどもの国:コドモノクニ	-0.05921916
-3.424973	この:コノ	-0.07753084
-3.781936	これ:コレ	-0.2070359
-3.781936	ご:ゴ	-0.2193662
-3.925366	ごく:ゴク	-0.07888751
-3.781936	ごろ:ゴロ	-0.2070359
-3.925366	ご飯:ゴハン	-0.06279754
-2.354945	さ:サ	-1.073743
-2.128044	し:シ	-0.8615707
-3.925366	しか:シカ	-0.07891942
-3.925366	しげ:シゲ	-0.07891942
-3.925366	しめる:シメル	-0.07872793
-3.925366	しよ:シヨ	-0.07891942
-3.925366	じ:ジ	-0.07724902
-3.925366	じゃんじゃん:ジャンジャン	-0.07889923
-3.781936	すでに:スデニ	-0.07812526
-3.925366	すみよし台:スミヨシダイ	-0.06658912
-2.392657	する:スル	-0.1601903
-3.925366	すゑ:スヱ	-0.05938996
-3.781936	ず:ズ	-0.1609467
-3.781936	せ:セ	-0.1645021
-3.925366	せる:セル	-0.07872793
-3.925366	そう:ソウ	-0.07891942
-3.925366	そごう:ソゴウ	-0.05938996
-3.330044	その:ソノ	-0.09504206
-3.925366	その後:ソノゴ	-0.06658912
-3.781936	それ:ソレ	-0.06842791
-2.40262	た:タ	-0.07360791
-3.781936	たけ:タケ	-0.07843681
-3.925366	たち:タチ	-0.07475951
-3.252188	ため:タメ	-0.2420728
-3.546631	ため池:タメイケ	-0.0424044
-3.252188	だ:ダ	-0.2149743
-3.424973	だっ:ダッ	-0.4857394
-3.925366	ちなん:チナン	-0.0697742
-3.424973	つ:ツ	-0.3017322
-3.925366	つく:ツク	-0.07788917
-3.925366	つくら:ツクラ	-0.07828878
-2.573237	て:テ	-0.2625979
-1.690493	で:デ	-0.5242497
-3.925366	できる:デキル	-0.07888751
-1.829951	と:ト	-0.3919719
-3.546631	という:トイウ	-0.0783495
-3.925366	とき:トキ	-0.06658912
-2.604169	として:トシテ	-0.0401553
-3.781936	とともに:トトモニ	-0.07823712
-3.781936	とも:トモ	-0.07886783
-2.919985	な:ナ	-0.06594378
-3.330044	ない:ナイ	-0.1006614
-3.925366	ないし:ナイシ	-0.07884762
-3.925366	なお:ナオ	-0.07257954
-3.925366	なかっ:ナカッ	-0.07724902
-3.925366	ながら:ナガラ	-0.07250671
-3.925366	なぎなた:ナギナタ	-0.07889923
-3.925366	なく:ナク	-0.07820889
-3.925366	なす:ナス	-0.06912577
-3.781936	なっ:ナッ	-0.2165294
-3.925366	なつ:ナツ	-0.05938996
-2.919985	など:ナド	-0.1633537
-3.925366	なら:ナラ	-0.07884765
-3.925366	なり:ナリ	-0.07257954
-3.716233	なる:ナル	-0.05978755
-1.551174	に:ニ	-0.3637931
-3.925366	にあたる:ニアタル	-0.07856829
-3.033002	において:ニオイテ	-0.134686
-3.128912	における:ニオケル	-0.09476142
-3.128912	にかけて:ニカケテ	-0.09439419
-3.781936	について:ニツイテ	-0.05930262
-3.925366	にて:ニテ	-0.07872793
-3.186191	によって:ニヨッテ	-0.07769088
-3.128912	により:ニヨリ	-0.09660706
-3.546631	による:ニヨル	-0.07826163
-3.925366	に対し:ニタイシ	-0.07257954
-3.925366	に当たる:ニアタル	-0.07856829
-3.925366	に関し:ニカンシ	-0.07257954
-3.925366	に関する:ニカンスル	-0.07891942
-1.437043	の:ノ	-0.07869229
-3.925366	のち:ノチ	-0.06658912
-3.925366	ので:ノデ	-0.07257954
-3.546631	のみ:ノミ	-0.05527032
-1.355702	は:ハ	-0.9157364
-3.925366	はしる:ハシル	-0.07884762
-3.781936	はじめ:ハジメ	-0.06593651
-3.781936	はん:ハン	-0.2188953
-3.925366	ば:バ	-0.07891942
-3.925366	ひさ:ヒサ	-0.07257954
-3.925366	ひとつ:ヒトツ	-0.05996975
-3.925366	ひとみ:ヒトミ	-0.05938996
-3.925366	ふるっ:フルッ	-0.07724902
-3.925366	ふれあい:フレアイ	-0.07848845
-3.925366	ぶり:ブリ	-0.07868803
-2.604169	へ:ヘ	-0.5811085
-3.781936	ほか:ホカ	-0.2130264
-3.925366	ほど:ホド	-0.06279754
-3.925366	ほろ:ホロ	-0.07891942
-3.925366	ま:マ	-0.07891942
-3.925366	まず:マズ	-0.07864812
-3.925366	また:マタ	-0.0759659
-3.925366	またがっ:マタガッ	-0.0778092
-3.925366	またがる:マタガル	-0.07816521
-3.128912	または:マタハ	-0.07744338
-3.781936	まち:マチ	-0.1998368
-3.925366	まつる:マツル	-0.07820889
-2.756151	まで:マデ	-0.186387
-3.716233	まとめ:マトメ	-0.2638907
-3.925366	まる:マル	-0.07306492
-3.925366	みささぎ台:ミササギダイ	-0.05938996
-3.925366	みどり湖:ミドリコ	-0.07257954
-3.925366	みな:ミナ	-0.07891942
-3.925366	めん:メン	-0.06859512
-2.858249	も:モ	-0.1126088
-3.925366	もうろう:モウロウ	-0.07249859
-3.716233	もしくは:モシクハ	-0.07514646
-3.925366	もっとも:モットモ	-0.07891942
-3.925366	もつ:モツ	-0.07880773
-3.925366	もと:モト	-0.07002233
-3.186191	もの:モノ	-0.01515727
-3.925366	ものの:モノノ	-0.07257954
-2.804206	や:ヤ	-0.11679
-3.925366	やま:ヤマ	-0.07848845
-3.925366	やまと:ヤマト	-0.07306492
-3.925366	ゆう:ユウ	-0.07891942
-3.925366	ゆめ:ユメ	-0.07889923
-3.716233	よう:ヨウ	-0.154471
-3.716233	より:ヨリ	-0.07764979
-3.925366	ら:ラ	-0.07880773
-3.424973	られ:ラレ	-0.2436528
-3.546631	られる:ラレル	-0.06878791
-2.804206	れ:レ	-0.5844544
-3.186191	れる:レル	-0.098424
-3.925366	ろう:ロウ	-0.07796912
-3.925366	わけ:ワケ	-0.07002233
-3.781936	わずか:ワズカ	-0.07876411
-1.626937	を:ヲ	-0.3186034
-3.925366	アクセス:アクセス	-0.07891942
-3.716233	アニメ:アニメ	-0.1583566
-3.781936	アマチュア:アマチュア	-0.07884765
-3.925366	アントレ:アントレ	-0.07891942
-3.925366	イシメン:イシメン	-0.07852837
-3.925366	イリグチ:イリグチ	-0.07475951
-3.925366	インド:インド	-0.06658912
-3.925366	ウエディング:ウエディング	-0.07891942
-3.925366	エフエム:エフエム	-0.07848845
-3.716233	エリア:エリア	-0.1503845
-3.925366	カトリック:カトリック	-0.07868803
-3.925366	カ月:カゲツ	-0.07891942
-3.716233	ガス:ガス	-0.07819345
-3.925366	ガラス:ガラス	-0.07884762
-3.925366	キトラ:キトラ	-0.07800909
-3.925366	キネマ:キネマ	-0.05938996
-3.925366	キャンパス:キャンパス	-0.06658912
-3.925366	クハボ:クハボ	-0.07886783
-3.716233	コミュニティ:コミュニティ	-0.1664648
-3.925366	コンベンション:コンベンション	-0.07864812
-3.925366	サンワシティ:サンワシティ	-0.07888751
-3.781936	ジャンクション:ジャンクション	-0.05002411
-3.925366	ジャンジャン:ジャンジャン	-0.07889923
-3.925366	ストップ:ストップ	-0.05938996
-3.925366	スマイル:スマイル	-0.07848845
-3.925366	ソムリエ:ソムリエ	-0.07889923
-3.925366	ダラシ:ダラシ	-0.07249859
-3.925366	ダリ:ダリ	-0.07257954
-3.925366	ダル:ダル	-0.07844852
-3.925366	ッ:ッ	-0.07888751
-3.925366	ツ:ツ	-0.07891942
-3.925366	ツキガタプロダクション:ツキガタプロダクション	-0.05938996
-3.925366	テック:テック	-0.05938996
-3.033002	テレビ:テレビ	-0.4334933
-3.781936	テレビジョン:テレビジョン	-0.2189752
-3.925366	デハボ:デハボ	-0.07864121
-3.330044	トンネル:トンネル	-0.06774078
-3.781936	ノ:ノ	-0.07886783
-3.252188	バイパス:バイパス	-0.09923543
-2.954489	バス:バス	-0.157447
-3.925366	バス停:バステイ	-0.06912577
-3.925366	パック:パック	-0.06279754
-3.925366	ヒビキ:ヒビキ	-0.07848845
-3.925366	ピアニスト:ピアニスト	-0.06912577
-3.925366	ファッションモデル:ファッションモデル	-0.06912577
-3.925366	フランス:フランス	-0.07884762
-3.925366	フルマラソン:フルマラソン	-0.07888751
-3.781936	プロ:プロ	-0.07459465
-3.781936	プロダクション:プロダクション	-0.1998368
-3.925366	プロテニス:プロテニス	-0.07868803
-3.925366	ベルト:ベルト	-0.06658912
-3.925366	ベンガル:ベンガル	-0.07889923
-3.925366	ホシエヌ:ホシエヌ	-0.07889923
-3.716233	ホテル:ホテル	-0.134455
-3.925366	ボクシング:ボクシング	-0.07868803
-3.925366	ポンプ:ポンプ	-0.07868803
-3.925366	マラソン:マラソン	-0.05938996
-3.925366	ミノルタ:ミノルタ	-0.07891942
-3.925366	メイン:メイン	-0.07891942
-3.925366	ユネスコ:ユネスコ	-0.06279754
-3.424973	ランプ:ランプ	-0.2208265
-3.925366	レストラン:レストラン	-0.07002233
-3.925366	ロックバンド:ロックバンド	-0.07002233
-3.252188	ヶ:ヶ	-0.2135159
-2.779514	一:イチ	-0.1161971
-3.925366	一つ:ヒトツ	-0.05917353
-3.781936	一乗院:イチジョウイン	-0.04852953
-3.186191	一帯:イッタイ	-0.3466378
-3.925366	一恵:カズエ	-0.05938996
-3.925366	一方:イッポウ	-0.07856829
-3.925366	一番:イチバン	-0.07891942
-3.925366	一種:イッシュ	-0.07002233
-3.716233	一級:イッキュウ	-0.1670639
-3.078315	一般:イッパン	-0.2176821
-2.888021	一覧:イチラン	-0.34397
-3.925366	一角:イッカク	-0.06658912
-3.925366	一言:ヒトコト	-0.07891942
-3.925366	一貫:イッカン	-0.06279754
-3.925366	一身:イッシン	-0.07876783
-3.925366	一連:イチレン	-0.06279754
-3.925366	一郎:イチロウ	-0.05607764
-3.716233	一部:イチブ	-0.06543099
-3.033002	丁目:チョウメ	-0.3142243
-3.781936	七:ナナ	-0.07873594
-3.925366	七条:シチジョウ	-0.07884762
-3.546631	万:マン	-0.07865292
-3.925366	万作:マンサク	-0.05938996
-3.781936	万葉:マンヨウ	-0.07860449
-3.781936	丈:タケ	-0.07785721
-2.692771	三:サン	-0.1889164
-3.716233	三ケ谷:ミカタニ	-0.162127
-3.925366	三十郎:サンジュウロウ	-0.05938996
-3.925366	三夫:ミツオ	-0.07475951
-3.781936	三宅:ミヤケ	-0.07260814
-3.925366	三室山:ミムロヤマ	-0.07249859
-3.781936	三山:サンザン	-0.06196502
-3.925366	三島:ミシマ	-0.07266048
-3.781936	三昧田:サンマイデン	-0.06842791
-3.925366	三木:ミキ	-0.07889923
-3.716233	三本松:サンボンマツ	-0.04477994
-3.716233	三条:サンジョウ	-0.1672671
-3.925366	三条宮前:サンジョウミヤマエ	-0.07266048
-3.925366	三浦:ミウラ	-0.07889923
-3.781936	三碓:ミツガラス	-0.07176558
-3.925366	三笠山:ミカサヤマ	-0.06658912
-3.925366	三輪:ミワ	-0.07889923
-3.781936	三輪山:ミワヤマ	-0.05846727
-3.716233	三郷:ミサト	-0.07234962
-3.128912	三重:ミエ	-0.4640231
-3.925366	三野:ミノ	-0.07858961
-3.781936	上:ウエ	-0.05833792
-3.078315	上:ジョウ	-0.1710176
-3.925366	上げ:アゲ	-0.07724902
-3.546631	上三橋:カミミツハシ	-0.1320948
-3.781936	上中:カミナカ	-0.06846876
-3.925366	上代:ジョウダイ	-0.07888751
-3.546631	上北山:カミキタヤマ	-0.1220294
-3.925366	上市:カミイチ	-0.06658912
-3.925366	上樋口:カミヒグチ	-0.07884762
-3.781936	上池原:カミイケハラ	-0.06653605
-3.781936	上流:ジョウリュウ	-0.06171611
-3.925366	上深川:カミフカワ	-0.07266048
-3.925366	上演:ジョウエン	-0.07704879
-3.925366	上牧:ウエマキ	-0.07266048
-3.925366	上田:ウエダ	-0.07891942
-3.925366	上町:ウエマチ	-0.06658912
-3.781936	上笠間:カミカサマ	-0.06850962
-3.925366	上質:ジョウシツ	-0.07002233
-3.716233	上野:ウエノ	-0.07794195
-3.546631	下:カ	-0.08349915
-3.925366	下:シタ	-0.05737889
-3.925366	下井足:シモイダニ	-0.06658912
-3.925366	下京:シモギョウ	-0.07812898
-3.925366	下仁興:シモニゴウ	-0.07266048
-3.925366	下北山:シモキタヤマ	-0.07776921
-3.925366	下山:シタヤマ	-0.07266048
-3.546631	下市:シモイチ	-0.1102001
-3.925366	下旬:ゲジュン	-0.06658912
-3.925366	下桑原:シモクワバラ	-0.07479978
-3.925366	下毛:シモゲ	-0.07880773
-3.925366	下永:シモナガ	-0.06859512
-3.925366	下流:カリュウ	-0.07792915
-3.925366	下渕:シタフチ	-0.07788917
-3.781936	下狭川:シモサガワ	-0.07257577
-3.546631	下田:シモダ	-0.07231722
-3.925366	下田東:シモダヒガシ	-0.06859512
-3.781936	下田西:シモダニシ	-0.07784546
-3.925366	下級:カキュウ	-0.07868803
-3.925366	下総:シモウサ	-0.07891942
-3.925366	下荻:シモオギ	-0.07479978
-3.925366	下記:カキ	-0.06658912
-3.925366	不入:フニュウ	-0.07889923
-3.925366	不明:フメイ	-0.06912577
-3.925366	不正:フセイ	-0.07891942
-3.925366	不破:フワ	-0.07891942
-3.925366	不空:フクウ	-0.07820889
-3.925366	与:アズカ	-0.07704879
-3.781936	世:セイ	-0.06907301
-3.925366	世:ヨ	-0.05938996
-3.925366	世代:セダイ	-0.07820889
-3.781936	世尊:セソン	-0.1659567
-3.781936	世界:セカイ	-0.07838517
-3.424973	世紀:セイキ	-0.1187142
-3.925366	世襲:セシュウ	-0.07572488
-3.925366	世論:セロン	-0.07475951
-3.781936	丘:オカ	-0.05131588
-3.252188	丘陵:キュウリョウ	-0.05476666
-3.925366	並び立つ:ナラビタツ	-0.07891942
-3.925366	並ぶ:ナラブ	-0.07880773
-3.252188	中:チュウ	-0.08604154
-3.925366	中:ナカ	-0.07002233
-3.925366	中世:チュウセイ	-0.06279754
-3.781936	中之:ナカノ	-0.06842791
-3.925366	中吉野:ナカヨシノ	-0.07792542
-3.925366	中和:チュウワ	-0.07888751
-3.716233	中国:チュウゴク	-0.1649354
-3.546631	中央:チュウオウ	-0.1073472
-3.781936	中奥:ナカオク	-0.06852163
-3.781936	中学:チュウガク	-0.07249482
-2.604169	中学校:チュウガッコウ	-0.473731
-3.925366	中宮:チュウグウ	-0.07760922
-3.925366	中宮:ナカミヤ	-0.07891942
-3.925366	中将:チュウジョウ	-0.07889923
-3.925366	中尾山:ナカオヤマ	-0.07800909
-3.925366	中山:チュウザン	-0.07266048
-3.925366	中山道:ナカセンドウ	-0.07891942
-3.925366	中川:ナカガワ	-0.07876783
-3.781936	中心:チュウシン	-0.05984085
-3.925366	中戸:ナカト	-0.06859512
-3.925366	中旬:チュウジュン	-0.07656784
-3.716233	中期:チュウキ	-0.05878606
-3.925366	中流:チュウリュウ	-0.07888751
-3.781936	中町:ナカマチ	-0.04625246
-3.925366	中石切:ナカイシキリ	-0.07808902
-3.424973	中等:チュウトウ	-0.4873779
-3.781936	中筋出作:ナカスジシュツサク	-0.06850962
-3.424973	中継:チュウケイ	-0.1091578
-3.925366	中菜畑:ナカナバタ	-0.06658912
-3.925366	中葉:チュウヨウ	-0.07891942
-3.925366	中西部:チュウセイブ	-0.05590945
-3.781936	中退:チュウタイ	-0.2095726
-3.925366	中郡:ナカグン	-0.07257954
-3.925366	中部:チュウブ	-0.06279754
-3.925366	中野:ナカノ	-0.07876783
-3.925366	中高:ナカダカ	-0.07891942
-3.925366	丸子:マルコ	-0.07848845
-3.925366	丸岡:マルオカ	-0.07889923
-3.925366	丹後庄:タンゴノショウ	-0.07266048
-3.925366	丹治:タンジ	-0.05590945
-3.925366	丹生:タンジョウ	-0.07872793
-3.781936	丹生:ニュウ	-0.06009473
-3.546631	主:オモ	-0.1918719
-3.925366	主:ヌシ	-0.05938996
-3.925366	主として:シュトシテ	-0.07864812
-3.781936	主催:シュサイ	-0.05599356
-3.925366	主婦:シュフ	-0.06859512
-3.925366	主宰:シュサイ	-0.06912577
-3.925366	主流:シュリュウ	-0.07864812
-3.925366	主神:シュシン	-0.07876783
-3.546631	主要:シュヨウ	-0.2098292
-3.781936	丼:ドンブリ	-0.05926089
-3.781936	久度:クド	-0.04852953
-3.925366	久松:ヒサマツ	-0.07760922
-3.716233	久米:クメ	-0.06826883
-3.925366	乙:オツ	-0.07891942
-3.424973	九:キュウ	-0.1615205
-3.925366	乱:ラン	-0.04245587
-3.925366	乾:イヌイ	-0.07891942
-3.925366	亀:ヒサシ	-0.06279754
-3.781936	亀山:カメヤマ	-0.0762833
-3.925366	予報:ヨホウ	-0.07889923
-3.781936	予定:ヨテイ	-0.06262808
-3.781936	予選:ヨセン	-0.2095726
-3.925366	事:コト	-0.07249859
-2.919985	事件:ジケン	-0.2869599
-3.716233	事務:ジム	-0.1668164
-3.546631	事務所:ジムショ	-0.1157693
-3.925366	事情:ジジョウ	-0.07868803
-3.186191	事業:ジギョウ	-0.1463658
-3.033002	二:ニ	-0.1124792
-3.925366	二上:フタカミ	-0.07889923
-3.925366	二上:フタガミ	-0.07612649
-3.781936	二上山:ニジョウザン	-0.07584167
-3.925366	二名:ニミョウ	-0.07266048
-3.925366	二条:ニジョウ	-0.07266048
-3.925366	二階堂:ニカイドウ	-0.07479978
-3.925366	二階堂上ノ庄:ニカイドウカミノショウ	-0.07266048
-3.925366	二階堂北菅田:ニカイドウキタスガタ	-0.07266048
-3.186191	五:ゴ	-0.1461245
-3.781936	五井:ゴイ	-0.06842791
-3.781936	五位堂:ゴイドウ	-0.07739741
-3.925366	五城目:ゴジョウメ	-0.07266048
-3.925366	五新線:ゴシンセン	-0.05938996
-3.925366	五月:ゴガツ	-0.07876783
-3.925366	五条:ゴジョウ	-0.07612649
-3.078315	五條:ゴジョウ	-0.166084
-3.925366	五條高等学校賀名生分校:五條高等学校賀名生分校	-0.05938996
-3.925366	五郎:ゴロウ	-0.05938996
-3.781936	井:イ	-0.07783747
-3.925366	井上:イノウエ	-0.07891942
-3.925366	交互:コウゴ	-0.06658912
-3.925366	交差:コウサ	-0.07720898
-2.692771	交差点:コウサテン	-0.3178407
-3.925366	交点:コウテン	-0.05590945
-3.128912	交通:コウツウ	-0.05132815
-3.925366	交通省:コウツウショウ	-0.06279754
-3.925366	享:トオル	-0.05938996
-3.716233	京:キョウ	-0.265561
-3.781936	京:ミヤコ	-0.1068055
-3.925366	京滋:ケイジ	-0.07888751
-3.781936	京終:キョウバテ	-0.07804534
-2.991974	京都:キョウト	-0.1998138
-3.925366	京都大:キョウトダイ	-0.07888751
-3.925366	京都産業大学:キョウトサンギョウダイガク	-0.07891942
-3.925366	京阪神:ケイハンシン	-0.07888751
-3.925366	亮:アキラ	-0.05938996
-3.546631	人:ジン	-0.09026617
-3.716233	人:ニン	-0.1468449
-3.925366	人:ヒト	-0.06912577
-3.925366	人々:ヒトビト	-0.06859512
-3.925366	人名:ジンメイ	-0.07840859
-3.716233	人物:ジンブツ	-0.02644528
-3.925366	人馬:ジンバ	-0.06279754
-3.925366	仁:ジン	-0.07891942
-3.925366	今井:イマイ	-0.07266048
-3.925366	今国府:イマゴウ	-0.07266048
-3.781936	今日:キョウ	-0.06200649
-3.781936	今木:イマギ	-0.0685423
-3.925366	今村:イマムラ	-0.07591397
-3.781936	今里:イマサト	-0.07176558
-3.546631	仏:フツ	-0.06303429
-3.925366	仏像:ブツゾウ	-0.07888751
-3.925366	仏堂:ブツドウ	-0.06912577
-3.925366	仏寺:ブツジ	-0.05938996
-3.925366	仏師:ブッシ	-0.06279754
-3.546631	仏教:ブッキョウ	-0.05534278
-3.925366	仏閣:ブッカク	-0.07257954
-3.925366	仕え:ツカエ	-0.07724902
-3.925366	他:タ	-0.06658912
-3.925366	付:ツケ	-0.07891942
-3.925366	付け:ツケ	-0.0778092
-3.925366	付属:フゾク	-0.07572488
-3.128912	付近:フキン	-0.2074197
-3.546631	代:ダイ	-0.1069484
-3.925366	代目:ダイメ	-0.07889923
-3.781936	代表:ダイヒョウ	-0.07712516
-3.781936	令:リョウ	-0.07875613
-3.781936	以上:イジョウ	-0.05842546
-3.925366	以下:イカ	-0.06279754
-3.424973	以前:イゼン	-0.1821287
-3.925366	以南:イナン	-0.07249859
-3.925366	以外:イガイ	-0.06658912
-3.925366	以来:イライ	-0.0759659
-3.925366	以東:イトウ	-0.05938996
-3.716233	以降:イコウ	-0.05552687
-3.925366	仲秋:チュウシュウ	-0.06279754
-3.925366	企て:クワダテ	-0.07724902
-3.330044	企業:キギョウ	-0.2447652
-3.781936	伊:イ	-0.07578971
-3.925366	伊予:イヨ	-0.07856829
-3.716233	伊勢:イセ	-0.1672155
-3.925366	伊吉:イキチ	-0.07880773
-3.925366	伊藤:イトウ	-0.07891942
-3.781936	伊賀:イガ	-0.2168141
-3.925366	伊那:イナ	-0.07891942
-3.925366	伊都:イト	-0.07808902
-3.925366	伎楽:ギガク	-0.07889923
-3.925366	伏:フク	-0.06279754
-3.781936	伏見:フシミ	-0.05825818
-2.954489	会:カイ	-0.1246317
-3.925366	会友:カイユウ	-0.07788917
-3.925366	会員:カイイン	-0.07249859
-3.925366	会場:カイジョウ	-0.05938996
-3.925366	会式:エシキ	-0.05938996
-3.252188	会社:カイシャ	-0.1580666
-3.925366	会議:カイギ	-0.07872793
-3.925366	会長:カイチョウ	-0.07196827
-3.925366	会館:カイカン	-0.07656784
-3.925366	伝:デン	-0.07864812
-3.781936	伝え:ツタエ	-0.0776855
-3.925366	伝わっ:ツタワッ	-0.07724902
-3.925366	伝わる:ツタワル	-0.07853748
-3.925366	伝承:デンショウ	-0.07860821
-3.716233	伝来:デンライ	-0.1640721
-3.781936	伝統:デントウ	-0.0784448
-3.546631	伝説:デンセツ	-0.1265732
-3.925366	伝香寺:デンコウジ	-0.05938996
-3.925366	伯:ハク	-0.07876783
-3.925366	伯母:オバ	-0.07891942
-3.925366	伯母峰峠:オバミネトウゲ	-0.05938996
-3.925366	伸びる:ノビル	-0.07872793
-3.781936	伽藍:ガラン	-0.05930262
-3.781936	但馬:タジマ	-0.06366208
-3.925366	位:イ	-0.06279754
-3.781936	位置:イチ	-0.06142167
-3.925366	位階:イカイ	-0.06279754
-3.781936	住:ジュウ	-0.07753724
-3.925366	住ん:スン	-0.07002233
-3.925366	住吉浜:スミヨシハマ	-0.07656784
-3.716233	住宅:ジュウタク	-0.07205744
-3.781936	住居:ジュウキョ	-0.07871623
-3.925366	住川:スガワ	-0.07266048
-3.925366	住民:ジュウミン	-0.07475951
-3.925366	佐:サ	-0.07776921
-3.925366	佐:タスク	-0.07891942
-3.925366	佐世保:サセボ	-0.07636728
-3.925366	佐伯:サエキ	-0.07853266
-3.925366	佐保:サホ	-0.07888751
-3.781936	佐保台:サホダイ	-0.0765641
-3.925366	佐保川:サホガワ	-0.05938996
-3.781936	佐倉:サクラ	-0.06842791
-3.925366	佐名伝:サナテ	-0.06658912
-3.925366	佐味:サミ	-0.07891942
-3.925366	佐紀:サキ	-0.07479978
-3.925366	佐藤薬品工業:サトウヤクヒンコウギョウ	-0.07852837
-3.925366	佐賀:サガ	-0.07740915
-3.925366	体:タイ	-0.07864812
-3.925366	体系:タイケイ	-0.07888751
-3.925366	何れ:イズレ	-0.07836866
-3.925366	余り:アマリ	-0.07002233
-3.925366	作:サク	-0.06279754
-3.716233	作ら:ツクラ	-0.2649304
-3.716233	作家:サッカ	-0.1178608
-3.781936	作曲:サッキョク	-0.07463494
-3.925366	併せ:アワセ	-0.07724902
-3.781936	使:シ	-0.05867626
-3.925366	使っ:ツカッ	-0.07724902
-3.925366	使わ:ツカワ	-0.07828878
-3.330044	使用:シヨウ	-0.2649927
-3.925366	例祭:レイサイ	-0.07002233
-3.925366	供給:キョウキュウ	-0.06859512
-3.781936	供養:クヨウ	-0.06996968
-3.925366	依:ヨ	-0.07889923
-3.925366	侯:コウ	-0.07891942
-3.925366	俊作:シュンサク	-0.05938996
-3.925366	俊徳:シュントク	-0.07836866
-3.925366	保っ:タモッ	-0.07724902
-3.781936	保存:ホゾン	-0.078325
-3.925366	保持:ホジ	-0.07824884
-3.925366	保有:ホユウ	-0.07572488
-3.716233	保育:ホイク	-0.2653696
-3.925366	保育園:ホイクエン	-0.05938996
-3.925366	保護:ホゴ	-0.06859512
-3.925366	保険:ホケン	-0.07888751
-3.925366	保養:ホヨウ	-0.07864812
-3.925366	信:シン	-0.07840859
-3.716233	信仰:シンコウ	-0.06208555
-3.716233	信号:シンゴウ	-0.2653297
-3.925366	信濃川:シナノガワ	-0.07872793
-3.781936	信用組合:シンヨウクミアイ	-0.05607764
-3.781936	信貴:シギ	-0.07884765
-3.925366	信貴南畑:シギミナミハタ	-0.06859512
-3.424973	信貴山:シギサン	-0.08569661
-3.925366	信貴畑:シギハタ	-0.06658912
-3.546631	修:オサム	-0.1912798
-3.716233	修験:シュゲン	-0.06167074
-3.925366	俳人:ハイジン	-0.06912577
-3.781936	俳優:ハイユウ	-0.1510061
-3.925366	俵口:タワラグチ	-0.07266048
-3.925366	倉:クラ	-0.07820889
-3.716233	停車:テイシャ	-0.2653297
-2.756151	停車場:テイシャジョウ	-0.7020501
-3.925366	健児:ケンジ	-0.05938996
-3.925366	傍系:ボウケイ	-0.07860821
-3.925366	傔人:傔人	-0.06912577
-3.781936	備後:ビンゴ	-0.2188953
-3.781936	傷害:ショウガイ	-0.07839689
-3.781936	像:ゾウ	-0.05942779
-3.424973	僧:ソウ	-0.1959331
-3.925366	僧坊:ソウボウ	-0.07889923
-3.925366	儀式:ギシキ	-0.06279754
-3.925366	儀礼:ギレイ	-0.06279754
-3.925366	優:ユウ	-0.07889923
-3.925366	優勝:ユウショウ	-0.07880773
-3.252188	元:モト	-0.07034352
-3.925366	元和:ガンワ	-0.07856829
-3.925366	元年:ガンネン	-0.07475951
-3.925366	元服:ゲンプク	-0.07249859
-3.716233	元町:モトマチ	-0.136949
-3.781936	元興寺:ガンコウジ	-0.0662569
-3.716233	元興寺:ガンゴウジ	-0.150799
-3.925366	兄:アニ	-0.06658912
-3.925366	兄弟:キョウダイ	-0.05938996
-3.781936	先:サキ	-0.05842546
-3.781936	光:ヒカリ	-0.07874443
-3.925366	光枝:ミツエ	-0.07475951
-3.925366	児:ジ	-0.07888751
-3.781936	児童:ジドウ	-0.07467522
-3.781936	入:ニュウ	-0.2193343
-3.925366	入る:ハイル	-0.07864812
-3.781936	入之波:シオノハ	-0.06793731
-3.716233	入野:イリノ	-0.06761815
-3.925366	全:ゼン	-0.07740915
-3.925366	全て:スベテ	-0.06859512
-3.925366	全勝:ゼンショウ	-0.07891942
-3.546631	全国:ゼンコク	-0.1414035
-3.716233	全域:ゼンイキ	-0.1503845
-3.925366	全日:ゼンジツ	-0.07880773
-3.925366	全部:ゼンブ	-0.07002233
-3.925366	全長:ゼンチョウ	-0.07884762
-3.925366	八:ハチ	-0.07891942
-3.925366	八木:ハチボク	-0.07820889
-3.781936	八木:ヤギ	-0.0697742
-3.925366	八条:ハチジョウ	-0.07612649
-3.925366	八角:ハッカク	-0.07888751
-3.925366	公:オオヤケ	-0.07889923
-3.925366	公会堂:コウカイドウ	-0.05938996
-3.546631	公共:コウキョウ	-0.07776979
-3.925366	公卿:クゲ	-0.06912577
-3.033002	公園:コウエン	-0.2564691
-3.925366	公安:コウアン	-0.07888751
-3.925366	公家:クゲ	-0.07888751
-3.925366	公益:コウエキ	-0.07868803
-3.925366	公社:コウシャ	-0.04908526
-3.546631	公立:コウリツ	-0.1636658
-3.925366	公選:コウセン	-0.07889923
-3.546631	六:ロク	-0.0783096
-3.925366	六条西:ロクジョウニシ	-0.06658912
-3.925366	六田:ロクデン	-0.07612649
-3.925366	共同通信社:キョウドウツウシンシャ	-0.07864812
-3.781936	共学:キョウガク	-0.1419252
-3.546631	兵庫:ヒョウゴ	-0.1209172
-3.925366	具:グ	-0.07889923
-3.925366	典:テン	-0.05938996
-3.925366	典子:ノリコ	-0.05938996
-3.925366	典薬:テンヤク	-0.07888751
-3.925366	典雅:テンガ	-0.07002233
-3.925366	兼:ケン	-0.07891942
-3.925366	内:ウチ	-0.07891942
-3.033002	内:ナイ	-0.4849405
-3.925366	内乱:ナイラン	-0.07002233
-3.925366	内側:ウチガワ	-0.07257954
-3.925366	内務:ナイム	-0.07889923
-3.925366	内務省:ナイムショウ	-0.07888751
-3.925366	内山:ウチヤマ	-0.07891942
-3.781936	内牧:ウチマキ	-0.06838705
-3.925366	内省:ナイセイ	-0.06658912
-3.925366	内膳:ナイゼン	-0.07266048
-3.925366	内藤:ナイトウ	-0.07891942
-3.925366	内親王:ナイシンノウ	-0.05938996
-3.424973	円:エン	-0.05386194
-3.925366	円:マドカ	-0.07876783
-3.925366	円満寺:エンマンジ	-0.05938996
-3.925366	再:サイ	-0.07888751
-3.716233	写真:シャシン	-0.07700126
-3.925366	冨田:トミタ	-0.06658912
-3.925366	冬美:フユミ	-0.07257954
-3.781936	准:ジュン	-0.07839689
-3.925366	処理:ショリ	-0.07720898
-3.925366	処遇:ショグウ	-0.06859512
-3.925366	出先:デサキ	-0.07884762
-3.925366	出勤:シュッキン	-0.07572488
-3.925366	出口:デグチ	-0.07479978
-3.781936	出土:シュツド	-0.07394964
-3.925366	出産:シュッサン	-0.07852466
-3.925366	出羽海:デワノウミ	-0.07888751
-3.078315	出身:シュッシン	-0.2777792
-3.781936	刀:カタナ	-0.05257434
-3.925366	刀:ガタナ	-0.05938996
-3.925366	刀工:トウコウ	-0.07257954
-3.781936	分:フン	-0.07607458
-3.925366	分の:ブンノ	-0.07889923
-3.781936	分校:ブンコウ	-0.1998368
-3.925366	分立:ブンリツ	-0.07572488
-3.925366	分霊:ブンレイ	-0.07704879
-3.781936	切幡:キリハタ	-0.06229667
-3.925366	刑:ケイ	-0.06859512
-3.925366	刑罰:ケイバツ	-0.06279754
-3.925366	列挙:レッキョ	-0.07572488
-3.925366	初:ハツ	-0.06279754
-3.925366	初めて:ハジメテ	-0.07886783
-3.925366	初代:ショダイ	-0.0759659
-3.716233	初期:ショキ	-0.09964371
-3.546631	初瀬:ハツセ	-0.02739358
-3.925366	初等:ショトウ	-0.07876783
-3.925366	初級:ショキュウ	-0.07796912
-3.546631	初頭:ショトウ	-0.09741494
-3.925366	判明:ハンメイ	-0.07572488
-3.925366	別:ベツ	-0.07475951
-3.781936	別名:ベツメイ	-0.06258667
-3.925366	別命:ベツメイ	-0.06279754
-3.925366	別所:ベッショ	-0.07891942
-3.781936	利:リ	-0.07868431
-3.716233	利用:リヨウ	-0.1622077
-3.424973	制:セイ	-0.09150643
-3.925366	制覇:セイハ	-0.06658912
-3.925366	刷:スリ	-0.07889923
-3.925366	剃る:ソル	-0.07257954
-3.424973	前:ゼン	-0.163944
-3.716233	前:マエ	-0.03883639
-3.716233	前半:ゼンハン	-0.1818826
-3.781936	前方後円墳:ゼンポウコウエンフン	-0.2104691
-3.925366	前期:ゼンキ	-0.05978308
-3.781936	前身:ゼンシン	-0.04878212
-3.925366	前述:ゼンジュツ	-0.06279754
-3.781936	剛:ツヨシ	-0.1998368
-3.925366	剣:ケン	-0.05938996
-3.781936	剣道:ケンドウ	-0.07781723
-3.925366	副:フク	-0.07891942
-3.925366	創始:ソウシ	-0.07572488
-3.925366	創建:ソウケン	-0.06279754
-3.925366	創業:ソウギョウ	-0.06279754
-3.925366	力:ツトム	-0.05938996
-3.925366	力:リョク	-0.07788917
-3.781936	力士:リキシ	-0.1483892
-3.925366	加え:クワエ	-0.07724902
-3.925366	加守:カモリ	-0.06658912
-3.781936	助:スケ	-0.04993884
-3.716233	助命:ジョメイ	-0.06743414
-3.781936	助教授:ジョキョウジュ	-0.05996975
-3.925366	劫:コウ	-0.07820889
-3.716233	労働:ロウドウ	-0.166145
-3.925366	労働省:ロウドウショウ	-0.06279754
-3.925366	勅:ミコトノリ	-0.07002233
-3.925366	勅旨:チョクシ	-0.07891942
-3.925366	勇:イサミ	-0.07824884
-3.925366	動き:ウゴキ	-0.06279754
-3.925366	勘:カン	-0.07824884
-3.781936	務め:ツトメ	-0.1645021
-3.925366	勝元:カツモト	-0.06279754
-3.925366	勝賀山:カツガヤマ	-0.07884762
-3.781936	勢:ゼイ	-0.06262808
-3.781936	勢井:ゼイ	-0.06852163
-3.781936	勢力:セイリョク	-0.06748711
-3.925366	勢野東:セヤヒガシ	-0.06658912
-3.925366	勤務:キンム	-0.07572488
-3.716233	化:カ	-0.06657326
-3.925366	化粧:ケショウ	-0.07876783
-3.078315	北:キタ	-0.08739079
-3.925366	北九州:キタキュウシュウ	-0.07868803
-3.781936	北側:キタガワ	-0.04245587
-3.925366	北八木:キタヤギ	-0.07872793
-3.925366	北六田:キタムダ	-0.06658912
-3.925366	北口:キタグチ	-0.07612649
-3.925366	北多摩:キタタマ	-0.07808902
-3.925366	北大和:キタヤマト	-0.07728906
-3.925366	北宇智:キタウチ	-0.07820889
-3.925366	北山川:キタヤマガワ	-0.05938996
-3.925366	北岳:キタダケ	-0.07257954
-3.925366	北御門:キタミカド	-0.07266048
-3.925366	北東:ホクトウ	-0.07792915
-3.925366	北椿尾:キタツバオ	-0.07266048
-3.925366	北海道大学:ホッカイドウダイガク	-0.07872793
-3.925366	北端:ホクタン	-0.06279754
-3.925366	北花内:キタハナウチ	-0.07479978
-3.424973	北葛城:キタカツラギ	-0.4865794
-3.781936	北西:ホクセイ	-0.0654639
-3.925366	北辺:ホクヘン	-0.06279754
-3.424973	北部:ホクブ	-0.0913569
-3.781936	北野:キタノ	-0.06852163
-3.925366	匠:タクミ	-0.07889923
-2.712887	区:ク	-0.1605568
-3.716233	区分:クブン	-0.1511304
-3.781936	区域:クイキ	-0.06822356
-3.716233	区検:クケン	-0.1608333
-3.925366	区画:クカク	-0.07891942
-3.781936	区間:クカン	-0.1998368
-3.925366	医:イ	-0.07868803
-3.781936	医学:イガク	-0.07884765
-3.925366	医学部:イガクブ	-0.07891942
-3.252188	医師:イシ	-0.2426515
-3.925366	医療:イリョウ	-0.06279754
-3.925366	医薬品:イヤクヒン	-0.06859512
-3.252188	十:ジュウ	-0.1019674
-3.925366	十市:トイチ	-0.07888751
-3.925366	十文字:ジュウモンジ	-0.07891942
-3.330044	十津川:トツカワ	-0.115376
-3.925366	十輪院:ジュウリイン	-0.07266048
-3.925366	千:セン	-0.07884762
-3.925366	千光寺:センコウジ	-0.05938996
-3.925366	千手:センジュ	-0.07820889
-3.925366	千曲川:チクマガワ	-0.07249859
-3.781936	千股:チマタ	-0.0737075
-3.925366	千葉:チバ	-0.07740915
-3.925366	千賀子:チカコ	-0.05938996
-3.925366	半分:ハンブン	-0.06859512
-3.925366	半坂:ハンサカ	-0.07808902
-3.781936	卒:ソツ	-0.2095726
-3.424973	卒業:ソツギョウ	-0.15396
-3.925366	協:キョウ	-0.07891942
-3.424973	協会:キョウカイ	-0.07790392
-3.925366	協議:キョウギ	-0.07848845
-3.330044	南:ミナミ	-0.08904142
-3.925366	南下:ナンカ	-0.07572488
-3.925366	南中:ナンチュウ	-0.07796912
-3.925366	南中:ミナミナカ	-0.07266048
-3.925366	南京終:ミナミキョウバテ	-0.07266048
-3.925366	南佐久:ミナミサク	-0.07808902
-3.781936	南北:ナンボク	-0.2070359
-3.781936	南大阪線:ミナミオオサカセン	-0.04245587
-3.925366	南巨摩:ミナミコマ	-0.07808902
-3.925366	南明寺:ナンメイジ	-0.05938996
-3.925366	南朝:ナンチョウ	-0.06658912
-3.716233	南東:ナントウ	-0.2645708
-3.925366	南松浦:ミナミマツウラ	-0.07808902
-3.925366	南河内:ミナミカワチ	-0.07808902
-3.925366	南海:ナンカイ	-0.07891942
-3.716233	南田原:ミナミタバル	-0.06745056
-3.925366	南画:ナンガ	-0.07788917
-3.925366	南畑:ミナミハタ	-0.07856829
-3.925366	南秋田:ミナミアキタ	-0.07808902
-3.925366	南紀:ナンキ	-0.07860821
-3.781936	南花内:ミナミハナウチ	-0.218336
-3.716233	南西:ナンセイ	-0.2645708
-3.925366	南郡山:ミナミコオリヤマ	-0.07266048
-3.424973	南部:ナンブ	-0.1445752
-3.781936	南都:ナント	-0.07576938
-3.781936	南都七大寺:ナントシチダイジ	-0.04245587
-3.925366	南阿田:ミナミアダ	-0.07266048
-3.925366	単:タン	-0.07889923
-3.546631	単位:タンイ	-0.1333214
-3.925366	博:ハク	-0.05938996
-3.925366	博:ヒロシ	-0.07820889
-3.925366	博士:ハカセ	-0.07257954
-3.716233	博物館:ハクブツカン	-0.03941343
-3.925366	占める:シメル	-0.06912577
-3.925366	占部:ウラベ	-0.07864812
-3.925366	危険:キケン	-0.06859512
-3.925366	卸:オロシ	-0.07864812
-3.925366	厚化粧:アツゲショウ	-0.06859512
-3.716233	厚生:コウセイ	-0.07807358
-3.925366	原典:ゲンテン	-0.07249859
-3.781936	原始:ゲンシ	-0.07849646
-3.781936	原生:ゲンセイ	-0.219346
-3.925366	厨子:ズシ	-0.05938996
-3.925366	参宮:サングウ	-0.07836866
-3.925366	参議院:サンギイン	-0.07884762
-3.925366	又は:マタハ	-0.07864812
-3.925366	又新:マタシン	-0.07888751
-3.925366	叉:マタ	-0.07880773
-3.128912	及び:オヨビ	-0.06416366
-3.925366	友:トモ	-0.07876783
-3.925366	友理:ユリ	-0.05938996
-3.925366	反乱:ハンラン	-0.07002233
-3.925366	取水:シュスイ	-0.07572488
-3.781936	受け:ウケ	-0.07595841
-3.925366	受ける:ウケル	-0.07475951
-3.925366	叛乱:ハンラン	-0.06912577
-3.925366	叡:アキラ	-0.05938996
-3.925366	口:クチ	-0.07612649
-3.925366	口:グチ	-0.07808902
-3.925366	口大野:クチオオノ	-0.07820889
-3.424973	古:コ	-0.0778178
-3.781936	古い:フルイ	-0.06869806
-3.925366	古く:フルク	-0.05938996
-3.546631	古代:コダイ	-0.1171909
-2.655135	古墳:コフン	-0.379232
-3.925366	古市:フルイチ	-0.07266048
-3.925366	古市場:フルイチバ	-0.05590945
-3.781936	古瀬:コセ	-0.05585506
-3.925366	古都:コト	-0.0759659
-3.925366	古銅:コドウ	-0.07891942
-3.925366	可憐:カレン	-0.07844852
-3.925366	可能:カノウ	-0.07889923
-3.781936	台:ダイ	-0.06568161
-3.925366	台ケ原:ダイガハラ	-0.07856829
-3.716233	史:シ	-0.05888125
-3.781936	史上:シジョウ	-0.07886783
-3.781936	史家:シカ	-0.2130264
-3.781936	史跡:シセキ	-0.07804534
-3.781936	右:ミギ	-0.07884765
-3.781936	右京:ウキョウ	-0.07712516
-3.925366	右翼:ウヨク	-0.07888751
-1.869435	号:ゴウ	-0.06163146
-3.925366	号し:ゴウシ	-0.07257954
-3.781936	司:ツカサ	-0.05261671
-3.925366	司会:シカイ	-0.05938996
-3.546631	各地:カクチ	-0.2787926
-3.925366	合:ゴウ	-0.07868803
-3.925366	合併:ガッペイ	-0.07868803
-3.925366	合成:ゴウセイ	-0.07891942
-3.424973	合流:ゴウリュウ	-0.1218119
-3.925366	合計:ゴウケイ	-0.07891942
-3.781936	吉:ヨシ	-0.07855658
-3.925366	吉備:キビ	-0.07889923
-3.925366	吉備真備:キビノマキビ	-0.06279754
-3.925366	吉元:ヨシモト	-0.07891942
-3.925366	吉新:ヨシシン	-0.05590945
-3.925366	吉永:ヨシナガ	-0.07891942
-3.781936	吉田:ヨシダ	-0.165977
-2.888021	吉野:ヨシノ	-0.1234506
-3.546631	吉野山:ヨシノヤマ	-0.1005778
-3.546631	吉野川:ヨシノガワ	-0.0655506
-3.781936	吉野神宮:ヨシノジングウ	-0.07535937
-3.925366	吉野線:ヨシノセン	-0.07884762
-3.781936	同:ドウ	-0.07704617
-3.781936	同乗:ドウジョウ	-0.2186957
-3.781936	同名:ドウメイ	-0.2032444
-3.781936	同市:ドウシ	-0.06369653
-3.781936	同村:ドウソン	-0.07136171
-3.925366	同校:ドウコウ	-0.07888751
-3.781936	同町:ドウチョウ	-0.07742257
-3.925366	同盟:ドウメイ	-0.07574954
-3.424973	名:ナ	-0.01634122
-3.252188	名:メイ	-0.1105865
-3.716233	名づけ:ナヅケ	-0.2654494
-3.925366	名乗っ:ナノッ	-0.0778092
-3.925366	名刹:メイサツ	-0.07257954
-3.925366	名前:ナマエ	-0.06912577
-3.925366	名城大学:メイジョウダイガク	-0.07844852
-3.925366	名声:メイセイ	-0.06859512
-3.925366	名張:ナバリ	-0.07636728
-3.925366	名張川:ナバリガワ	-0.06658912
-3.925366	名月:メイゲツ	-0.06279754
-3.925366	名目:メイモク	-0.06279754
-3.252188	名称:メイショウ	-0.1213669
-3.252188	名誉:メイヨ	-0.4532669
-3.925366	名跡:ミョウセキ	-0.06912577
-3.925366	名高い:ナダカイ	-0.06258667
-3.781936	吐山:ハヤマ	-0.06842791
-3.781936	向:コウ	-0.1659449
-3.925366	向かい:ムカイ	-0.07884762
-3.925366	君:キミ	-0.07888751
-3.925366	含み:フクミ	-0.07257954
-3.925366	含む:フクム	-0.07848845
-3.925366	含め:フクメ	-0.07257954
-3.925366	吹奏楽:スイソウガク	-0.07891942
-3.330044	呂:リョ	-0.5470616
-3.925366	呉:クレ	-0.07636728
-3.925366	周囲:シュウイ	-0.06658912
-3.925366	周年:シュウネン	-0.06859512
-3.186191	周辺:シュウヘン	-0.0721357
-3.925366	周遊:シュウユウ	-0.07257954
-3.925366	呰人:呰人	-0.05938996
-3.925366	呰麻:呰麻	-0.07876783
-3.925366	味噌:ミソ	-0.07844852
-3.546631	呼ば:ヨバ	-0.2455755
-3.925366	呼び出し:ヨビダシ	-0.0778092
-3.925366	呼び名:ヨビナ	-0.07002233
-3.925366	呼称:コショウ	-0.06912577
-3.925366	命名:メイメイ	-0.07704879
-3.925366	和:カズ	-0.07891942
-3.925366	和:ワ	-0.07872793
-3.925366	和子:カズコ	-0.05938996
-3.925366	和文:ワブン	-0.07889923
-3.925366	和歌:ワカ	-0.06279754
-2.991974	和歌山:ワカヤマ	-0.3703409
-3.925366	和正:カズマサ	-0.05938996
-3.925366	和気:ワケ	-0.07888751
-3.925366	和美:カズミ	-0.05938996
-3.925366	和銅:ワドウ	-0.07889923
-3.925366	咲:サキ	-0.07891942
-3.925366	品:ヒン	-0.06912577
-3.925366	品位:ヒンイ	-0.07249859
-3.925366	員:イン	-0.07888751
-3.925366	哲:アキラ	-0.05938996
-3.925366	哲学:テツガク	-0.07824884
-3.925366	哲次:テツジ	-0.05938996
-3.546631	唐:トウ	-0.140902
-3.781936	唯一:ユイイツ	-0.06271089
-3.781936	商:ショウ	-0.06899957
-3.781936	商工:ショウコウ	-0.2193662
-3.925366	商工会:ショウコウカイ	-0.07884762
-3.781936	商店:ショウテン	-0.2193662
-3.716233	商業:ショウギョウ	-0.1653844
-3.716233	問題:モンダイ	-0.0456931
-3.925366	善:ゼン	-0.07760922
-3.925366	善弘:ヨシヒロ	-0.05938996
-3.781936	喜:キ	-0.07884765
-3.925366	喜蔵:ヨシゾウ	-0.07820889
-3.925366	営ん:イトナン	-0.07872793
-3.078315	営業:エイギョウ	-0.6085282
-3.925366	嗣:嗣	-0.06279754
-3.781936	嘉幡:カバタ	-0.2131073
-3.925366	嚆矢:コウシ	-0.07249859
-3.128912	四:ヨン	-0.3000883
-3.781936	四天王:シテンノウ	-0.059336
-3.781936	四条:シジョウ	-0.06842791
-3.925366	四條畷:シジョウナワテ	-0.07636728
-3.781936	回:カイ	-0.07875613
-3.925366	回遊:カイユウ	-0.07891942
-3.925366	因ん:チナン	-0.07002233
-3.781936	団体:ダンタイ	-0.06341414
-3.781936	団地:ダンチ	-0.04908526
-3.925366	困窮:コンキュウ	-0.07824884
-3.925366	図:ズ	-0.07249859
-3.925366	図る:ハカル	-0.07891942
-3.781936	図像:ズゾウ	-0.05737889
-3.925366	図書:トショ	-0.07888751
-3.424973	図書館:トショカン	-0.1521896
-3.716233	国:クニ	-0.2494392
-2.919985	国:コク	-0.2473616
-3.781936	国内:コクナイ	-0.06271089
-3.925366	国分台:コクブダイ	-0.07868803
-3.716233	国分寺:コクブンジ	-0.0354111
-3.925366	国勝:クニカツ	-0.07888751
-3.925366	国司:コクシ	-0.07475951
-3.781936	国営:コクエイ	-0.07824512
-3.781936	国土:コクド	-0.0785965
-3.781936	国定:コクテイ	-0.2190151
-3.424973	国家:コッカ	-0.3070989
-3.925366	国府:コクフ	-0.05938996
-3.925366	国文学:コクブンガク	-0.07880773
-3.925366	国有:コクユウ	-0.07856829
-3.716233	国東:クニサキ	-0.0697704
-3.925366	国東半島:クニサキハントウ	-0.06279754
-3.781936	国栖:クズ	-0.0685423
-3.330044	国立:コクリツ	-0.09824049
-3.925366	国粋:コクスイ	-0.07848845
-3.078315	国道:コクドウ	-0.1542312
-3.925366	国鉄御所駅前通り:コクテツゴセエキマエドオリ	-0.06859512
-3.781936	国際:コクサイ	-0.2177359
-3.925366	囿煎:囿煎	-0.07891942
-3.781936	圏:ケン	-0.0685423
-3.781936	園:エン	-0.05261671
-3.925366	園生:エンセイ	-0.05938996
-3.925366	園芸:エンゲイ	-0.07796912
-3.925366	圓:エン	-0.07886783
-3.925366	土佐:トサ	-0.07728906
-3.781936	土器:ドキ	-0.05909394
-3.781936	土地:トチ	-0.07883593
-3.925366	土居:ドイ	-0.07889923
-3.424973	土木:ドボク	-0.487338
-3.925366	圧倒的:アットウテキ	-0.07844852
-3.546631	在住:ザイジュウ	-0.254226
-3.925366	在日:ザイニチ	-0.07891942
-3.925366	在籍:ザイセキ	-0.07572488
-3.078315	地:チ	-0.06527761
-3.925366	地下:チカ	-0.07788917
-3.925366	地下鉄:チカテツ	-0.07884762
-3.925366	地主:ジヌシ	-0.07257954
-3.424973	地区:チク	-0.09388965
-3.781936	地名:チメイ	-0.1178608
-2.954489	地域:チイキ	-0.2007673
-3.716233	地帯:チタイ	-0.1527008
-3.925366	地形:チケイ	-0.07868803
-2.888021	地方:チホウ	-0.08384602
-3.716233	地方裁判所:チホウサイバンショ	-0.04301538
-3.925366	地方銀行:チホウギンコウ	-0.06912577
-3.925366	地点:チテン	-0.06859512
-3.716233	地理:チリ	-0.1426521
-3.925366	地福寺:ジフクジ	-0.05938996
-3.925366	地誌:チシ	-0.07002233
-3.781936	坂:サカ	-0.07244623
-3.925366	坂:ザカ	-0.07612649
-3.925366	坂上:サカガミ	-0.07884762
-3.925366	坂出:サカイデ	-0.07636728
-3.781936	坊:ボウ	-0.0747477
-3.925366	坪:ツボ	-0.06658912
-3.781936	坪生:ツボウ	-0.07260814
-3.781936	型:ガタ	-0.07884765
-3.925366	城:グスク	-0.07612649
-3.781936	城:ジョウ	-0.05261671
-3.546631	城主:ジョウシュ	-0.07578974
-3.925366	城内:キウチ	-0.07728906
-3.925366	城内:ジョウナイ	-0.06658912
-3.925366	城戸:キド	-0.06658912
-3.925366	城野:ジョウノ	-0.07728906
-3.716233	域:イキ	-0.05888125
-3.925366	執る:トル	-0.07864812
-3.925366	執行:シッコウ	-0.07720898
-3.925366	基:キ	-0.07475951
-3.925366	基:モト	-0.07891942
-3.925366	基づい:モトヅイ	-0.0778092
-3.925366	基づく:モトヅク	-0.07889923
-3.716233	基地:キチ	-0.1036439
-3.925366	基本:キホン	-0.07884762
-3.781936	埼玉:サイタマ	-0.217856
-3.925366	堀内:ホリウチ	-0.07891942
-3.925366	堂:ドウ	-0.07891942
-3.925366	堤:ツツミ	-0.07860821
-3.925366	堰:セキ	-0.05938996
-3.186191	場:ジョウ	-0.07648233
-3.925366	場所:バショ	-0.06658912
-3.781936	塔:トウ	-0.1669441
-3.781936	塔頭:タッチュウ	-0.06272306
-3.925366	塗ら:ヌラ	-0.07876783
-3.925366	塗り:ヌリ	-0.06279754
-3.716233	塚:ツカ	-0.2646507
-3.925366	塞:塞	-0.06912577
-3.716233	塩尻:シオジリ	-0.2630089
-3.925366	塩焼:シオヤキ	-0.07872793
-3.716233	境:サカイ	-0.1618273
-3.925366	境内:ケイダイ	-0.07656784
-3.424973	墓:ハカ	-0.110576
-3.925366	墓地:ボチ	-0.06912577
-3.925366	墓域:ボイキ	-0.06912577
-3.781936	墓誌:ボシ	-0.05002411
-3.925366	増:ゾウ	-0.06658912
-3.781936	墨俣:スノマタ	-0.0720088
-3.716233	墳:フン	-0.256664
-3.716233	墾田:コンデン	-0.06266951
-3.781936	士:シ	-0.06850962
-3.925366	声優:セイユウ	-0.05938996
-3.781936	壱分:イチブ	-0.07224809
-3.925366	壺阪:ツボサカ	-0.07796539
-3.925366	変える:カエル	-0.06912577
-3.925366	変更:ヘンコウ	-0.07572488
-3.716233	夏:ナツ	-0.1383583
-3.925366	外:ガイ	-0.07868803
-3.925366	外交:ガイコウ	-0.07868803
-3.925366	外国:ガイコク	-0.07889923
-3.925366	外科:ゲカ	-0.07844852
-3.546631	多:タ	-0.07842138
-3.781936	多い:オオイ	-0.06887714
-3.925366	多く:オオク	-0.07860821
-3.925366	多武峰:トウノミネ	-0.05938996
-3.781936	多聞:タモン	-0.2186557
-3.925366	多胡:タゴ	-0.07891942
-3.925366	夜:ヨル	-0.07880773
-3.925366	夜行:ヤコウ	-0.07889923
-3.925366	夜道:ヨミチ	-0.07002233
-3.925366	夜須:ヤス	-0.07880773
-2.954489	大:ダイ	-0.08733717
-3.925366	大久保:オオクボ	-0.07266048
-3.716233	大乗:ダイジョウ	-0.2648505
-3.716233	大仏:ダイブツ	-0.03724252
-3.925366	大仏殿:ダイブツデン	-0.05938996
-3.925366	大仲:オオナカ	-0.07891942
-3.424973	大会:タイカイ	-0.1220962
-3.925366	大伴:オオトモ	-0.07889923
-3.781936	大保:タイホ	-0.07260814
-3.925366	大僧正:ダイソウジョウ	-0.07788917
-3.716233	大分:オオイタ	-0.2640508
-3.781936	大又:オオマタ	-0.06838705
-3.925366	大台:オオダイ	-0.07861622
-2.830388	大和:ヤマト	-0.1020901
-3.925366	大和小泉:ヤマトコイズミ	-0.07888751
-3.781936	大和川:ヤマトガワ	-0.2191747
-3.252188	大和郡山:ヤマトコオリヤマ	-0.1686183
-3.128912	大和高田:ヤマトタカダ	-0.2607242
-3.925366	大坂:オオサカ	-0.07656784
-3.925366	大型:オオガタ	-0.07888751
-3.925366	大垣:オオガキ	-0.07636728
-3.925366	大塔:オオトウ	-0.05938996
-3.716233	大塔:ダイトウ	-0.1598606
-3.925366	大塚:オオツカ	-0.07891942
-3.925366	大塩:オオシオ	-0.06859512
-3.424973	大字:ダイジ	-0.05750326
-3.546631	大学:ダイガク	-0.04869263
-3.925366	大学院:ダイガクイン	-0.07889923
-3.424973	大宇陀:オオウダ	-0.1032201
-3.925366	大安:タイアン	-0.07888751
-3.925366	大安寺:ダイアンジ	-0.07266048
-3.925366	大宮:オオミヤ	-0.0782169
-3.925366	大寺:オオテラ	-0.06859512
-3.925366	大将:タイショウ	-0.05938996
-3.925366	大将軍:ダイショウグン	-0.07249859
-3.925366	大山:オオヤマ	-0.07891942
-3.925366	大峠:オオトウゲ	-0.05938996
-3.925366	大峰:オオミネ	-0.07891942
-3.925366	大峰山:オオミネサン	-0.06279754
-3.925366	大峰山脈:オオミネサンミャク	-0.06279754
-3.925366	大師:ダイシ	-0.07889923
-3.925366	大広:オオヒロ	-0.07266048
-3.925366	大戦:タイセン	-0.07852466
-3.925366	大抵:タイテイ	-0.05938996
-3.925366	大政:タイセイ	-0.07891942
-3.781936	大本山:ダイホンザン	-0.1076293
-3.925366	大東:ダイトウ	-0.07636728
-3.925366	大枝:オオエダ	-0.07891942
-3.781936	大柳生:オオヤギュウ	-0.07111634
-3.781936	大橋:オオハシ	-0.05846727
-3.925366	大歳:オオトシ	-0.07848845
-3.546631	大淀:オオヨド	-0.1745956
-3.925366	大滝:オオタキ	-0.07479978
-3.925366	大田:オオタ	-0.07889923
-3.925366	大畑:オオハタ	-0.06658912
-3.716233	大相撲:オオズモウ	-0.1946668
-3.925366	大神:オオガミ	-0.07891942
-3.925366	大福:オオフク	-0.07612649
-3.925366	大福:ダイフク	-0.07808902
-3.925366	大臣:ダイジン	-0.07876783
-3.925366	大蔵:オオクラ	-0.07760922
-3.925366	大西:オオニシ	-0.06859512
-3.925366	大覚寺:ダイカクジ	-0.07891942
-3.925366	大谷:オオヤ	-0.06658912
-3.781936	大谷山:オオタニヤマ	-0.07877584
-3.925366	大路:オオジ	-0.07868803
-3.925366	大軽:オオガル	-0.07266048
-3.781936	大輪田:オオワダ	-0.06366208
-3.781936	大迫:オオバサマ	-0.06229667
-3.925366	大造:タイゾウ	-0.07891942
-3.925366	大里:オオサト	-0.07808902
-3.781936	大野:オオノ	-0.0685423
-2.756151	大阪:オオサカ	-0.3326318
-3.925366	大阪芸術大学:オオサカゲイジュツダイガク	-0.07888751
-3.925366	大麻:タイマ	-0.07876783
-3.781936	天:テン	-0.07883593
-3.925366	天の川:アマノガワ	-0.07832872
-3.925366	天台宗:テンダイシュウ	-0.06279754
-3.925366	天国:テンゴク	-0.05938996
-3.925366	天寿:テンジュ	-0.07844852
-3.716233	天川:アマカワ	-0.2644109
-3.781936	天平:テンピョウ	-0.07876413
-3.781936	天文:テンモン	-0.07772549
-3.925366	天武天皇:テンムテンノウ	-0.06279754
-3.033002	天理:テンリ	-0.1057671
-3.781936	天理大学:テンリダイガク	-0.05867236
-3.781936	天理教:テンリキョウ	-0.07430881
-3.424973	天皇:テンノウ	-0.04132475
-3.925366	天皇陵:テンノウリョウ	-0.07891942
-3.925366	天神山:テンジンヤマ	-0.07800909
-3.925366	天辻:テンツジ	-0.07876783
-3.925366	天野川:アマノガワ	-0.05938996
-3.925366	天龍:テンリュウ	-0.07475951
-3.925366	太:タイ	-0.07612649
-3.925366	太:フト	-0.07891942
-3.781936	太:フトシ	-0.05931488
-3.925366	太夫:タユウ	-0.05938996
-3.925366	太子:タイシ	-0.07266048
-3.925366	太山寺:タイサンジ	-0.06658912
-3.925366	太田:オオタ	-0.07886783
-3.925366	太郎:タロウ	-0.07880773
-3.925366	奇:キ	-0.07888751
-3.716233	奈:奈	-0.1608657
-3.925366	奈備:奈備	-0.07880773
-3.925366	奈和:奈和	-0.07872793
-3.925366	奈止:奈止	-0.07860821
-2.161428	奈良:ナラ	-0.1404736
-3.925366	奈良丸:ナラマル	-0.04852953
-3.186191	奈良井:ナライ	-0.06189986
-3.716233	奈良井川:ナライガワ	-0.02725883
-3.925366	奈良先端科学技術大学院大学:ナラセンタンカガクギジュツダイガクインダイガク	-0.07881574
-3.781936	奈良公園:ナラコウエン	-0.05896867
-3.546631	奈良原:ナラハラ	-0.06517644
-3.424973	奈良大学:ナラダイガク	-0.1178327
-3.925366	奈良大学附属高等学校:ナラダイガクフゾクコウトウガッコウ	-0.05938996
-3.546631	奈良女子大学:ナラジョシダイガク	-0.04181521
-3.781936	奈良学園:ナラガクエン	-0.05905218
-3.925366	奈良尾:ナラオ	-0.07144108
-3.716233	奈良屋:ナラヤ	-0.0591858
-3.925366	奈良岡:ナラオカ	-0.07891942
-3.925366	奈良工業高等専門学校:ナラコウギョウコウトウセンモンガッコウ	-0.05938996
-3.925366	奈良放送局:ナラホウソウキョク	-0.05938996
-3.716233	奈良教育大学:ナラキョウイクダイガク	-0.1379238
-3.925366	奈良文化女子短期大学:ナラブンカジョシタンキダイガク	-0.07891942
-3.781936	奈良本:ナラモト	-0.07886783
-3.781936	奈良梨:ナラナシ	-0.06188207
-3.925366	奈良橋:ナラハシ	-0.07776921
-3.925366	奈良津:ナラヅ	-0.07266048
-3.925366	奈良漬:ナラヅケ	-0.06859512
-3.781936	奈良田:ナラダ	-0.07824512
-3.330044	奈良盆地:ナラボンチ	-0.05304989
-3.716233	奈良県立医科大学:ナラケンリツイカダイガク	-0.10066
-3.925366	奈良県立短期大学:ナラケンリツタンキダイガク	-0.07820889
-3.925366	奈良育英高等学校:ナライクエイコウトウガッコウ	-0.07880773
-3.925366	奈良輪:ナラワ	-0.07744917
-3.925366	奈良銀行:ナラギンコウ	-0.05938996
-3.925366	奈良間:ナラマ	-0.07891942
-3.716233	奈良阪:ナラザカ	-0.1609952
-3.925366	奈麻:奈麻	-0.07876783
-3.925366	契機:ケイキ	-0.07788917
-3.925366	奥:オク	-0.07891942
-3.925366	奥中:オクナカ	-0.07891942
-3.925366	奥山:オクヤマ	-0.06859512
-3.925366	奥州:オウシュウ	-0.07636728
-3.925366	奨励:ショウレイ	-0.06279754
-3.925366	奨学:ショウガク	-0.07848845
-3.781936	女:オンナ	-0.059336
-3.781936	女優:ジョユウ	-0.0457792
-3.781936	女児:ジョジ	-0.07881574
-3.252188	女子:ジョシ	-0.1431329
-3.925366	女子美術大学:ジョシビジュツダイガク	-0.07888751
-3.925366	女官:ニョカン	-0.06912577
-3.716233	女性:ジョセイ	-0.04776812
-3.925366	女流:ジョリュウ	-0.07888751
-3.925366	女郎:ジョロウ	-0.05938996
-3.925366	如意輪寺:ニョイリンジ	-0.05938996
-3.925366	如来:ニョライ	-0.06859512
-3.716233	妖怪:ヨウカイ	-0.2557674
-3.925366	妙:タエ	-0.07760922
-3.925366	妙:ミョウ	-0.07889923
-3.925366	妙心寺:ミョウシンジ	-0.07864812
-3.925366	妹:イモウト	-0.05938996
-3.925366	始まっ:ハジマッ	-0.07724902
-3.925366	始まる:ハジマル	-0.0759659
-3.925366	始め:ハジメ	-0.07257954
-3.781936	姓:セイ	-0.04852953
-3.716233	委員:イイン	-0.2651301
-3.925366	委嘱:イショク	-0.07002233
-3.716233	委託:イタク	-0.1638995
-3.925366	姥神:ウバガミ	-0.07868803
-3.781936	姫:ヒメ	-0.07879603
-3.925366	娘:ムスメ	-0.05938996
-3.781936	婆:ババ	-0.0785965
-3.925366	婆さん:バアサン	-0.05938996
-3.925366	嫡流:チャクリュウ	-0.05938996
-3.424973	子:コ	-0.0256795
-3.925366	子守:コモリ	-0.06658912
-3.925366	孔:アナ	-0.07888751
-3.546631	字:ジ	-0.07776659
-3.330044	存在:ソンザイ	-0.38553
-3.925366	孝司:タカシ	-0.05938996
-3.925366	孝明天皇:コウメイテンノウ	-0.07249859
-3.925366	季:キ	-0.07891942
-3.925366	季節:キセツ	-0.06279754
-3.716233	学:ガク	-0.07844111
-3.925366	学び:マナビ	-0.07891942
-3.925366	学僧:ガクソウ	-0.07475951
-3.781936	学制:ガクセイ	-0.1511635
-3.330044	学園:ガクエン	-0.3168979
-3.781936	学園前:ガクエンマエ	-0.04642844
-2.637473	学校:ガッコウ	-0.2685748
-3.925366	学生:ガクセイ	-0.07888751
-3.330044	学科:ガッカ	-0.09827968
-3.925366	学習院:ガクシュウイン	-0.07844852
-3.186191	学者:ガクシャ	-0.3169824
-3.925366	学舎:ガクシャ	-0.05938996
-3.925366	学術:ガクジュツ	-0.07884762
-3.925366	学部:ガクブ	-0.07877584
-3.925366	学長:ガクチョウ	-0.06912577
-3.925366	学院:ガクイン	-0.05938996
-3.925366	孫:マゴ	-0.07891942
-3.925366	孫子:マゴコ	-0.07760922
-3.781936	宅:タク	-0.07461457
-3.781936	宇井:ウイ	-0.06229667
-3.925366	宇多:ウダ	-0.06658912
-3.781936	宇太:宇太	-0.07803734
-3.925366	宇治:ウジ	-0.07636728
-3.925366	宇治山田:ウジヤマダ	-0.07828878
-3.925366	宇遅:宇遅	-0.07792915
-3.781936	宇都:ウト	-0.2193662
-3.925366	宇野:ウノ	-0.07808902
-3.252188	宇陀:ウダ	-0.1506801
-3.781936	宇陀川:ウダガワ	-0.04245587
-3.925366	守:モリ	-0.05938996
-3.781936	安:ヤス	-0.07875613
-3.925366	安全:アンゼン	-0.07880773
-3.925366	安土:アヅチ	-0.07891942
-3.716233	安堵:アンド	-0.2593021
-3.925366	安宿:ヤスヤド	-0.07872793
-3.925366	安富:ヤストミ	-0.07891942
-3.925366	安寺:アテラ	-0.05938996
-3.925366	安山岩:アンザンガン	-0.06912577
-3.781936	安岐:アキ	-0.07257577
-3.716233	安曇:アズミ	-0.1671756
-3.925366	安田:ヤスダ	-0.07891942
-3.925366	安藤:アンドウ	-0.07891942
-3.716233	宗:タカシ	-0.07876413
-3.716233	宗:ムネ	-0.1308753
-3.925366	宗と:ムネト	-0.05938996
-3.925366	宗像:ムナカタ	-0.07840859
-3.781936	宗川野:ムネガワノ	-0.06229667
-3.925366	宗形:ムナカタ	-0.07884765
-3.925366	宗教:シュウキョウ	-0.07788917
-3.716233	宗派:シュウハ	-0.150799
-3.186191	官:カン	-0.1845717
-3.781936	官僚:カンリョウ	-0.06258667
-3.925366	官制:カンセイ	-0.07856829
-3.781936	官職:カンショク	-0.05350568
-3.925366	定:テイ	-0.07888751
-3.925366	定め:サダメ	-0.07880773
-3.925366	定時:テイジ	-0.07880773
-3.925366	定着:テイチャク	-0.07572488
-3.925366	宛:アテ	-0.07891942
-3.925366	宝:タカラ	-0.07886783
-3.925366	宝山寺:ホウザンジ	-0.07479978
-3.925366	宝来:タカラギ	-0.07266048
-3.925366	宝来:ホウライ	-0.07880773
-3.781936	宝蔵:ホウゾウ	-0.07815722
-3.925366	実兄:ジッケイ	-0.07889923
-3.925366	実家:ジッカ	-0.05938996
-3.925366	実施:ジッシ	-0.07704879
-3.781936	実業:ジツギョウ	-0.2177359
-3.925366	客員:キャクイン	-0.07844852
-3.424973	室:シツ	-0.04635624
-3.925366	室:ムロ	-0.07848845
-3.424973	室生:ムロウ	-0.1275746
-3.781936	室町:ムロマチ	-0.1667365
-3.330044	宮:ミヤ	-0.08396447
-3.925366	宮ノ下:ミヤノシタ	-0.07832872
-3.925366	宮中:キュウチュウ	-0.06279754
-3.925366	宮山:ミヤヤマ	-0.07800909
-3.925366	宮林:ミヤバヤシ	-0.07891942
-3.716233	宮殿:キュウデン	-0.1573374
-3.781936	宮滝:ミヤタキ	-0.06609261
-3.925366	害:ガイ	-0.07889923
-3.925366	家:イエ	-0.06658912
-2.604169	家:カ	-0.4947071
-3.716233	家庭:カテイ	-0.2106398
-3.925366	家政学部:カセイガクブ	-0.07889923
-3.925366	家族:カゾク	-0.07856829
-3.925366	家業:カギョウ	-0.07249859
-3.716233	家系:カケイ	-0.05611576
-3.925366	家老:カロウ	-0.07889923
-3.781936	容疑:ヨウギ	-0.05350568
-3.781936	宿:ヤド	-0.059336
-3.925366	宿場:シュクバ	-0.06912577
-3.925366	宿禰:スクネ	-0.07889923
-3.925366	寄:ヤドリキ	-0.07808902
-3.925366	密告:ミッコク	-0.07864812
-3.925366	富国:フコク	-0.07876783
-3.925366	富士:フジ	-0.07880773
-3.925366	富山:トヤマ	-0.07740915
-3.925366	富本:トミモト	-0.07891942
-3.925366	富田:トミタ	-0.07884762
-3.925366	富貴寺:フウキジ	-0.05938996
-3.781936	富雄:トミオ	-0.07579775
-3.925366	富雄北:トミオキタ	-0.07744917
-3.925366	富雄川:トミオカワ	-0.06658912
-3.925366	富雄川:トミオガワ	-0.05938996
-3.716233	察:サッ	-0.07144922
-3.925366	寧楽:ネイラク	-0.07740542
-3.925366	審:シン	-0.07891942
-3.925366	審査:シンサ	-0.07848845
-3.716233	寮:リョウ	-0.1448753
-2.504361	寺:テラ	-0.3228464
-3.716233	寺僧:ジソウ	-0.2557674
-3.925366	寺前:テラマエ	-0.07889923
-3.925366	寺南:テラミナミ	-0.07889923
-3.925366	寺口:テラグチ	-0.07891942
-3.925366	寺山:テラヤマ	-0.07800909
-3.925366	寺川:テラガワ	-0.07864812
-3.925366	寺東:テラヒガシ	-0.07808902
-3.781936	寺社:ジシャ	-0.07879603
-3.781936	寺跡:テラアト	-0.05261671
-3.186191	寺院:ジイン	-0.2015888
-3.925366	対抗:タイコウ	-0.07880773
-3.925366	対比:タイヒ	-0.07720898
-3.716233	対象:タイショウ	-0.05299397
-3.925366	寿:コトブキ	-0.07820889
-3.716233	専修:センシュウ	-0.2646108
-3.781936	専用:センヨウ	-0.0782169
-3.546631	専門:センモン	-0.119592
-3.546631	将軍:ショウグン	-0.09728397
-3.925366	尊:ミコト	-0.07475951
-3.925366	尋:ヒロ	-0.07891942
-3.925366	導入:ドウニュウ	-0.06279754
-3.128912	小:ショウ	-0.09520567
-3.781936	小倉:コクラ	-0.06842791
-3.925366	小僧:コゾウ	-0.05938996
-3.925366	小南:コミナミ	-0.07808902
-3.925366	小原:オハラ	-0.06279754
-3.925366	小売:コウリ	-0.06859512
-3.925366	小学:ショウガク	-0.05938996
-2.456181	小学校:ショウガッコウ	-0.6725638
-3.925366	小学生:ショウガクセイ	-0.07891942
-3.925366	小山:コヤマ	-0.06859512
-3.781936	小島:コジマ	-0.07260814
-3.330044	小川:オガワ	-0.09759187
-3.925366	小惑星:ショウワクセイ	-0.06279754
-3.925366	小村:コムラ	-0.07884762
-3.925366	小林:コバヤシ	-0.05938996
-3.925366	小橡:コトチ	-0.06859512
-3.925366	小殿:オドノ	-0.07479978
-3.781936	小泉:コイズミ	-0.0697742
-3.925366	小瀬:コセ	-0.07266048
-3.925366	小百合:サユリ	-0.07475951
-3.925366	小県:チイサガタ	-0.07808902
-3.925366	小綱:コヅナ	-0.07266048
-3.781936	小説:ショウセツ	-0.218336
-3.925366	小野:オノ	-0.07864812
-3.781936	小野田:オノダ	-0.07624317
-3.925366	小野田線支線:オノダセンシセン	-0.06279754
-3.781936	小阪:コサカ	-0.07447003
-3.925366	小麦:コムギ	-0.07891942
-3.925366	少年:ショウネン	-0.07856829
-3.925366	尚紀:ナオキ	-0.05938996
-3.781936	尺土:シャクド	-0.06366208
-3.925366	尼:アマ	-0.07872793
-3.925366	尼寺:アマデラ	-0.06912577
-3.925366	尼辻北:アマガツジキタ	-0.07266048
-3.925366	尾:オ	-0.07820889
-3.781936	尾張:オワリ	-0.2192944
-3.925366	尾鷲:オワセ	-0.07636728
-2.919985	局:キョク	-0.2472921
-3.925366	局長:キョクチョウ	-0.07002233
-3.925366	居住:キョジュウ	-0.07572488
-3.925366	居館:キョカン	-0.07848845
-3.925366	屈曲:クッキョク	-0.07572488
-3.781936	屋:ヤ	-0.05270145
-3.781936	屋敷:ヤシキ	-0.04908526
-3.781936	展示:テンジ	-0.07792542
-3.925366	展開:テンカイ	-0.07572488
-3.925366	属し:ゾクシ	-0.0778092
-3.925366	属す:ゾクス	-0.0759659
-3.925366	属する:ゾクスル	-0.06824864
-3.925366	屯:タムロ	-0.07891942
-3.546631	山:サン	-0.06832658
-3.424973	山:ヤマ	-0.07342461
-3.925366	山あい:ヤマアイ	-0.06658912
-3.716233	山上:サンジョウ	-0.0655544
-3.925366	山上ヶ岳:サンジョウガダケ	-0.07820889
-3.781936	山下:ヤマシタ	-0.07607458
-3.781936	山口:ヤマグチ	-0.07094195
-3.424973	山地:サンチ	-0.09366025
-3.925366	山城:ヤマシロ	-0.06279754
-3.781936	山寺:ヤマデラ	-0.1475552
-3.925366	山岳:サンガク	-0.06859512
-3.925366	山梨:ヤマナシ	-0.07740915
-3.716233	山添:ヤマゾイ	-0.07757352
-3.716233	山田:ヤマダ	-0.05867236
-3.925366	山脈:サンミャク	-0.06912577
-3.925366	山腹:サンプク	-0.07848845
-3.546631	山辺:ヤマベ	-0.2168505
-3.925366	山間:サンカン	-0.07257954
-3.781936	山陵:サンリョウ	-0.07223622
-3.925366	山陽:サンヨウ	-0.07889923
-3.781936	山麓:サンロク	-0.2070359
-3.925366	岐神:岐神	-0.07876783
-3.781936	岐阜:ギフ	-0.159414
-3.781936	岡:オカ	-0.04245587
-3.925366	岡寺:オカデラ	-0.07612649
-3.781936	岡山:オカヤマ	-0.217856
-3.925366	岡崎:オカザキ	-0.07636728
-3.781936	岩:イワ	-0.059336
-3.925366	岩壺:イワツボ	-0.07788917
-3.781936	岩屋:イワヤ	-0.06850962
-3.925366	岩崎工業:イワサキコウギョウ	-0.07852837
-3.925366	岩手:イワテ	-0.07740915
-3.925366	岩船:イワフネ	-0.05938996
-2.692771	峠:トウゲ	-0.5596061
-3.925366	峰:ホウ	-0.07876783
-3.925366	峰:ミネ	-0.07612649
-3.925366	島内:トウナイ	-0.07002233
-3.925366	島根:シマネ	-0.07740915
-3.925366	崎:サキ	-0.07891942
-3.925366	崖:ガケ	-0.05938996
-3.925366	嶋:シマ	-0.0759659
-3.424973	川:ガワ	-0.1254841
-3.546631	川上:カワカミ	-0.05366692
-3.925366	川井:カワイ	-0.07889923
-3.925366	川原:カワラ	-0.06859512
-3.925366	川口:カワグチ	-0.07889923
-3.716233	川合:カワイ	-0.0515096
-3.925366	川西:カワニシ	-0.07266048
-3.925366	州:シュウ	-0.07889923
-3.925366	巣:ス	-0.07891942
-3.925366	巣山:スヤマ	-0.07800909
-3.716233	工:コウ	-0.1668643
-3.925366	工事:コウジ	-0.07888751
-3.925366	工場:コウジョウ	-0.06912577
-3.925366	工学:コウガク	-0.07891942
-3.716233	工業:コウギョウ	-0.1652642
-3.546631	工芸:コウゲイ	-0.1422443
-3.925366	工藤:クドウ	-0.07891942
-3.781936	左京:サキョウ	-0.06411241
-3.781936	左衛門:サエモン	-0.05859267
-3.781936	巨勢:コセ	-0.1420043
-3.925366	巨大:キョダイ	-0.07844852
-3.925366	差別:サベツ	-0.07872793
-3.925366	巻:カン	-0.05938996
-2.223493	市:シ	-0.07663189
-3.716233	市内:シナイ	-0.05265118
-3.925366	市原:イチハラ	-0.07636728
-3.781936	市営:シエイ	-0.07879603
-3.925366	市域:シイキ	-0.06859512
-3.781936	市尾:イチノオ	-0.06366208
-3.781936	市山:イチヤマ	-0.2131073
-3.925366	市川:イチカワ	-0.07889923
-3.925366	市役所:シヤクショ	-0.05938996
-3.925366	市田:イチダ	-0.07266048
-3.925366	市町:シチョウ	-0.06658912
-3.925366	市町村:シチョウソン	-0.06859512
-2.954489	市立:シリツ	-0.05991644
-3.781936	市街:シガイ	-0.06009473
-3.716233	市街地:シガイチ	-0.1568065
-3.781936	市道:シドウ	-0.06993711
-3.925366	市長:シチョウ	-0.06912577
-3.925366	布教:フキョウ	-0.06912577
-3.925366	布施:フセ	-0.07612649
-3.925366	希:マレ	-0.07891942
-3.781936	帝塚山:テヅカヤマ	-0.1656648
-3.925366	帝塚山南:テヅカヤマミナミ	-0.07856829
-3.925366	帝塚山大学:テヅカヤマダイガク	-0.07889923
-3.925366	帝塚山西:テヅカヤマニシ	-0.07856829
-3.925366	師:シ	-0.07002233
-3.330044	師範:シハン	-0.5656407
-3.925366	帯:タイ	-0.07860821
-3.925366	帰宅:キタク	-0.07891942
-3.925366	常:ツネ	-0.07889923
-3.925366	常任:ジョウニン	-0.07891942
-3.781936	常陸:ヒタチ	-0.2188953
-3.925366	幕府:バクフ	-0.07891942
-3.925366	幢寺:幢寺	-0.05938996
-3.781936	平:タイラ	-0.059336
-3.925366	平たい:ヒラタイ	-0.07891942
-3.781936	平原:ヘイゲン	-0.06822356
-3.330044	平城:ヒラジロ	-0.09999268
-3.546631	平城京:ヘイジョウキョウ	-0.05442716
-3.925366	平城東:ヒラジョウヒガシ	-0.07788917
-3.925366	平城西:ヒラジョウニシ	-0.07636354
-3.716233	平安:ヘイアン	-0.2650103
-3.925366	平尾:ヒラオ	-0.06658912
-3.716233	平田:ヒラタ	-0.1507162
-3.925366	平畑:ヒラハタ	-0.07884762
-3.925366	平端:ヒラハタ	-0.07820889
-3.925366	平等:ビョウドウ	-0.07760922
-3.925366	平等寺:ビョウドウジ	-0.06279754
-3.716233	平群:ヘグリ	-0.06935908
-2.558561	年:ネン	-0.293976
-3.424973	年代:ネンダイ	-0.1583726
-3.925366	年度:ネンド	-0.06001142
-3.781936	年生:ネンセイ	-0.06262808
-3.781936	年間:ネンカン	-0.2070359
-3.925366	幸夫:ユキオ	-0.05938996
-3.925366	幸徳:コウトク	-0.07889923
-3.925366	幸男:ユキオ	-0.05938996
-3.925366	幹事:カンジ	-0.06912577
-3.925366	幹彦:ミキヒコ	-0.05938996
-3.716233	幹線:カンセン	-0.05791952
-3.925366	幹部:カンブ	-0.07891942
-3.925366	幹部候補生学校:カンブコウホセイガッコウ	-0.07475951
-3.925366	幼少:ヨウショウ	-0.07836866
-3.186191	幼稚園:ヨウチエン	-0.1411746
-3.781936	庁:チョウ	-0.0430587
-3.716233	広:ヒロ	-0.07881624
-3.716233	広がる:ヒロガル	-0.06843671
-3.546631	広域:コウイキ	-0.07865243
-3.925366	広多賀谷:ヒロタガヤ	-0.06658912
-3.781936	広島:ヒロシマ	-0.217856
-3.925366	広目:ヒロメ	-0.05938996
-3.252188	広陵:コウリョウ	-0.1649188
-3.925366	庄吾:ショウゴ	-0.05938996
-3.925366	店:テン	-0.05938996
-3.716233	店舗:テンポ	-0.04237781
-3.925366	庚申:コウシン	-0.07888751
-3.330044	府:フ	-0.07754309
-3.925366	府内:フナイ	-0.07856829
-3.925366	府民:フミン	-0.07249859
-3.781936	府県:フケン	-0.07852466
-3.925366	府県境:フケンキョウ	-0.06658912
-3.925366	府県警:フケンケイ	-0.07888751
-3.781936	府警:フケイ	-0.2193343
-3.925366	度:ド	-0.07836866
-3.925366	度々:タビタビ	-0.07891942
-3.716233	庭園:テイエン	-0.1375047
-3.925366	庵:アン	-0.07257954
-3.925366	庶流:庶流	-0.07860821
-3.925366	康善:ヤスヨシ	-0.05938996
-3.925366	廃園:ハイエン	-0.06601045
-3.925366	廃校:ハイコウ	-0.07192773
-3.925366	廃立:ハイリツ	-0.06859512
-3.925366	延:ノベ	-0.07891942
-3.925366	延々と:エンエント	-0.07891942
-3.925366	延べ:ノベ	-0.07572488
-3.781936	延長:エンチョウ	-0.2192944
-3.925366	建つ:タツ	-0.07872793
-3.781936	建て:タテ	-0.2192545
-3.925366	建て替え:タテカエ	-0.07880773
-3.925366	建物:タテモノ	-0.06912577
-3.716233	建立:コンリュウ	-0.1492217
-3.546631	建築:ケンチク	-0.0773179
-3.546631	建設:ケンセツ	-0.1243351
-3.546631	建造:ケンゾウ	-0.3904796
-3.716233	弁:ベン	-0.07208605
-3.781936	弁護士:ベンゴシ	-0.2130264
-3.925366	式:シキ	-0.07888751
-3.781936	弓:ユミ	-0.07755748
-3.925366	弓削:ユゲ	-0.07889923
-3.925366	弓場:ユバ	-0.07891942
-3.925366	引牛:引牛	-0.07808902
-3.925366	引田:ヒキタ	-0.07889923
-3.925366	引眉:ヒキマユ	-0.07249859
-3.925366	引継:ヒキツギ	-0.07888751
-3.925366	弘仁寺:コウジンジ	-0.05938996
-3.925366	弘和:ヒロカズ	-0.07475951
-3.925366	弥:ワタル	-0.07891942
-3.781936	弥生:ヤヨイ	-0.2188155
-3.925366	弾圧:ダンアツ	-0.07704879
-3.925366	彌:イヤ	-0.07848845
-3.925366	当:トウ	-0.05938996
-3.925366	当主:トウシュ	-0.06279754
-3.781936	当初:トウショ	-0.1998368
-3.925366	当地:トウチ	-0.07882746
-3.925366	当時:トウジ	-0.06279754
-3.925366	当麻:トウマ	-0.07864812
-3.716233	当麻寺:タイマデラ	-0.05934045
-3.128912	形:カタチ	-0.4108005
-3.925366	形:ガタ	-0.05938996
-3.716233	形式:ケイシキ	-0.1483892
-3.925366	形態:ケイタイ	-0.06859512
-3.925366	形成:ケイセイ	-0.07257954
-3.925366	彦:彦	-0.05938996
-3.925366	彫刻:チョウコク	-0.07788917
-3.925366	影響:エイキョウ	-0.07475951
-3.925366	役員:ヤクイン	-0.06912577
-3.925366	往復:オウフク	-0.07872793
-3.781936	律:リツ	-0.2193343
-3.716233	律令制:リツリョウセイ	-0.06922858
-3.925366	後:コウ	-0.0759659
-3.330044	後:ゴ	-0.1814849
-3.925366	後:ノチ	-0.07257954
-3.781936	後半:コウハン	-0.06272306
-3.925366	後援:コウエン	-0.07720898
-3.925366	後期:コウキ	-0.04993884
-3.925366	後遺症:コウイショウ	-0.07788917
-3.781936	徒歩:トホ	-0.07860449
-3.925366	従:従	-0.05938996
-3.925366	得:エ	-0.07724902
-3.716233	御:ゴ	-0.07881624
-3.781936	御園:ミソ	-0.06850962
-3.925366	御室:オムロ	-0.07864812
-3.925366	御嶽:ミタケ	-0.07889923
-3.925366	御廟:ゴビョウ	-0.07880773
-3.546631	御所:ゴショ	-0.06083666
-3.781936	御所:ゴセ	-0.2168141
-3.781936	御所線:ゴセセン	-0.1998368
-3.781936	御杖:ミツエ	-0.05813267
-3.925366	御門:ミカド	-0.07800909
-3.925366	復元:フクゲン	-0.07572488
-3.925366	復帰:フッキ	-0.07572488
-3.781936	徳:トク	-0.07884765
-3.925366	徳島:トクシマ	-0.07740915
-3.925366	徳政:トクセイ	-0.07889923
-3.925366	徹:テッ	-0.06912577
-3.925366	必要:ヒツヨウ	-0.07249859
-3.925366	忌:イミ	-0.07792915
-3.925366	忌部:イムベ	-0.07884762
-3.781936	忍海:オシミ	-0.06366208
-3.716233	志:ココロザシ	-0.05928203
-3.925366	志摩スペイン村:シマスペインムラ	-0.07002233
-3.925366	志賀:シガ	-0.07891942
-3.925366	志都美:シヅミ	-0.07744917
-3.925366	志麻:シマ	-0.07876783
-3.925366	応える:コタエル	-0.07864812
-3.925366	応仁:オウニン	-0.06279754
-3.925366	念仏:ネンブツ	-0.07760922
-3.925366	念仏宗:ネンブツシュウ	-0.06279754
-3.781936	思わ:オモワ	-0.07863642
-3.925366	怡土:怡土	-0.07889923
-3.781936	性:セイ	-0.07470743
-3.925366	怪火:カイカ	-0.06912577
-3.925366	恋の窪:コイノクボ	-0.07860821
-3.925366	恒美:ツネミ	-0.05938996
-3.925366	息子:ムスコ	-0.06859512
-3.716233	情報:ジョウホウ	-0.07843309
-3.925366	惇夫:アツオ	-0.05938996
-3.925366	惜しま:オシマ	-0.07828878
-3.925366	想定:ソウテイ	-0.07704879
-3.925366	意味:イミ	-0.07720898
-3.925366	意識:イシキ	-0.07475951
-3.925366	愛:アイ	-0.05938996
-3.716233	愛媛:エヒメ	-0.1656247
-3.925366	愛知:アイチ	-0.07740915
-3.781936	愛称:アイショウ	-0.1483892
-3.925366	感得:カントク	-0.07572488
-3.925366	愷:愷	-0.05938996
-3.925366	慈光:慈光	-0.07820889
-3.546631	慈恩寺:ジオンジ	-0.05446543
-3.925366	慶:ケイ	-0.05938996
-3.925366	慶寺:ケイジ	-0.05938996
-3.925366	憲吉:ケンキチ	-0.07884762
-3.716233	成:シゲル	-0.1308753
-3.925366	成:ナル	-0.05938996
-3.925366	成人:セイジン	-0.06859512
-3.925366	成果:セイカ	-0.07864812
-3.781936	成立:セイリツ	-0.0755604
-3.925366	我:ワガ	-0.07860821
-3.925366	戒:戒	-0.05938996
-3.925366	戒重:カイジュウ	-0.06658912
-3.925366	戒長:戒長	-0.07760922
-3.925366	戦い:タタカイ	-0.05938996
-3.781936	戦前:センゼン	-0.04950828
-3.925366	戦績:センセキ	-0.07889923
-3.925366	戦闘:セントウ	-0.07002233
-3.781936	戸毛:トウゲ	-0.05582141
-3.925366	房:ボウ	-0.07891942
-3.252188	所:ショ	-0.1247849
-3.781936	所在:ショザイ	-0.0575845
-3.716233	所在地:ショザイチ	-0.1384436
-3.128912	所属:ショゾク	-0.1591137
-3.925366	所管:ショカン	-0.06279754
-3.781936	所蔵:ショゾウ	-0.07680465
-3.925366	所轄:ショカツ	-0.06279754
-3.925366	所長:ショチョウ	-0.06258667
-3.781936	手:テ	-0.07886783
-3.925366	手越:テゴシ	-0.07479978
-3.781936	才谷:サイタニ	-0.06846876
-3.925366	技:ワザ	-0.07828878
-3.925366	技士:ギシ	-0.06279754
-3.925366	技師:ギシ	-0.07864812
-3.925366	技能:ギノウ	-0.07880773
-3.781936	技術:ギジュツ	-0.067569
-3.925366	投げ:ナゲ	-0.07891942
-3.925366	抜く:ヌク	-0.07856829
-3.925366	抜け:ヌケ	-0.0778092
-3.925366	担当:タントウ	-0.07572488
-3.925366	拓実:タクジツ	-0.07257954
-3.925366	招聘:ショウヘイ	-0.07704879
-3.716233	拠点:キョテン	-0.04646341
-3.925366	拡幅:カクフク	-0.07868803
-3.925366	拡張:カクチョウ	-0.06279754
-3.925366	拾生:ヒロウ	-0.04993884
-3.925366	持:ジ	-0.07889923
-3.925366	持た:モタ	-0.07876783
-3.925366	持ち帰る:モチカエル	-0.07880773
-3.925366	持っ:モッ	-0.07724902
-3.925366	持つ:モツ	-0.06912577
-3.925366	持明院:ジミョウイン	-0.07891942
-3.925366	指し:サシ	-0.07257954
-3.925366	指し示す:サシシメス	-0.07891942
-3.781936	指す:サス	-0.09479528
-3.330044	指定:シテイ	-0.07812138
-3.925366	指導:シドウ	-0.07824884
-3.925366	指揮:シキ	-0.06859512
-3.925366	指摘:シテキ	-0.07704879
-3.925366	按察:按察	-0.07889923
-3.925366	挙行:キョコウ	-0.07704879
-3.925366	挫傷:ザショウ	-0.07249859
-3.925366	捜査:ソウサ	-0.06279754
-3.925366	捻出:ネンシュツ	-0.07720898
-3.925366	採取:サイシュ	-0.07704879
-3.925366	採用:サイヨウ	-0.07572488
-3.925366	接し:セッシ	-0.0778092
-3.925366	接続:セツゾク	-0.07720898
-3.925366	推定:スイテイ	-0.07704879
-3.925366	推測:スイソク	-0.07704879
-3.925366	掲げ:カカゲ	-0.07724902
-3.925366	掲載:ケイサイ	-0.07572488
-3.925366	揚水:ヨウスイ	-0.07572488
-3.925366	握っ:ニギッ	-0.07724902
-3.925366	揺るぎなく:ユルギナク	-0.07891942
-3.925366	摂社:セッシャ	-0.07889923
-3.781936	撮影:サツエイ	-0.06834618
-3.925366	撰:セン	-0.07249859
-3.925366	支分:支分	-0.07889923
-3.925366	支局:シキョク	-0.04245587
-3.925366	支店:シテン	-0.06859512
-3.925366	支払:シハライ	-0.07891942
-3.925366	支持:シジ	-0.06859512
-3.925366	支援:シエン	-0.07796912
-3.925366	支流:シリュウ	-0.0430587
-3.925366	支社:シシャ	-0.06279754
-3.925366	支給:シキュウ	-0.07704879
-3.424973	支部:シブ	-0.1065905
-3.925366	改名:カイメイ	-0.07572488
-3.925366	改善:カイゼン	-0.06859512
-3.925366	改造:カイゾウ	-0.07572488
-3.925366	改革:カイカク	-0.07888751
-3.781936	放火:ホウカ	-0.07697671
-2.991974	放送:ホウソウ	-0.09403493
-3.925366	政務:セイム	-0.06859512
-3.925366	政変:セイヘン	-0.07002233
-3.781936	政府:セイフ	-0.07407065
-3.925366	政彦:マサヒコ	-0.05938996
-3.925366	政権:セイケン	-0.06859512
-3.925366	政治:セイジ	-0.07780547
-3.925366	政策:セイサク	-0.06912577
-3.925366	故:コ	-0.07257954
-3.781936	救急:キュウキュウ	-0.07883593
-3.925366	救済:キュウサイ	-0.07891942
-3.781936	教:キョウ	-0.1998368
-3.925366	教団:キョウダン	-0.07880773
-3.925366	教師:キョウシ	-0.06912577
-2.919985	教授:キョウジュ	-0.4951715
-3.925366	教派:キョウハ	-0.07889923
-3.925366	教科書:キョウカショ	-0.07852837
-3.925366	教習所:キョウシュウジョ	-0.03949202
-3.716233	教育:キョウイク	-0.1422923
-3.925366	教諭:キョウユ	-0.07475951
-3.925366	教養:キョウヨウ	-0.07792915
-3.925366	散楽:サルガク	-0.06279754
-3.925366	数:カズ	-0.07864812
-3.781936	整備:セイビ	-0.07281853
-3.925366	整理:セイリ	-0.07868803
-3.925366	敷地:シキチ	-0.07856829
-3.925366	敷設:フセツ	-0.06859512
-3.925366	文:ブン	-0.07888751
-3.925366	文京:ブンキョウ	-0.07812898
-3.925366	文化:ブンカ	-0.07883593
-3.033002	文化財:ブンカザイ	-0.1293234
-3.424973	文学:ブンガク	-0.1285356
-3.781936	文学部:ブンガクブ	-0.07827764
-3.925366	文庫:ブンコ	-0.05938996
-3.925366	文明:ブンメイ	-0.07888751
-3.925366	文昭:フミアキ	-0.05905218
-3.925366	文芸:ブンゲイ	-0.07889923
-3.925366	斉:ヒトシ	-0.07891942
-3.330044	斑鳩:イカル	-0.1365163
-3.424973	斑鳩:イカルガ	-0.4811509
-3.546631	料理:リョウリ	-0.0938336
-3.925366	斜面:シャメン	-0.06658912
-3.546631	新:シン	-0.07833353
-3.925366	新しい:アタラシイ	-0.07636728
-3.424973	新宮:シングウ	-0.1235147
-3.781936	新庄:シンジョウ	-0.0697742
-3.925366	新庄線:シンジョウセン	-0.05938996
-3.925366	新紺屋:シンコンヤ	-0.07266048
-3.925366	新聞:シンブン	-0.05917742
-3.781936	新設:シンセツ	-0.2174956
-3.781936	方言:ホウゲン	-0.05350568
-3.925366	方面:ホウメン	-0.06658912
-3.128912	施設:シセツ	-0.2149004
-3.716233	旅館:リョカン	-0.2557674
-3.925366	旋頭歌:セドウカ	-0.05938996
-2.991974	日:ニチ	-0.3634139
-3.925366	日:ヒ	-0.06658912
-3.925366	日下部:クサカベ	-0.07891942
-3.925366	日吉:ヒヨシ	-0.07860821
-3.925366	日展:ニッテン	-0.07891942
-3.925366	日日:ヒニチ	-0.07891942
-2.804206	日本:ニッポン	-0.1939639
-3.925366	日本人:ニッポンジン	-0.07856829
-3.925366	日本女子大学:ニホンジョシダイガク	-0.06279754
-3.925366	日本書紀:ニホンショキ	-0.05938996
-3.925366	日本棋院:ニホンキイン	-0.07864812
-3.716233	日本語:ニホンゴ	-0.0466393
-3.925366	日程:ニッテイ	-0.06279754
-3.781936	日笠:ヒカサ	-0.07260814
-3.925366	日置:ヒオキ	-0.07855289
-3.925366	日置川:ヒキガワ	-0.06279754
-3.925366	日航:ニッコウ	-0.0759659
-3.925366	日蓮:ニチレン	-0.07891942
-3.781936	日記:ニッキ	-0.04897474
-3.925366	日高:ヒダカ	-0.07828878
-3.546631	旧:キュウ	-0.07459956
-3.781936	旧制:キュウセイ	-0.07856457
-3.925366	旧名:キュウメイ	-0.05938996
-3.925366	旧居:キュウキョ	-0.05938996
-3.925366	早世:ソウセイ	-0.07572488
-3.716233	早川:ハヤカワ	-0.1545121
-3.925366	旭ヶ丘:アサヒガオカ	-0.07744917
-3.925366	昇:ノボリ	-0.07760922
-3.424973	明日香:アスカ	-0.1471805
-3.925366	明治:メイジ	-0.07888751
-3.925366	明治天皇:メイジテンノウ	-0.06658912
-3.925366	明治維新:メイジイシン	-0.07876783
-3.925366	明神:ミョウジン	-0.06279754
-3.925366	映:ウツ	-0.07891942
-3.925366	映像:エイゾウ	-0.07888751
-3.330044	映画:エイガ	-0.1036405
-3.925366	春:ハル	-0.06658912
-3.781936	春日:カスガ	-0.07877586
-3.925366	春日:シュンジツ	-0.07864812
-3.781936	春日大社:カスガタイシャ	-0.05958685
-3.546631	春日山:カスガヤマ	-0.07788977
-3.716233	春日野:カスガノ	-0.1412057
-3.781936	昭和:ショウワ	-0.07257577
-3.546631	時:ジ	-0.04654936
-3.925366	時:トキ	-0.07876783
-3.925366	時に:トキニ	-0.07864812
-2.858249	時代:ジダイ	-0.1796909
-3.925366	時期:ジキ	-0.06658912
-3.925366	普:ヒロシ	-0.07891942
-3.925366	景:ケイ	-0.07891942
-3.925366	景明:カゲアキ	-0.07257954
-3.330044	智:サトシ	-0.3075299
-3.781936	智光:トモミツ	-0.07443349
-3.925366	智子:サトコ	-0.05938996
-3.925366	智雄:トモオ	-0.05938996
-3.716233	暗:クラ	-0.1664366
-3.925366	暗い:クライ	-0.07891942
-3.925366	暴動:ボウドウ	-0.07844852
-3.781936	暴行:ボウコウ	-0.07837667
-3.925366	曲:キョク	-0.06912577
-3.925366	曲芸:キョクゲイ	-0.06658912
-3.925366	更に:サラニ	-0.07848845
-3.716233	書:ショ	-0.03931321
-3.925366	書き:カキ	-0.07891942
-3.781936	書物:ショモツ	-0.05257434
-3.781936	曹洞宗:ソウトウシュウ	-0.2032444
-3.128912	曼荼羅:マンダラ	-0.3103316
-3.925366	曽我川:ソガガワ	-0.05938996
-3.716233	曽爾:ソニ	-0.07650849
-3.781936	最:サイ	-0.0786444
-3.781936	最も:モットモ	-0.07841661
-3.925366	最上:サイジョウ	-0.07888751
-3.925366	最初:サイショ	-0.07002233
-3.925366	最古:サイコ	-0.06279754
-3.716233	最大:サイダイ	-0.1511425
-3.925366	最高:サイコウ	-0.06279754
-3.925366	會:會	-0.05938996
-3.186191	月:ツキ	-0.1191241
-3.546631	月ヶ瀬:ツキガセ	-0.07761403
-3.925366	月瀬:ツキセ	-0.07888751
-3.925366	有し:ユウシ	-0.0778092
-3.925366	有償:ユウショウ	-0.07848845
-3.781936	有力:ユウリョク	-0.06985566
-3.546631	有名:ユウメイ	-0.161869
-3.925366	有子:ユウコ	-0.06912577
-3.781936	有数:ユウスウ	-0.2032444
-3.925366	有料:ユウリョウ	-0.07828878
-3.925366	有本:アリモト	-0.07891942
-3.925366	有里:アリサト	-0.07266048
-3.781936	朗:ロウ	-0.1998368
-3.716233	朝:アサ	-0.1511425
-3.925366	朝:チョウ	-0.07872793
-3.925366	朝倉:アサクラ	-0.07612649
-3.546631	朝廷:チョウテイ	-0.1248197
-3.925366	朝日山:アサヒヤマ	-0.07888751
-3.781936	朝鮮:チョウセン	-0.07791743
-3.925366	朝鮮半島:チョウセンハントウ	-0.07656784
-3.925366	朝鮮学園:チョウセンガクエン	-0.07475951
-3.716233	期:キ	-0.09960096
-3.925366	期間:キカン	-0.06279754
-3.925366	木:キ	-0.07479978
-3.925366	木戸:キド	-0.06859512
-3.925366	木曽:キソ	-0.06279754
-3.546631	木津:コッツ	-0.123911
-3.925366	木津川:キヅガワ	-0.07636728
-3.925366	木祖:キソ	-0.07776921
-3.925366	未来:ミライ	-0.07728906
-3.925366	未遂:ミスイ	-0.06658912
-3.925366	末:マツ	-0.07891942
-3.925366	末期:マッキ	-0.06378214
-3.925366	末社:マッシャ	-0.07002233
-3.546631	本:ホン	-0.07725812
-3.925366	本因坊:ホンインボウ	-0.07891942
-3.781936	本堂:ホンドウ	-0.06272306
-3.925366	本家:ホンケ	-0.07889923
-3.925366	本尊:ホンゾン	-0.07788917
-3.925366	本山:ホンザン	-0.07002233
-3.925366	本山:モトヤマ	-0.07612649
-3.925366	本庁:ホンチョウ	-0.06279754
-3.925366	本店:ホンテン	-0.06859512
-3.925366	本拠:ホンキョ	-0.06859512
-3.925366	本流:ホンリュウ	-0.05996975
-3.781936	本町:ホンチョウ	-0.06538984
-3.925366	本町:ホンマチ	-0.05901043
-3.781936	本社:ホンシャ	-0.06850962
-3.925366	本線:ホンセン	-0.06250383
-3.424973	本部:ホンブ	-0.1194842
-3.925366	本願寺:ホンガンジ	-0.07864812
-3.716233	朱雀:スザク	-0.07563703
-3.546631	杉:スギ	-0.03167883
-3.925366	杉浦:スギウラ	-0.07891942
-3.925366	材木:ザイモク	-0.07889923
-2.558561	村:ムラ	-0.1010073
-3.925366	村営:ソンエイ	-0.07848845
-3.925366	村国:ムラクニ	-0.0786524
-3.925366	村岡:ムラオカ	-0.06658912
-3.925366	村立:ソンリツ	-0.07888751
-3.925366	村越:ムラコシ	-0.06658912
-3.925366	条:ジョウ	-0.07728906
-3.716233	条例:ジョウレイ	-0.06915896
-3.925366	杣ノ川:ソマノカワ	-0.07266048
-3.781936	杣之内:ソマノウチ	-0.07168448
-3.925366	来迎:ライゴウ	-0.07891942
-3.781936	東:アズマ	-0.2192944
-3.330044	東:ヒガシ	-0.07130802
-3.925366	東の川:ヒガシノカワ	-0.07876783
-3.781936	東中:ヒガシナカ	-0.2184159
-3.546631	東京:トウキョウ	-0.1495088
-3.925366	東京大学:トウキョウダイガク	-0.07872793
-3.925366	東京文理科大:トウキョウブンリカダイ	-0.07888751
-3.925366	東佐味:ヒガシサビ	-0.06859512
-3.925366	東側:ヒガシガワ	-0.07868803
-3.925366	東儀:トウキ	-0.07788917
-3.716233	東北:トウホク	-0.1657849
-3.925366	東南:トウナン	-0.07820889
-3.925366	東口:ヒガシグチ	-0.07888751
-3.781936	東吉野:ヒガシヨシノ	-0.07712516
-3.925366	東向中:ヒガシムキナカ	-0.07266048
-3.925366	東国:トウゴク	-0.06279754
-3.925366	東坊城:ヒガシボウジョウ	-0.07266048
-3.781936	東大:トウダイ	-0.07883593
-3.781936	東大和:ヒガシヤマト	-0.07217086
-3.546631	東大寺:トウダイジ	-0.06434175
-3.781936	東大阪:ヒガシオオサカ	-0.0762833
-3.781936	東奈良:ヒガシナラ	-0.07696493
-3.925366	東室:ヒガシムロ	-0.07880773
-3.925366	東川:ヒガシガワ	-0.07868803
-3.925366	東成:ヒガシナリ	-0.07812898
-3.925366	東方:トウホウ	-0.06658912
-3.925366	東明寺:トウミョウジ	-0.05938996
-3.781936	東村山:ヒガシムラヤマ	-0.07629509
-3.925366	東洋:トウヨウ	-0.07880773
-3.925366	東海:トウカイ	-0.07891942
-3.925366	東海旅客鉄道:トウカイリョカクテツドウ	-0.07884762
-3.781936	東生駒:ヒガシイコマ	-0.07883593
-3.925366	東紀寺:ヒガシキデラ	-0.07266048
-3.925366	東花園:ヒガシハナゾノ	-0.07612649
-3.781936	東西:トウザイ	-0.2070359
-3.781936	東部:トウブ	-0.06653605
-3.925366	東金:ヒガシカナ	-0.07889923
-3.781936	杵築:キヅキ	-0.07629509
-3.716233	松:マツ	-0.05924865
-3.925366	松下:マツシタ	-0.07891942
-3.925366	松原:マツバラ	-0.07636728
-3.781936	松塚:マツヅカ	-0.06366208
-3.781936	松尾寺:マツオジ	-0.06229667
-3.925366	松尾山:マツオヤマ	-0.05938996
-3.925366	松山:マツヤマ	-0.05938996
-3.781936	松本:マツモト	-0.07617095
-3.925366	松阪:マツサカ	-0.07636728
-3.925366	板:イタ	-0.07891942
-3.781936	林:リン	-0.04223488
-3.781936	林業:リンギョウ	-0.05598963
-3.925366	林野庁:リンヤチョウ	-0.06279754
-3.925366	枚方:ヒラカタ	-0.07636728
-3.781936	果無山脈:ハテナシサンミャク	-0.04245587
-3.925366	枝:エダ	-0.06658912
-3.925366	架かっ:カカッ	-0.0778092
-3.925366	架かる:カカル	-0.07851667
-3.716233	柏原:カシワバラ	-0.05959073
-3.925366	染織:センショク	-0.07884762
-3.716233	柔道:ジュウドウ	-0.1662969
-3.925366	柱:ハシラ	-0.07848845
-3.781936	柳本:ヤナギモト	-0.07181425
-3.925366	柳沢:ヤナギサワ	-0.07891942
-3.546631	柳生:ヤギュウ	-0.05441479
-3.925366	柿本:カキノモト	-0.06658912
-3.925366	栃原:トチハラ	-0.07856829
-3.925366	栃木:トチギ	-0.07740915
-3.781936	栄:サカエ	-0.05498326
-3.925366	栄え:サカエ	-0.07724902
-3.925366	栗山:クリヤマ	-0.07788917
-3.424973	校:コウ	-0.1368555
-3.925366	校長:コウチョウ	-0.07257954
-3.925366	栢森:カヤノモリ	-0.06859512
-2.991974	株式会社:カブシキガイシャ	-0.3189788
-3.925366	根拠地:コンキョチ	-0.07249859
-3.925366	根本:コンポン	-0.07864812
-3.925366	格:カク	-0.07002233
-3.925366	桂:カツラ	-0.07884765
-3.925366	桃山:モモヤマ	-0.07836866
-3.925366	案件:アンケン	-0.06859512
-3.925366	桐朋学園大学:トウホウガクエンダイガク	-0.07844852
-3.925366	桑名:クワナ	-0.07636728
-3.925366	桜:サクラ	-0.07808902
-3.252188	桜井:サクライ	-0.1287977
-3.716233	桜井線:サクライセン	-0.1477344
-3.925366	桧:ヒノキ	-0.07479978
-3.925366	梅山:ウメヤマ	-0.07800909
-3.925366	梅林:バイリン	-0.07479978
-3.925366	梓:アズサ	-0.07889923
-3.781936	梓川:アズサガワ	-0.06196502
-3.925366	森:モリ	-0.07808902
-3.925366	森林:シンリン	-0.07888751
-3.781936	森田:モリタ	-0.07884765
-3.925366	植田:ウエダ	-0.07889923
-3.925366	検:ケン	-0.07884762
-3.781936	検定:ケンテイ	-0.06250383
-3.925366	検察:ケンサツ	-0.07891942
-3.925366	検察庁:ケンサツチョウ	-0.05938996
-3.925366	検査:ケンサ	-0.07891942
-3.925366	検討:ケントウ	-0.07720898
-3.925366	検車:ケンシャ	-0.07812898
-3.716233	椿井:ツバイ	-0.05472245
-3.781936	楊貴:楊貴	-0.2192944
-3.925366	楢:ナラ	-0.07889923
-3.781936	楢川:ナラカワ	-0.218216
-3.925366	業:ゴウ	-0.06859512
-3.925366	業務:ギョウム	-0.07891942
-3.925366	業平橋:ナリヒラバシ	-0.05938996
-3.925366	楯:タテ	-0.05938996
-3.925366	極めて:キワメテ	-0.07889923
-3.781936	極楽寺:ゴクラクジ	-0.06996968
-3.546631	楽:ラク	-0.06980734
-3.925366	楽園:ラクエン	-0.07856829
-3.925366	楽堂:ガクドウ	-0.05938996
-3.925366	楽曲:ガッキョク	-0.06912577
-3.925366	榊:サカキ	-0.06279754
-3.716233	榛原:ハイバラ	-0.0735304
-3.925366	榮:サカエ	-0.07891942
-3.925366	槇島:マキジマ	-0.07266048
-3.925366	構え:カマエ	-0.07724902
-3.925366	構内:コウナイ	-0.06658912
-3.925366	槍:ヤリ	-0.06859512
-3.781936	槍術:ソウジュツ	-0.06341414
-3.925366	様:サマ	-0.07475951
-3.925366	様々:サマザマ	-0.07844852
-3.925366	標高:ヒョウコウ	-0.07891942
-3.925366	権:ケン	-0.07824884
-3.925366	権勢:ケンセイ	-0.06859512
-3.925366	権威:ケンイ	-0.06859512
-3.925366	横:ヨコ	-0.07891942
-3.925366	横大路:ヨコオオジ	-0.07249859
-3.925366	横山:ヨコヤマ	-0.07891942
-3.925366	横川:ヨコガワ	-0.07889923
-3.925366	横断:オウダン	-0.07572488
-3.925366	横河原線:ヨコガワラセン	-0.06279754
-3.716233	横浜:ヨコハマ	-0.2163286
-3.716233	横田:ヨコタ	-0.1568474
-3.925366	樹脂:ジュシ	-0.07884762
-3.925366	樺太:カラフト	-0.07884762
-3.925366	樽沢:タルサワ	-0.06658912
-3.330044	橋:キョウ	-0.0627446
-3.925366	橋:ハシ	-0.05996975
-3.925366	橋梁:キョウリョウ	-0.05938996
-3.925366	橘:タチバナ	-0.07760922
-3.781936	橘奈良麻呂:タチバナノナラマロ	-0.1468449
-3.925366	橘諸兄:タチバナノモロエ	-0.06279754
-3.925366	機:キ	-0.06658912
-3.925366	機構:キコウ	-0.07475951
-3.925366	機能:キノウ	-0.07891942
-3.424973	機関:キカン	-0.06438527
-3.078315	橿原:カシハラ	-0.1981996
-3.925366	橿原神宮:カシハラジングウ	-0.07881624
-3.925366	橿原線:カシハラセン	-0.05938996
-3.925366	檜垣本:ヒガイモト	-0.06658912
-3.781936	櫛羅:クジラ	-0.06852163
-3.781936	櫟本:イチノモト	-0.0718872
-3.925366	次:ジ	-0.07889923
-3.925366	次男:ジナン	-0.07257954
-3.781936	歌:ウタ	-0.0714005
-3.925366	歌っ:ウタッ	-0.0778092
-3.925366	歌わ:ウタワ	-0.07828878
-3.716233	歌人:カジン	-0.2557674
-3.925366	歌唱:カショウ	-0.07572488
-3.925366	歌手:カシュ	-0.06912577
-3.925366	歌謡:カヨウ	-0.06912577
-3.716233	正:セイ	-0.05928203
-3.781936	正:タダシ	-0.07883593
-3.925366	正宗:マサムネ	-0.06279754
-3.925366	正室:セイシツ	-0.07257954
-3.925366	正式:セイシキ	-0.07872793
-3.925366	正暦寺:ショウレキジ	-0.05938996
-3.925366	正覚寺:ショウカクジ	-0.05938996
-3.925366	正親町:オオギマチ	-0.07880773
-3.925366	武吉:タケヨシ	-0.05938996
-3.925366	武官:ブカン	-0.06912577
-3.925366	武家:ブケ	-0.07889923
-3.925366	武道:ブドウ	-0.07788917
-3.781936	歯科:シカ	-0.2191747
-3.925366	歳:サイ	-0.06279754
-3.925366	歳:トシ	-0.05938996
-3.925366	歴代:レキダイ	-0.07889923
-3.925366	歴任:レキニン	-0.07572488
-3.252188	歴史:レキシ	-0.05922982
-3.781936	死亡:シボウ	-0.1623691
-3.925366	残さ:ノコサ	-0.07828878
-3.925366	残っ:ノコッ	-0.0778092
-3.925366	残り:ノコリ	-0.05938996
-3.925366	残留:ザンリュウ	-0.07891942
-3.925366	段:ダン	-0.06905237
-3.781936	殺人:サツジン	-0.2188953
-3.781936	殺害:サツガイ	-0.2188953
-3.925366	殺陣師:タテシ	-0.06912577
-3.925366	殿:トノ	-0.07266048
-3.716233	殿:ドノ	-0.0598531
-3.925366	毅:アツシ	-0.05938996
-3.781936	母:ハハ	-0.03949202
-3.925366	母体:ボタイ	-0.07249859
-3.781936	毎年:マイトシ	-0.07822967
-3.925366	毎週:マイシュウ	-0.07891942
-3.781936	比:ヒ	-0.05921916
-3.925366	比企:ヒキ	-0.07808902
-3.925366	比曽:ヒソ	-0.05590945
-3.781936	毛原:ケバラ	-0.06852163
-3.546631	氏:シ	-0.0964812
-3.925366	氏族:シゾク	-0.07856829
-3.925366	民:ミン	-0.07824884
-3.925366	民主党:ミンシュトウ	-0.0759659
-3.546631	民俗:ミンゾク	-0.07814977
-3.925366	民家:ミンカ	-0.07788917
-3.925366	民放:ミンポウ	-0.07864812
-3.925366	民衆:ミンシュウ	-0.06279754
-3.925366	気:キ	-0.07884762
-3.925366	気象:キショウ	-0.07891942
-3.781936	水:ミズ	-0.07829307
-3.925366	水分:スイブン	-0.07848845
-3.925366	水川:ミズカワ	-0.06658912
-3.925366	水平:スイヘイ	-0.07876783
-3.252188	水系:スイケイ	-0.4371127
-3.925366	水道:スイドウ	-0.06658912
-3.781936	水銀:スイギン	-0.2193662
-3.925366	水間:ミズマ	-0.07808902
-3.925366	水間:ミマ	-0.07266048
-3.925366	氷上:ヒカミ	-0.07872421
-3.925366	永久:エイキュウ	-0.07760922
-3.781936	永年:エイネン	-0.2193662
-3.925366	汎称:ハンショウ	-0.07002233
-3.925366	江刺:エサシ	-0.07884762
-3.716233	江戸:エド	-0.1505918
-3.925366	池:イケ	-0.07872421
-3.781936	池:チ	-0.05607764
-3.925366	池之内:イケノウチ	-0.06859512
-3.925366	池原:イケハラ	-0.07876783
-3.925366	池泉:イケイズミ	-0.07891942
-3.781936	池田:イケダ	-0.06628592
-3.925366	池谷:イケガヤ	-0.07891942
-3.925366	池郷川:イケゴウガワ	-0.06658912
-3.925366	汲む:クム	-0.07249859
-3.925366	沓掛:クツカケ	-0.07266048
-3.781936	河内:カワウチ	-0.07829307
-3.716233	河内:カワチ	-0.1667961
-3.781936	河内永和:カワチエイワ	-0.2165733
-3.781936	河原屋:カワラヤ	-0.0737075
-3.186191	河合:カワイ	-0.0688115
-3.925366	河崎:カワサキ	-0.07891942
-3.716233	河川:カセン	-0.1919135
-3.925366	油:アブラ	-0.06859512
-3.925366	油阪:アブラサカ	-0.07612649
-3.925366	治:チ	-0.07891942
-3.925366	治世:チセイ	-0.06658912
-3.716233	沿い:ゾイ	-0.2532308
-3.925366	泉:イズミ	-0.07860821
-3.330044	法:ホウ	-0.06194728
-3.186191	法人:ホウジン	-0.1226077
-3.781936	法令:ホウレイ	-0.2104691
-3.925366	法会:ホウエ	-0.07002233
-3.925366	法務省:ホウムショウ	-0.07475951
-3.781936	法学:ホウガク	-0.07812526
-3.925366	法学部:ホウガクブ	-0.07889923
-3.925366	法楽寺:ホウラクジ	-0.05938996
-3.781936	法相:ホウショウ	-0.2193343
-3.925366	法華:ホッケ	-0.07266048
-3.781936	法華寺:ホッケジ	-0.05278618
-3.716233	法蓮:ホウレン	-0.1412057
-3.925366	法起寺:ホウキジ	-0.06279754
-3.925366	法輪寺:ホウリンジ	-0.05938996
-3.252188	法隆寺:ホウリュウジ	-0.09620032
-3.925366	法隆寺南:ホウリュウジミナミ	-0.06859512
-3.925366	法雲寺:ホウウンジ	-0.05938996
-3.925366	注ぐ:ソソグ	-0.07888751
-3.925366	注連:シメ	-0.06859512
-3.781936	洞:ホラ	-0.06129707
-3.716233	洞川:ドロガワ	-0.05510182
-3.716233	活動:カツドウ	-0.1287243
-3.925366	活用:カツヨウ	-0.07572488
-3.781936	活躍:カツヤク	-0.2161717
-3.128912	派:ハ	-0.5361494
-3.424973	流:リュウ	-0.04371264
-3.925366	流し:ナガシ	-0.0778092
-3.716233	流れ:ナガレ	-0.06120181
-3.925366	流れる:ナガレル	-0.0776739
-3.716233	流域:リュウイキ	-0.04908127
-3.925366	流派:リュウハ	-0.06279754
-3.925366	流行:リュウコウ	-0.07572488
-3.781936	浄:キヨシ	-0.07877584
-3.781936	浄土:ジョウド	-0.07776549
-3.925366	浄土変相:ジョウドヘンゾウ	-0.07891942
-3.925366	浄土宗:ジョウドシュウ	-0.06274401
-3.781936	浄土真宗:ジョウドシンシュウ	-0.2193662
-3.925366	浜:ハマ	-0.07888751
-3.925366	浪:ナミ	-0.07891942
-3.781936	浪曲:ロウキョク	-0.06274401
-3.925366	浮世絵:ウキヨエ	-0.07891942
-3.925366	浮孔:ウキアナ	-0.07612649
-3.716233	海:ウミ	-0.04637285
-3.925366	海水浴:カイスイヨク	-0.07868803
-3.925366	海田:カイタ	-0.07891942
-3.925366	消滅:ショウメツ	-0.07572488
-3.546631	消防:ショウボウ	-0.1428956
-3.925366	涼子:リョウコ	-0.05938996
-3.781936	淀川:ヨドガワ	-0.06633902
-3.925366	深津:フカヅ	-0.05938996
-3.925366	淵:フチ	-0.07656784
-3.925366	混合:コンゴウ	-0.07249859
-3.925366	混雑:コンザツ	-0.07884762
-3.925366	清:キヨシ	-0.05938996
-3.925366	清彦:キヨヒコ	-0.05938996
-3.925366	清水:シミズ	-0.07891942
-3.716233	清水谷:シミズタニ	-0.152742
-3.925366	清治:キヨジ	-0.05938996
-3.781936	清海:キヨミ	-0.07443349
-3.925366	清美:キヨミ	-0.07792915
-3.925366	済:スミ	-0.06658912
-3.925366	渡来:トライ	-0.07880773
-3.925366	温:ユタカ	-0.07636728
-2.830388	温泉:オンセン	-0.4618609
-3.925366	湖南:コナミ	-0.07840859
-3.925366	湧出:ユウシュツ	-0.07720898
-3.546631	湯:ユ	-0.05853472
-3.925366	湾:ワン	-0.06658912
-3.925366	満額:マンガク	-0.07891942
-3.925366	源:ミナモト	-0.06859512
-3.925366	源流:ゲンリュウ	-0.07249859
-3.925366	滅ぼし:ホロボシ	-0.0778092
-3.925366	滅亡:メツボウ	-0.06859512
-3.716233	滋賀:シガ	-0.2029383
-3.925366	滞在:タイザイ	-0.07889923
-3.925366	演歌:エンカ	-0.07891942
-3.925366	漢字:カンジ	-0.07891942
-3.925366	漢音:カンオン	-0.06859512
-3.925366	漬物:ツケモノ	-0.07828878
-3.925366	潔:キヨシ	-0.05938996
-3.925366	澤山:サワヤマ	-0.07888751
-3.925366	濠:ホリ	-0.07888751
-3.925366	瀬:セ	-0.07257954
-3.781936	火:ヒ	-0.05905218
-3.716233	災害:サイガイ	-0.1671836
-3.925366	炊き込み:タキコミ	-0.07891942
-3.925366	点在:テンザイ	-0.07720898
-3.925366	烏:カラス	-0.0759659
-3.925366	烏川:カラスガワ	-0.06658912
-3.925366	無い:ナイ	-0.07856829
-3.781936	無形:ムケイ	-0.0784448
-3.925366	焼:ショウ	-0.05938996
-3.925366	照:アキラ	-0.05938996
-3.925366	照寺:ショウジ	-0.05938996
-3.925366	照焼:テリヤキ	-0.07889923
-3.781936	熊野川:クマノガワ	-0.04642844
-3.925366	父:チチ	-0.06279754
-3.925366	片丘:カタオカ	-0.07257954
-3.925366	片桐:カタギリ	-0.07728906
-3.925366	牧野:マキノ	-0.07800909
-3.781936	物:ブツ	-0.02873876
-3.925366	物:モノ	-0.06912577
-3.925366	物流:ブツリュウ	-0.07876783
-3.925366	物理:ブツリ	-0.07884762
-3.925366	物産:ブッサン	-0.07475951
-3.925366	特に:トクニ	-0.07584167
-3.424973	特別:トクベツ	-0.4874098
-3.925366	特急:トッキュウ	-0.07889923
-3.925366	特殊:トクシュ	-0.07844852
-3.925366	特異:トクイ	-0.07856829
-3.925366	特許庁:トッキョチョウ	-0.07889923
-3.925366	牽牛:ケンギュウ	-0.07880773
-3.925366	犬飼:イヌカイ	-0.07266048
-3.925366	犯罪:ハンザイ	-0.07824884
-3.925366	状:ジョウ	-0.06279754
-3.925366	状況:ジョウキョウ	-0.07864812
-3.925366	狐井:キツイ	-0.06658912
-3.716233	独立:ドクリツ	-0.07876413
-3.925366	独自:ドクジ	-0.06279754
-3.925366	献納:ケンノウ	-0.07572488
-3.925366	猿:サル	-0.07888751
-3.925366	猿沢:サルサワ	-0.07889923
-3.925366	獣:シシ	-0.07872793
-3.925366	獣:ジュウ	-0.07872793
-3.925366	玄:ゲン	-0.07831763
-3.925366	玉作:タマツクリ	-0.07792915
-3.781936	玉手:タマデ	-0.06852163
-3.925366	玉置山:タマキサン	-0.05938996
-3.925366	玉蔵:タマクラ	-0.07820889
-3.925366	玉虫:タマムシ	-0.07891942
-3.925366	玉造:タマツクリ	-0.07612649
-3.252188	王:オウ	-0.3729174
-3.252188	王寺:オウジ	-0.07073216
-3.925366	珥氏:珥氏	-0.05938996
-3.716233	現:ゲン	-0.07574579
-3.925366	現れ:アラワレ	-0.07724902
-3.925366	現代:ゲンダイ	-0.06279754
-3.252188	現在:ゲンザイ	-0.1647402
-3.546631	球場:キュウジョウ	-0.1904709
-3.781936	理:リ	-0.05930262
-3.925366	理事:リジ	-0.07884762
-3.925366	理学部:リガクブ	-0.07891942
-3.925366	瑠璃光:ルリコウ	-0.07891942
-3.925366	環:タマキ	-0.07891942
-3.781936	環境:カンキョウ	-0.07879603
-3.925366	環境省:カンキョウショウ	-0.06279754
-3.716233	環状:カンジョウ	-0.1507162
-3.925366	甘:アマ	-0.05938996
-3.925366	甚:甚	-0.07249859
-3.925366	生:セイ	-0.05938996
-3.925366	生:ナマ	-0.07891942
-3.925366	生き:イキ	-0.07724902
-3.424973	生まれ:ウマレ	-0.3054776
-3.925366	生徒:セイト	-0.06859512
-3.925366	生放送:ナマホウソウ	-0.07002233
-3.925366	生活:セイカツ	-0.07884762
-3.925366	生産:セイサン	-0.07704879
-2.954489	生駒:イコマ	-0.1407007
-3.925366	生駒山:イコマヤマ	-0.06279754
-3.781936	生駒山地:イコマサンチ	-0.2090419
-3.925366	産出:サンシュツ	-0.06859512
-3.925366	産地:サンチ	-0.06279754
-3.925366	産業:サンギョウ	-0.07891942
-3.781936	用い:モチイ	-0.07868431
-3.925366	用品:ヨウヒン	-0.06279754
-3.781936	用水路:ヨウスイロ	-0.2104691
-3.781936	用語:ヨウゴ	-0.2104691
-3.716233	田:タ	-0.07237338
-3.925366	田中:タナカ	-0.07891942
-3.925366	田井:ダイ	-0.06658912
-3.925366	田井新:タイシン	-0.07266048
-3.925366	田原:タハラ	-0.07884762
-3.424973	田原本:タワラモト	-0.1186725
-3.781936	田原本線:タワラモトセン	-0.1998368
-3.925366	田口:タグチ	-0.07776921
-3.925366	田名部:タナベ	-0.07888751
-3.925366	田地:デンチ	-0.06279754
-3.925366	田川:タガワ	-0.07612649
-3.546631	田辺:タナベ	-0.06211486
-3.925366	由来:ユライ	-0.07720898
-3.925366	由美子:ユミコ	-0.05938996
-3.925366	由良:ユラ	-0.07891942
-3.925366	甲子園:コウシエン	-0.0759659
-3.781936	甲斐:カイ	-0.07882746
-3.925366	甲賀:コウガ	-0.07760922
-3.925366	男:オトコ	-0.05938996
-3.546631	男女:ダンジョ	-0.3904796
-3.716233	男子:ダンシ	-0.06269046
-3.925366	男子校:ダンシコウ	-0.06912577
-1.840871	町:マチ	-0.3160522
-3.925366	町下:マチシタ	-0.07636728
-3.781936	町内:チョウナイ	-0.2070359
-3.925366	町屋:マチヤ	-0.07475951
-3.925366	町歩:チョウブ	-0.07889923
-3.925366	町田:マチダ	-0.07636728
-3.546631	町立:チョウリツ	-0.07768607
-3.925366	町立大淀病院:チョウリツオオヨドビョウイン	-0.07844852
-3.925366	町西:マチニシ	-0.07891942
-3.925366	画き:エガキ	-0.07889923
-3.925366	画家:ガカ	-0.05996975
-3.925366	界:カイ	-0.07656784
-3.925366	畑:ハタケ	-0.06826444
-3.925366	留:トメ	-0.07891942
-3.781936	畝傍:ウネビ	-0.05931488
-3.925366	畝傍山:ウネビヤマ	-0.07888751
-3.925366	畝傍御陵前:ウネビゴリョウマエ	-0.07888751
-3.925366	畠中:ハタケナカ	-0.07889923
-3.925366	畠田:ハタケダ	-0.06826444
-3.781936	畠田:ハタダ	-0.07848473
-3.925366	略称:リャクショウ	-0.07527895
-3.781936	番:バン	-0.07827334
-3.925366	番匠田中:バンジョウタナカ	-0.07266048
-3.546631	番地:バンチ	-0.1883996
-3.925366	番目:バンメ	-0.06279754
-3.716233	番組:バングミ	-0.09287935
-3.925366	畫藝:畫藝	-0.07891942
-3.925366	異なっ:コトナッ	-0.07724902
-3.546631	當麻:タイマ	-0.09865932
-3.925366	畿内:キナイ	-0.07002233
-3.925366	疋相:ヒキソ	-0.06658912
-3.424973	病院:ビョウイン	-0.1275508
-3.781936	発し:ハッシ	-0.2130264
-3.925366	発展:ハッテン	-0.07704879
-3.925366	発布:ハップ	-0.07704879
-3.925366	発掘:ハックツ	-0.07891942
-3.781936	発生:ハッセイ	-0.2161717
-3.925366	発着:ハッチャク	-0.07720898
-3.716233	発砲:ハッポウ	-0.1640924
-3.925366	発祥:ハッショウ	-0.07860821
-3.716233	発行:ハッコウ	-0.07354224
-3.925366	発表:ハッピョウ	-0.07889923
-3.716233	発見:ハッケン	-0.2636904
-3.925366	発達:ハッタツ	-0.07720898
-3.925366	発願:ホツガン	-0.07868803
-3.716233	登大路:ノボリオオジ	-0.06361692
-3.546631	登美:トミ	-0.3903083
-3.925366	登美ケ丘:トミガオカ	-0.07728906
-3.716233	登録:トウロク	-0.1651039
-3.716233	白:シロ	-0.1671756
-3.925366	白土:シラツチ	-0.07266048
-3.925366	白山:ハクサン	-0.07888751
-3.781936	白川渡:シラカワド	-0.0737075
-3.925366	白庭台:シラニワダイ	-0.05938996
-3.781936	白橿:シラカシ	-0.07144108
-3.925366	白毫寺:ビャクゴウジ	-0.07266048
-3.925366	白百合学園:シラユリガクエン	-0.05938996
-3.925366	白石:シライシ	-0.07891942
-3.781936	白粉:オシロイ	-0.07884765
-3.925366	白藤:シラフジ	-0.07876783
-3.424973	百:ヒャク	-0.07743853
-3.925366	百楽荘:ヒャクラクソウ	-0.05938996
-3.925366	百済:クタラ	-0.07788917
-3.925366	百済寺:クダラデラ	-0.05938996
-3.781936	百貨店:ヒャッカテン	-0.05996975
-3.033002	的:テキ	-0.1950448
-3.925366	皇:スメラギ	-0.07888751
-3.925366	皇女:オウジョ	-0.07872793
-3.781936	皇族:コウゾク	-0.2095726
-3.781936	盆地:ボンチ	-0.06088151
-3.925366	益:エキ	-0.05938996
-3.925366	益田:マスダ	-0.07884765
-3.925366	盛長:モリナガ	-0.06279754
-3.716233	監督:カントク	-0.1270291
-3.925366	目:メ	-0.06279754
-3.925366	目抜き通り:メヌキドオリ	-0.07002233
-3.925366	目的:モクテキ	-0.07002233
-3.925366	目論み:モクロミ	-0.07876783
-3.925366	目録:モクロク	-0.07249859
-3.925366	直:タダシ	-0.05938996
-3.925366	直:チョク	-0.07889923
-3.925366	直哉:ナオヤ	-0.07891942
-3.925366	直営:チョクエイ	-0.06279754
-3.925366	直系:チョッケイ	-0.07891942
-3.925366	直線:チョクセン	-0.07828878
-3.925366	相当:ソウトウ	-0.06279754
-3.925366	省:ショウ	-0.05938996
-3.925366	眉:マユ	-0.06859512
-3.925366	看板:カンバン	-0.07888751
-3.716233	看護:カンゴ	-0.1671836
-2.444928	県:ケン	-0.01636384
-3.925366	県人:ケンジン	-0.07888751
-3.781936	県内:ケンナイ	-0.07987704
-3.925366	県域:ケンイキ	-0.07844852
-3.925366	県境:ケンキョウ	-0.07888751
-3.925366	県庁:ケンチョウ	-0.07888751
-3.925366	県知事:ケンチジ	-0.05931988
-3.330044	県立:ケンリツ	-0.06855432
-3.781936	県警:ケンケイ	-0.02392595
-3.925366	県議会:ケンギカイ	-0.07884762
-3.424973	県道:ケンドウ	-0.1101227
-3.925366	眞山:マヤマ	-0.07891942
-3.925366	真:シン	-0.07891942
-3.925366	真奈:マナ	-0.05938996
-3.925366	真弓:マユミ	-0.05938996
-3.781936	真美:マミ	-0.2191747
-3.925366	真言:シンゴン	-0.07889923
-3.252188	真言宗:シンゴンシュウ	-0.1932803
-3.925366	真間:ママ	-0.06658912
-3.925366	真鶴:マナヅル	-0.07891942
-3.925366	真麻:マサ	-0.07876783
-3.925366	矢板:ヤイタ	-0.07636728
-3.781936	矢田:ヤタ	-0.2131073
-3.925366	矢田:ヤダ	-0.07872793
-3.781936	矢田原:ヤダワラ	-0.06842791
-3.925366	矢田寺:ヤタデラ	-0.07479978
-3.925366	矢田山:ヤタヤマ	-0.07266048
-3.925366	矢走:ヤバセ	-0.06859512
-3.781936	知ら:シラ	-0.07863642
-3.781936	知事:チジ	-0.05257434
-3.716233	短期大学:タンキダイガク	-0.166185
-3.925366	短距離:タンキョリ	-0.07002233
-3.546631	石:イシ	-0.07862101
-3.716233	石:セキ	-0.04989222
-3.925366	石上宅嗣:イソノカミノヤカツグ	-0.07868803
-3.925366	石井:イシイ	-0.07884762
-3.925366	石城:セキジョウ	-0.07844852
-3.546631	石川:イシカワ	-0.1313982
-3.925366	石木:イシキ	-0.07266048
-3.925366	石碑:セキヒ	-0.06279754
-3.925366	石窟:セックツ	-0.07884762
-3.781936	石造:セキゾウ	-0.219346
-3.546631	研究:ケンキュウ	-0.1285036
-3.925366	研究所:ケンキュウジョ	-0.0785965
-3.781936	碑文:ヒブン	-0.04908526
-3.925366	碩:セキ	-0.05938996
-3.925366	磐:イワ	-0.07888751
-3.925366	磐城:イワキ	-0.07612649
-3.925366	磨崖仏:マガイブツ	-0.06912577
-3.925366	磯:イソ	-0.07891942
-3.781936	磯城:シキ	-0.2185358
-3.925366	磯壁:イソカベ	-0.06859512
-3.925366	示す:シメス	-0.07868803
-3.330044	社:シャ	-0.2294748
-3.716233	社会:シャカイ	-0.06648298
-3.925366	社会保険庁:シャカイホケンチョウ	-0.06279754
-3.925366	社口:ヤシログチ	-0.07612649
-3.925366	社名:シャメイ	-0.06658912
-3.925366	社団:シャダン	-0.07868803
-3.781936	社長:シャチョウ	-0.05996975
-3.925366	祖:ソ	-0.07249859
-3.925366	祝戸:イワイド	-0.06859512
-3.781936	神:カミ	-0.07886783
-3.925366	神体:シンタイ	-0.07002233
-3.925366	神倉:カンノクラ	-0.06658912
-3.925366	神功:シンコウ	-0.07872793
-3.716233	神奈川:カナガワ	-0.2640508
-3.925366	神宮前:ジングウマエ	-0.07612649
-3.781936	神戸:コウベ	-0.06993711
-3.781936	神木:シンボク	-0.2129454
-3.925366	神末:コウズエ	-0.06279754
-3.925366	神武:ジンム	-0.07891942
-2.954489	神社:ジンジャ	-0.2873524
-3.781936	神道:シントウ	-0.0697742
-3.925366	神野寺:ジンノジ	-0.05938996
-3.925366	神野山:コウノヤマ	-0.07856829
-3.925366	神鏡:シンキョウ	-0.06859512
-3.925366	祠:ホコラ	-0.07002233
-3.925366	祥:サチ	-0.05938996
-3.716233	祭:サイ	-0.1410362
-3.925366	祭礼:サイレイ	-0.07002233
-3.925366	祭祀:サイシ	-0.07720898
-3.925366	禁止:キンシ	-0.07704879
-3.925366	禅:ゼン	-0.07891942
-3.925366	福:フク	-0.07860821
-3.925366	福井:フクイ	-0.07740915
-3.716233	福住:フクスミ	-0.07188778
-3.781936	福山:フクヤマ	-0.2168141
-3.925366	福山線:フクヤマセン	-0.05938996
-3.716233	福岡:フクオカ	-0.1632155
-3.925366	福島:フクシマ	-0.07891942
-3.925366	福祉:フクシ	-0.07868803
-3.925366	秀:シゲル	-0.07891942
-3.925366	秀哉:ヒデヤ	-0.07889923
-3.925366	私有:シユウ	-0.06859512
-3.546631	私立:シリツ	-0.1193147
-3.925366	私設:シセツ	-0.07888751
-3.925366	私財:シザイ	-0.07868431
-3.925366	秋津:アキツ	-0.07848845
-3.925366	秋田:アキタ	-0.07740915
-3.716233	秋篠:アキシノ	-0.1412057
-3.925366	秋野:アキノ	-0.07880773
-3.424973	科:カ	-0.161512
-3.546631	科学:カガク	-0.1431314
-3.925366	秦:ハタ	-0.07831328
-3.925366	秦庄:ハタノショウ	-0.06658912
-3.925366	称名寺:ショウミョウジ	-0.05938996
-3.925366	称念寺:ショウネンジ	-0.05938996
-3.925366	移:ウツリ	-0.07889923
-3.925366	移転:イテン	-0.07888751
-3.925366	税:ゼイ	-0.06658912
-3.925366	種:シュ	-0.07002233
-3.925366	種類:シュルイ	-0.07475951
-3.925366	稲:イネ	-0.0685423
-3.781936	稻淵:稻淵	-0.06650323
-3.925366	積:セキ	-0.05938996
-3.925366	穗:ミノル	-0.07891942
-3.781936	穴虫:アナムシ	-0.0540472
-3.925366	穴闇:ナグラ	-0.06859512
-3.925366	空白:クウハク	-0.07848845
-3.925366	窃盗:セットウ	-0.07889923
-3.925366	窪之庄:クボノショウ	-0.07889923
-3.925366	窯:カマ	-0.07868803
-3.781936	立:リツ	-0.04245587
-3.925366	立ち:タチ	-0.07891942
-3.925366	立っ:タッ	-0.07724902
-3.925366	立命館大学:リツメイカンダイガク	-0.07844852
-3.925366	立地:リッチ	-0.07002233
-3.925366	立野:タチノ	-0.07856829
-3.925366	立香:タツカ	-0.07891942
-3.546631	竜田:タツタ	-0.07724959
-3.781936	竜田川:タツタガワ	-0.05388217
-3.781936	竜門山:リュウモンザン	-0.219055
-3.716233	競技:キョウギ	-0.0779217
-3.781936	競艇:キョウテイ	-0.2191348
-3.716233	競輪:ケイリン	-0.166105
-3.925366	競馬:ケイバ	-0.06279754
-3.781936	竹:タケ	-0.07884765
-3.925366	竹村:タケムラ	-0.0759659
-3.925366	竹林:タケバヤシ	-0.07760922
-3.925366	竹林:チクリン	-0.07820889
-3.546631	笠:カサ	-0.1062959
-3.925366	笠:リュウ	-0.07891942
-3.925366	笠置:カサギ	-0.07880773
-3.925366	笠置山地:カサギサンチ	-0.07848845
-3.033002	第:ダイ	-0.2442372
-3.925366	筆者:ヒッシャ	-0.07868803
-3.424973	等:トウ	-0.1024052
-3.925366	筑紫:ツクシ	-0.07860821
-3.716233	筒井:ツツイ	-0.05845111
-3.925366	答志:トウシ	-0.07266048
-3.546631	箇所:カショ	-0.103407
-3.925366	管区:カンク	-0.05938996
-3.716233	管理:カンリ	-0.06625307
-3.716233	管轄:カンカツ	-0.1147799
-3.925366	管領:カンリョウ	-0.07889923
-3.925366	箱根:ハコネ	-0.07266048
-3.925366	箸:ハシ	-0.07891942
-3.925366	節:フシ	-0.07848845
-3.716233	築か:キズカ	-0.2649304
-3.925366	築山:ツキヤマ	-0.06658912
-3.925366	築山:ツクヤマ	-0.07612649
-3.781936	築造:チクゾウ	-0.2174956
-3.781936	篠原:シノハラ	-0.06852163
-3.925366	篠楽:ササガク	-0.06658912
-3.330044	簡易:カンイ	-0.325599
-3.925366	簡裁:カンサイ	-0.07249859
-3.925366	米:ベイ	-0.07880773
-3.781936	粟原:アワラ	-0.06850962
-3.925366	精:シラゲ	-0.07888751
-3.925366	精:セイ	-0.07888751
-3.925366	糸島:イトシマ	-0.07636728
-3.716233	系:ケイ	-0.151089
-3.925366	系譜:ケイフ	-0.07889923
-3.925366	紀:キノ	-0.07848845
-3.781936	紀の川:キノカワ	-0.05913568
-3.925366	紀伊:キイ	-0.07891942
-3.925366	紀勢本線:キセイホンセン	-0.07880773
-3.925366	紀勢線:キセイセン	-0.07656784
-3.925366	紀和:キワ	-0.07880773
-3.925366	紀寺:キデラ	-0.07266048
-3.546631	約:ヤク	-0.0786088
-3.925366	紐:ヒモ	-0.07891942
-3.925366	紙:シ	-0.06912577
-3.781936	級:キュウ	-0.062384
-3.781936	素麺:ソウメン	-0.06167461
-3.925366	索:サク	-0.07891942
-3.925366	紫:ムラサキ	-0.07891942
-3.925366	紫園:シオン	-0.07249859
-3.781936	細川:ホソカワ	-0.07884765
-3.925366	終わっ:オワッ	-0.07724902
-3.716233	終末:シュウマツ	-0.2655292
-3.781936	終点:シュウテン	-0.2129454
-3.925366	終着駅:シュウチャクエキ	-0.06912577
-3.925366	組合:クミアイ	-0.05002411
-3.546631	組織:ソシキ	-0.1283114
-3.925366	組長:クミチョウ	-0.07475951
-3.925366	経:ヘ	-0.0778092
-3.781936	経営:ケイエイ	-0.07394964
-3.781936	経済:ケイザイ	-0.2191348
-3.925366	経理:ケイリ	-0.07728906
-3.925366	経由:ケイユ	-0.07572488
-3.925366	経緯:ケイイ	-0.07656784
-3.925366	経路:ケイロ	-0.07475951
-3.716233	結ぶ:ムスブ	-0.07414079
-3.781936	結ん:ムスン	-0.0697742
-3.781936	結崎:ユウザキ	-0.06852163
-3.925366	結成:ケッセイ	-0.07704879
-3.925366	絞め技:シメワザ	-0.07844852
-3.716233	給与:キュウヨ	-0.07881624
-3.925366	給食:キュウショク	-0.07888751
-3.925366	統:ミツル	-0.06279754
-3.925366	統一:トウイツ	-0.07889923
-3.781936	統合:トウゴウ	-0.1622077
-3.925366	綏靖:綏靖	-0.07880773
-3.781936	継:ツギ	-0.1998368
-3.925366	継が:ツガ	-0.07828878
-3.781936	継承:ケイショウ	-0.07884765
-3.781936	続く:ツヅク	-0.07812526
-3.781936	続け:ツヅケ	-0.2176958
-3.925366	総:ソウ	-0.07880773
-3.925366	総て:スベテ	-0.06279754
-3.925366	総会:ソウカイ	-0.07889923
-3.716233	総合:ソウゴウ	-0.07824139
-3.781936	総本山:ソウホンザン	-0.07241385
-3.781936	総称:ソウショウ	-0.05812877
-3.925366	緑ヶ丘:ミドリガオカ	-0.07788917
-2.019606	線:セン	-0.9337398
-3.925366	線上:センジョウ	-0.06279754
-3.925366	編年体:ヘンネンタイ	-0.06279754
-3.925366	編曲:ヘンキョク	-0.07788917
-3.925366	編纂:ヘンサン	-0.07704879
-3.925366	編集:ヘンシュウ	-0.07572488
-3.925366	練:ネリ	-0.07889923
-3.925366	緻密:チミツ	-0.07844852
-3.925366	縁:エン	-0.07792915
-3.925366	縄:ナワ	-0.05938996
-3.925366	縄文:ジョウモン	-0.07836866
-3.925366	縣坐:縣坐	-0.07848845
-3.925366	繁:シゲル	-0.07891942
-3.925366	繍帳:繍帳	-0.05938996
-3.925366	繰り返し:クリカエシ	-0.07257954
-3.925366	繰り返す:クリカエス	-0.07891942
-3.925366	纏:マトイ	-0.07889923
-3.925366	纒:マトイ	-0.07889923
-3.925366	罪:ザイ	-0.06279754
-3.781936	置か:オカ	-0.2187356
-3.925366	置き:オキ	-0.07257954
-3.925366	置く:オク	-0.06625099
-3.925366	罰金:バッキン	-0.07891942
-3.925366	署:ショ	-0.04245587
-3.925366	羅:ラ	-0.06279754
-3.925366	羊:ヒツジ	-0.07891942
-3.925366	美しい:ウツクシイ	-0.07880773
-3.781936	美術:ビジュツ	-0.06852163
-3.330044	美術館:ビジュツカン	-0.2571302
-3.186191	群:グン	-0.04248426
-3.925366	群集:グンシュウ	-0.07888751
-3.925366	群馬:グンマ	-0.07740915
-3.925366	義:ギ	-0.05938996
-3.925366	義成:ヨシナリ	-0.06279754
-3.925366	義男:ヨシオ	-0.05938996
-3.925366	羽栗:ハグリ	-0.07884765
-3.925366	翁:オウ	-0.07888751
-3.925366	翔:ショウ	-0.05938996
-3.925366	老:ロウ	-0.05938996
-3.925366	老婆:ロウバ	-0.06279754
-3.925366	老舗:シニセ	-0.07888751
-3.925366	考え:カンガエ	-0.07884762
-3.925366	考古:コウコ	-0.07820517
-2.779514	者:シャ	-0.1240102
-3.925366	者:モノ	-0.07788917
-3.781936	聖:キヨシ	-0.07886783
-3.781936	聖子:セイコ	-0.1998368
-3.925366	聖徳:セイトク	-0.07888751
-3.925366	聖徳太子:ショウトクタイシ	-0.07475951
-3.546631	聖武天皇:ショウムテンノウ	-0.1226575
-3.925366	聖衆:ショウジュ	-0.07891942
-3.925366	聞:聞	-0.05938996
-3.925366	聯合:レンゴウ	-0.07891942
-3.925366	聰:サトシ	-0.07876783
-3.925366	聴松:チョウマツ	-0.07891942
-3.925366	職:ショク	-0.06859512
-3.925366	職員:ショクイン	-0.07002233
-3.925366	職場:ショクバ	-0.06658912
-3.424973	職業:ショクギョウ	-0.1279993
-3.925366	聾:ツンボ	-0.07796912
-3.925366	肉:ニク	-0.07891942
-3.781936	肥前:ヒゼン	-0.2188953
-3.716233	育ち:ソダチ	-0.1103498
-3.781936	背:セ	-0.07836494
-3.925366	背景:ハイケイ	-0.06658912
-3.925366	胤:タネ	-0.07889923
-3.925366	能力:ノウリョク	-0.07888751
-3.781936	能楽:ノウガク	-0.06272306
-3.925366	脇本:ワキモト	-0.07656784
-3.781936	脚本:キャクホン	-0.218336
-3.781936	脳:ノウ	-0.07886783
-3.925366	脳出血:ノウシュッケツ	-0.06859512
-3.716233	臣:シン	-0.05804508
-3.781936	臨床:リンショウ	-0.07886783
-3.925366	臨済宗:リンザイシュウ	-0.07891942
-3.252188	自動車:ジドウシャ	-0.1902358
-3.781936	自治体:ジチタイ	-0.2184959
-3.781936	自然:シゼン	-0.07848473
-3.925366	自称:ジショウ	-0.07720898
-3.781936	自衛隊:ジエイタイ	-0.06235525
-3.252188	自転車:ジテンシャ	-0.6332266
-3.925366	至っ:イタッ	-0.07608261
-3.716233	至る:イタル	-0.09632654
-3.925366	致死:チシ	-0.07844852
-3.925366	興:キョウ	-0.05938996
-3.925366	興し:オコシ	-0.07724902
-3.925366	興福:コウフク	-0.07820889
-3.781936	興福寺:コウフクジ	-0.1100053
-3.716233	舎:シャ	-0.07203743
-3.716233	舞:マイ	-0.03226128
-3.925366	舞う:マウ	-0.07891942
-3.925366	舟戸:フナト	-0.05938996
-3.716233	航空:コウクウ	-0.2655409
-3.925366	船:フネ	-0.07872793
-3.925366	船井:フナイ	-0.07808902
-3.925366	船宿:フナヤド	-0.07760922
-3.925366	船石:フナイシ	-0.07848845
-3.925366	艦:カン	-0.07872793
-3.925366	良典:ヨシノリ	-0.05938996
-3.925366	良福寺:リョウフクジ	-0.07479978
-3.925366	艶:ツヤ	-0.07891942
-3.781936	芝:シバ	-0.218216
-3.925366	芝西:シバニシ	-0.07788917
-3.925366	芦原:アシハラ	-0.07808902
-3.781936	花:ハナ	-0.05290928
-3.925366	花園大学:ハナゾノダイガク	-0.06658912
-3.925366	花崗岩:カコウガン	-0.06279754
-3.925366	芳信:ホウシン	-0.05938996
-3.925366	芳忠:ヨシタダ	-0.07257954
-3.925366	芸:ゲイ	-0.07889923
-3.925366	芸能:ゲイノウ	-0.06279754
-3.716233	芸術:ゲイジュツ	-0.1672873
-3.781936	苑:エン	-0.07471549
-3.925366	若しくは:モシクハ	-0.07257954
-3.781936	若宮:ワカミヤ	-0.06996968
-3.781936	若草:ワカクサ	-0.07882746
-3.781936	英:エイ	-0.07875613
-3.925366	英俊:エイシュン	-0.06859512
-3.781936	茂:シゲル	-0.219346
-3.925366	茂雄:シゲオ	-0.05938996
-3.781936	茅原:チハラ	-0.06229667
-3.925366	茨城:イバラキ	-0.07740915
-3.716233	茨木:イバラギ	-0.07301696
-3.781936	茶:チャ	-0.04245587
-3.925366	茶人:チャジン	-0.07257954
-3.925366	茶会:チャカイ	-0.07891942
-3.925366	茶屋:チャヤ	-0.06432255
-3.925366	茶飯:チャメシ	-0.05938996
-3.925366	草:クサ	-0.07891942
-3.925366	草津:クサツ	-0.07636728
-3.925366	荒川:アラカワ	-0.07249859
-3.925366	荒田:アレタ	-0.07891942
-3.925366	荻:オギ	-0.07266048
-3.781936	菓子:カシ	-0.0354111
-3.925366	菖蒲:ショウブ	-0.07266048
-3.925366	菖蒲池:ショウブイケ	-0.07266048
-3.925366	菜畑:ナバタケ	-0.07612649
-3.330044	菟田野:ウタノ	-0.155911
-3.716233	菩提山:ボダイセン	-0.1609952
-3.781936	華:ハナ	-0.07855658
-3.716233	華厳宗:ケゴンシュウ	-0.2494392
-3.781936	華族:カゾク	-0.05261671
-3.781936	萩の台:ハギノダイ	-0.06366208
-3.925366	萱生:カヨウ	-0.07266048
-3.925366	萱野:カヤノ	-0.06859512
-3.925366	落:落	-0.07832872
-3.925366	落語:ラクゴ	-0.07788917
-3.781936	葉:ハ	-0.06406289
-3.925366	著名:チョメイ	-0.07872793
-3.925366	葛:カズラ	-0.07884762
-3.925366	葛:ツヅラ	-0.07612649
-3.925366	葛下:カツシモ	-0.07880773
-3.252188	葛城:カツラギ	-0.1232497
-3.925366	葛城山:カツラギヤマ	-0.06658912
-3.925366	葛城川:カツラギガワ	-0.05938996
-3.781936	葛本:クズモト	-0.2131073
-3.925366	葵:アオイ	-0.07812898
-3.925366	蒐集:シュウシュウ	-0.07788917
-3.925366	蓋:フタ	-0.07876783
-3.925366	蓮:ハチス	-0.07760922
-3.925366	蓮糸:ハスイト	-0.07864812
-3.925366	蔵本:ゾウホン	-0.06912577
-3.925366	薩摩:サツマ	-0.06859512
-3.925366	薩雄:薩雄	-0.05938996
-3.781936	薬剤師:ヤクザイシ	-0.06810091
-3.925366	薬品:ヤクヒン	-0.07888751
-3.716233	薬師:クスシ	-0.07844108
-3.925366	薬師:ヤクシ	-0.07891942
-3.716233	薬師寺:ヤクシジ	-0.05405114
-3.781936	薬水:クスリミズ	-0.06366208
-3.716233	藤井:フジイ	-0.04399798
-3.546631	藤原:フジワラ	-0.07750322
-3.925366	藤原不比等:フジワラノフヒト	-0.06279754
-3.781936	藤原仲麻呂:フジワラノナカマロ	-0.05202305
-3.781936	藤山:フジヤマ	-0.2193662
-3.925366	藤岡:フジオカ	-0.07891942
-3.925366	藤田:フジタ	-0.07891942
-3.925366	藩:ハン	-0.07891942
-3.925366	藩士:ハンシ	-0.07891942
-3.925366	藪原:ヤブハラ	-0.06859512
-3.781936	虫:チュウ	-0.05901043
-3.781936	虫:ムシ	-0.219055
-3.925366	蜘蛛:クモ	-0.07888751
-3.716233	蝦夷:エゾ	-0.0582961
-3.781936	融:トオル	-0.05796528
-3.925366	融通:ユウズウ	-0.07891942
-3.925366	衆徒:シュウト	-0.06912577
-3.716233	衆議院:シュウギイン	-0.1508819
-3.925366	行:クダリ	-0.07836494
-3.925366	行う:オコナウ	-0.07888751
-3.925366	行き来:イキキ	-0.06658912
-3.925366	行っ:オコナッ	-0.0778092
-3.716233	行わ:オコナワ	-0.2455755
-3.925366	行基:ギョウキ	-0.07868803
-3.716233	行政:ギョウセイ	-0.078481
-3.925366	行文:コウブン	-0.05938996
-3.925366	術:ジュツ	-0.07788917
-3.925366	街:ガイ	-0.05607764
-3.925366	街路:ガイロ	-0.06912577
-2.858249	街道:カイドウ	-0.2169485
-3.925366	衛:マモル	-0.07891942
-3.925366	衛門:エモン	-0.06272306
-3.925366	衝田:衝田	-0.07889923
-3.925366	衝突:ショウトツ	-0.07572488
-3.925366	表示:ヒョウジ	-0.07002233
-3.925366	表記:ヒョウキ	-0.07720898
-3.781936	袖ケ浦:ソデガウラ	-0.07588183
-3.925366	被:ヒ	-0.07891942
-3.781936	裁判所:サイバンショ	-0.03504667
-3.925366	装束:ショウゾク	-0.07002233
-3.925366	裕明:ヒロアキ	-0.05938996
-3.925366	製作:セイサク	-0.07572488
-3.925366	製作所:セイサクショ	-0.05938996
-3.925366	製法:セイホウ	-0.07891942
-3.781936	製薬:セイヤク	-0.07828506
-3.925366	製造:セイゾウ	-0.07888751
-3.716233	複合:フクゴウ	-0.1668243
-3.925366	複数:フクスウ	-0.07864812
-3.781936	襲撃:シュウゲキ	-0.2188953
-2.954489	西:ニシ	-0.1441017
-3.781936	西の京:ニシノキョウ	-0.07708511
-3.716233	西ノ京:ニシノキョウ	-0.05235448
-3.925366	西三倉堂:ニシミクラドウ	-0.06658912
-3.925366	西中:ニシナカ	-0.07796912
-3.925366	西佐味:ニシサビ	-0.07889923
-3.925366	西光:サイコウ	-0.07820889
-3.925366	西北:セイホク	-0.07792915
-3.925366	西北:ニシキタ	-0.07792915
-3.925366	西南:セイナン	-0.07792915
-3.925366	西原:ニシガハラ	-0.06658912
-3.925366	西口:ニシグチ	-0.07820889
-3.781936	西吉野:ニシヨシノ	-0.0720088
-3.781936	西名阪自動車道:ニシメイハンジドウシャドウ	-0.05261671
-3.925366	西和:セイワ	-0.0754398
-3.925366	西国:サイコク	-0.07888751
-3.925366	西国:サイゴク	-0.07888751
-3.716233	西大寺:サイダイジ	-0.05635949
-3.925366	西大寺北:サイダイジキタ	-0.07744917
-3.925366	西大寺東:サイダイジヒガシ	-0.07266048
-3.925366	西大寺赤田:サイダイジアコダ	-0.07266048
-3.925366	西宮:ニシノミヤ	-0.06658912
-3.716233	西小学校:ニシショウガッコウ	-0.2460316
-3.925366	西山:ニシヤマ	-0.07864812
-3.925366	西川:ニシカワ	-0.07891942
-3.330044	西日本旅客鉄道:ニシニホンリョカクテツドウ	-0.21181
-3.925366	西松:サイマツ	-0.07872793
-3.925366	西河:ニシガワ	-0.07788917
-3.781936	西波多:ニシハタ	-0.06117245
-3.925366	西狭川:ニシサガワ	-0.07479978
-3.925366	西登美ケ丘:ニシトミガオカ	-0.07864812
-3.925366	西福寺:サイフクジ	-0.05938996
-3.424973	西部:セイブ	-0.2234796
-3.925366	西阿田:ニシアダ	-0.07266048
-3.925366	西院:サイイン	-0.07889923
-3.925366	要衝:ヨウショウ	-0.06279754
-3.925366	見:ミ	-0.07891942
-3.925366	見える:ミエル	-0.07856829
-3.716233	見奈良:ミナラ	-0.1275673
-3.781936	見瀬:ミセ	-0.07258766
-3.781936	規格:キカク	-0.07820517
-3.781936	規模:キボ	-0.06800711
-3.925366	視学:シガク	-0.07844852
-3.781936	覚寺:カクジ	-0.1998368
-3.716233	親:オヤ	-0.1667961
-3.925366	親:シン	-0.07891942
-3.925366	親王:シンノウ	-0.06279754
-3.925366	観覚寺:カンガクジ	-0.06658912
-3.781936	解放:カイホウ	-0.1672671
-3.925366	解消:カイショウ	-0.07828878
-3.781936	言う:イウ	-0.2095726
-3.781936	言わ:イワ	-0.07800537
-3.925366	言葉:コトバ	-0.07002233
-3.925366	訂:テイ	-0.05938996
-3.925366	計:ケイ	-0.07891942
-3.424973	計画:ケイカク	-0.05858099
-3.925366	訓練:クンレン	-0.07856457
-3.925366	記事:キジ	-0.06912577
-3.546631	記念:キネン	-0.07494956
-3.925366	記者:キシャ	-0.06912577
-3.925366	設け:モウケ	-0.07876783
-3.925366	設備:セツビ	-0.07888751
-3.925366	設定:セッテイ	-0.07704879
-3.330044	設立:セツリツ	-0.1175514
-3.186191	設置:セッチ	-0.4454783
-3.925366	詐取:サシュ	-0.07844852
-3.781936	評論:ヒョウロン	-0.218336
-3.925366	話さ:ハナサ	-0.07868803
-3.925366	該当:ガイトウ	-0.07720898
-3.925366	認め:ミトメ	-0.07724902
-3.781936	認める:ミトメル	-0.07861622
-3.925366	認可:ニンカ	-0.07888751
-3.925366	認定:ニンテイ	-0.07880773
-3.925366	誕生:タンジョウ	-0.07720898
-3.925366	誕生寺:タンジョウジ	-0.05938996
-3.925366	誘導:ユウドウ	-0.07891942
-3.716233	誘拐:ユウカイ	-0.07690461
-3.781936	語:ゴ	-0.07836494
-3.925366	語り物:カタリモノ	-0.07002233
-3.925366	誠:マコト	-0.05938996
-3.925366	説:セツ	-0.07836866
-3.781936	調理:チョウリ	-0.07883593
-3.925366	諏訪:スワ	-0.07889923
-3.925366	諸:ショ	-0.07889923
-3.925366	諸山:ショザン	-0.07889923
-3.781936	諸白:モロハク	-0.06341414
-3.925366	謙吉:ケンキチ	-0.05938996
-3.716233	講師:コウシ	-0.2557674
-3.925366	證寺:證寺	-0.05938996
-3.925366	警備:ケイビ	-0.07891942
-2.673545	警察:ケイサツ	-0.2724321
-3.716233	警察官:ケイサツカン	-0.07460274
-3.546631	議員:ギイン	-0.171022
-3.925366	議長:ギチョウ	-0.06859512
-3.925366	譲受:ジョウジュ	-0.06859512
-3.781936	護:マモル	-0.07815722
-3.925366	護持:ゴジ	-0.07820889
-3.781936	讃岐:サヌキ	-0.07837667
-3.546631	谷:タニ	-0.1164079
-3.781936	谷尻:タニシリ	-0.06846876
-3.925366	豆:マメ	-0.07889923
-3.925366	豊山:トヨヤマ	-0.07864812
-3.781936	豊後:ブンゴ	-0.2188953
-3.925366	豊明:トヨアケ	-0.06279754
-3.781936	豊浦:トヨウラ	-0.06793731
-3.925366	豊科:トヨシナ	-0.07479978
-3.925366	豎省:豎省	-0.05938996
-3.925366	豪商:ゴウショウ	-0.06912577
-3.781936	豪族:ゴウゾク	-0.1574925
-3.925366	貞婦:テイフ	-0.06912577
-3.925366	負わ:オワ	-0.07889923
-3.716233	財団:ザイダン	-0.2653297
-3.716233	販売:ハンバイ	-0.06328627
-3.925366	貫く:ツラヌク	-0.07879603
-3.925366	責任:セキニン	-0.07824884
-3.424973	貴族:キゾク	-0.09309641
-3.925366	費用:ヒヨウ	-0.06859512
