
\data\
ngram 1=3799
ngram 2=10890
ngram 3=2335
ngram 4=2127
ngram 5=1869

\1-grams:
-4.475715	1000:1000	-0.1262312
-4.475715	100:100	-0.1263184
-4.475715	108:108	-0.1239297
-4.475715	109:109	-0.1239297
-3.998594	10:10	-0.1254605
-4.475715	1100:1100	-0.1262312
-4.475715	112:112	-0.1239297
-4.475715	116:116	-0.1239297
-4.475715	118:118	-0.1239297
-4.475715	119:119	-0.1239297
-3.998594	11:11	-0.5192233
-4.475715	1200:1200	-0.1262312
-4.174685	120:120	-0.1238713
-4.475715	122:122	-0.1239297
-4.475715	123:123	-0.1239297
-4.475715	124:124	-0.1239297
-4.475715	125:125	-0.1239297
-4.475715	127:127	-0.1239297
-4.475715	128:128	-0.1239297
-4.174685	12:12	-0.1256351
-3.572625	1300:1300	-0.5705011
-4.475715	130:130	-0.1263038
-4.475715	132:132	-0.1239297
-4.475715	133:133	-0.1239297
-4.475715	1350:1350	-0.1262312
-4.475715	135:135	-0.1239297
-4.475715	137:137	-0.1239297
-4.475715	138:138	-0.1239297
-4.475715	140:140	-0.1256933
-4.475715	142:142	-0.1239297
-4.475715	144:144	-0.1239297
-4.475715	145:145	-0.1239297
-4.475715	146:146	-0.1239297
-4.475715	148:148	-0.1239297
-4.475715	14:14	-0.1261586
-4.475715	1500:1500	-0.1261295
-4.475715	150:150	-0.1239297
-4.475715	151:151	-0.1239297
-4.475715	152:152	-0.1239297
-4.475715	153:153	-0.1239297
-4.475715	154:154	-0.1239297
-4.174685	156:156	-0.1238859
-4.475715	1578:1578	-0.1133895
-4.475715	157:157	-0.1239297
-4.475715	158:158	-0.1239297
-4.475715	159:159	-0.1133895
-3.998594	15:15	-0.1231988
-4.475715	160:160	-0.1239297
-4.475715	161:161	-0.1239297
-4.475715	162:162	-0.1239297
-4.475715	164:164	-0.1239297
-4.475715	165:165	-0.1239297
-4.475715	166:166	-0.1239297
-4.475715	167:167	-0.1239297
-3.630617	168:168	-0.6323031
-3.776745	169:169	-1.137892
-4.475715	1700:1700	-0.1262893
-4.475715	170:170	-0.1239297
-4.475715	171:171	-0.1239297
-4.475715	172:172	-0.1239297
-4.475715	173:173	-0.1239297
-4.475715	176:176	-0.1239297
-4.174685	17:17	-0.2849847
-4.174685	181:181	-0.2827559
-4.174685	183:183	-0.2827559
-4.475715	184:184	-0.1239297
-4.475715	186:186	-0.1239297
-4.475715	1874:1874	-0.1256933
-4.475715	187:187	-0.1239297
-4.475715	188:188	-0.1239297
-4.475715	189:189	-0.1239297
-4.475715	1917:1917	-0.1256933
-4.475715	1920:1920	-0.1256933
-4.475715	1923:1923	-0.1256933
-4.475715	192:192	-0.1239297
-4.475715	1930:1930	-0.1262893
-4.475715	193:193	-0.1239297
-4.475715	1940:1940	-0.1262893
-4.475715	1943:1943	-0.1256933
-4.475715	1944:1944	-0.1256933
-4.475715	194:194	-0.1239297
-4.475715	1952:1952	-0.1256933
-4.174685	195:195	-0.2827559
-4.475715	1964:1964	-0.1256933
-4.475715	1968:1968	-0.1256933
-4.475715	196:196	-0.1239297
-4.475715	1977:1977	-0.1256933
-4.475715	197:197	-0.1239297
-4.475715	1980:1980	-0.1256933
-4.475715	1989:1989	-0.1256933
-4.475715	198:198	-0.1239297
-4.475715	1991:1991	-0.1256933
-4.475715	199:199	-0.1239297
-4.174685	19:19	-0.2827559
-3.133292	1:1	-0.353796
-3.998594	2001:2001	-0.5187726
-4.174685	2003:2003	-0.2845195
-4.174685	2004:2004	-0.2845195
-3.697563	2005:2005	-1.500641
-3.998594	2006:2006	-0.5187726
-4.174685	2007:2007	-0.285159
-4.475715	200:200	-0.1239297
-4.475715	2010:2010	-0.1256933
-4.475715	201:201	-0.1239297
-4.475715	202:202	-0.1239297
-4.475715	203:203	-0.1239297
-4.475715	204:204	-0.1239297
-4.475715	206:206	-0.1239297
-4.174685	207:207	-0.2827559
-4.475715	208:208	-0.1239297
-4.475715	209:209	-0.1239297
-4.174685	20:20	-0.1237252
-4.475715	210:210	-0.1239297
-4.475715	211:211	-0.1239297
-4.475715	212:212	-0.1239297
-4.475715	213:213	-0.1239297
-4.475715	214:214	-0.1239297
-4.475715	215:215	-0.1239297
-4.475715	217:217	-0.1239297
-4.475715	218:218	-0.1239297
-4.475715	219:219	-0.1239297
-4.475715	21:21	-0.1133895
-4.475715	220:220	-0.1239297
-4.475715	221:221	-0.1239297
-4.475715	222:222	-0.1239297
-4.475715	224:224	-0.1239297
-4.475715	226:226	-0.1239297
-4.475715	228:228	-0.1239297
-4.475715	229:229	-0.1239297
-4.475715	235:235	-0.1239297
-4.475715	236:236	-0.1239297
-4.475715	237:237	-0.1239297
-4.475715	238:238	-0.1239297
-4.475715	240:240	-0.1239297
-4.475715	242:242	-0.1239297
-4.475715	244:244	-0.1239297
-4.475715	245:245	-0.1239297
-4.475715	246:246	-0.1239297
-4.475715	247:247	-0.1239297
-4.475715	249:249	-0.1239297
-4.475715	250:250	-0.1239297
-4.475715	251:251	-0.1239297
-4.475715	252:252	-0.1239297
-4.475715	253:253	-0.1239297
-4.475715	254:254	-0.1239297
-4.475715	255:255	-0.1239297
-4.475715	256:256	-0.1239297
-4.475715	257:257	-0.1239297
-4.174685	258:258	-0.2827559
-4.475715	259:259	-0.1239297
-3.776745	25:25	-0.3026634
-4.475715	261:261	-0.1239297
-4.475715	262:262	-0.1239297
-4.475715	263:263	-0.1239297
-4.475715	266:266	-0.1239297
-4.475715	267:267	-0.1239297
-4.475715	269:269	-0.1239297
-4.475715	2700:2700	-0.1263038
-4.174685	271:271	-0.1013273
-4.475715	272:272	-0.1239297
-4.475715	273:273	-0.1239297
-4.475715	274:274	-0.1239297
-4.475715	276:276	-0.1239297
-4.475715	277:277	-0.1239297
-4.475715	278:278	-0.1239297
-4.475715	279:279	-0.1239297
-4.174685	27:27	-0.1261004
-4.475715	28:28	-0.108635
-4.475715	2913:2913	-0.1263038
-3.361771	2:2	-0.1996338
-4.475715	308:308	-0.1239297
-4.174685	309:309	-0.2827559
-4.475715	30:30	-0.1239297
-4.475715	315:315	-0.1263329
-4.475715	31:31	-0.1261586
-4.475715	32:32	-0.1263474
-4.475715	34:34	-0.1263474
-4.475715	35:35	-0.1239297
-4.475715	368:368	-0.1239297
-4.475715	369:369	-0.1239297
-4.475715	370:370	-0.1239297
-4.475715	379:379	-0.1239297
-3.361771	3:3	-0.1591085
-4.475715	40:40	-0.1239297
-4.475715	413:413	-0.1239297
-4.475715	41:41	-0.1239297
-4.174685	46:46	-0.1061924
-4.475715	48:48	-0.1239297
-4.475715	493:493	-0.1239297
-4.475715	49:49	-0.1239297
-3.361771	4:4	-0.161141
-4.475715	50:50	-0.1239297
-4.475715	51:51	-0.1239297
-3.434322	5:5	-0.2361456
-4.475715	600:600	-0.1262312
-4.475715	63:63	-0.1239297
-4.475715	650:650	-0.1262312
-4.475715	680:680	-0.1263184
-3.776745	6:6	-0.2479132
-3.998594	700:700	-0.1262602
-4.475715	713:713	-0.1256933
-4.475715	721:721	-0.1256933
-4.475715	735:735	-0.1239297
-3.396533	7:7	-0.232607
-4.475715	80:80	-0.1263038
-3.873655	8:8	-0.1979732
-4.475715	996:996	-0.1256933
-3.998594	9:9	-0.123696
-1.297313	</s>
-99	<s>	-0.3267809
-4.475715	fm:fm	-0.1260859
-3.873655	ic:ic	-0.1061163
-3.630617	jr:jr	-0.1357445
-3.873655	km:km	-0.3817629
-4.475715	lostage:lostage	-0.1085745
-4.174685	m:m	-0.1085744
-4.174685	nhk:nhk	-0.1086198
-4.475715	u:u	-0.1258969
-4.475715	uhf:uhf	-0.1261149
-4.475715	verde:verde	-0.1263329
-1.28259	、:、	-0.6533906
-1.319469	。:。	-3.134076
-4.475715	あすか野:アスカノ	-0.1261149
-4.174685	あたり:アタリ	-0.1241487
-4.174685	あたる:アタル	-0.2638608
-2.88465	あっ:アッ	-1.597813
-3.998594	あやめ池:アヤメイケ	-0.125082
-3.044351	あり:アリ	-1.056661
-1.636237	ある:アル	-0.7214533
-3.873655	あるいは:アルイハ	-0.1262457
-4.475715	あわせ:アワセ	-0.1221149
-3.133292	い:イ	-1.46445
-4.475715	いい:イイ	-0.103093
-3.776745	いう:イウ	-0.3076111
-3.998594	いくつ:イクツ	-0.5193831
-4.475715	いこま:イコマ	-0.1085745
-4.174685	いずれ:イズレ	-0.1258533
-4.475715	いっ:イッ	-0.1221149
-2.531232	いる:イル	-0.4886484
-3.873655	いわ:イワ	-0.2829895
-4.475715	いわゆる:イワユル	-0.1263184
-4.475715	う:ウ	-0.120263
-4.475715	うけ:ウケ	-0.103093
-3.572625	うち:ウチ	-0.2165185
-4.475715	おおさか:オオサカ	-0.1262312
-4.174685	おか:オカ	-0.2835001
-4.174685	おく:オク	-0.1262312
-4.475715	おこし:オコシ	-0.103093
-4.174685	おこなう:オコナウ	-0.2850719
-4.475715	おこなわ:オコナワ	-0.1246739
-4.475715	おば:オバ	-0.1263329
-4.475715	おもに:オモニ	-0.1262603
-4.475715	およそ:オヨソ	-0.1263474
-3.220442	および:オヨビ	-0.08220884
-4.475715	おら:オラ	-0.1263184
-3.776745	おり:オリ	-0.2747411
-4.475715	おん:オン	-0.1263184
-4.475715	お茶の水女子大学:オチャノミズジョシダイガク	-0.108635
-3.873655	か:カ	-0.3817629
-4.174685	かかわら:カカワラ	-0.2851445
-4.475715	かけ:カケ	-0.1242801
-3.044351	かつて:カツテ	-0.8982025
-4.475715	かめ:カメ	-0.1259841
-2.382293	から:カラ	-0.2177251
-2.260871	が:ガ	-0.3162222
-4.475715	き:キ	-0.1221149
-4.475715	きた:キタ	-0.1263329
-4.475715	くる:クル	-0.1263474
-4.475715	ぐり:ぐり	-0.1085745
-3.998594	けい:ケイ	-0.5193831
-4.475715	ここ:ココ	-0.1245573
-2.984353	こと:コト	-0.9813144
-4.174685	こどもの国:コドモノクニ	-0.1084836
-3.572625	この:コノ	-0.1565808
-4.174685	これ:コレ	-0.2722156
-4.174685	ご:ゴ	-0.285159
-4.475715	ごく:ゴク	-0.1263184
-4.174685	ごろ:ゴロ	-0.2722156
-4.475715	ご飯:ゴハン	-0.108635
-2.467115	さ:サ	-1.990516
-2.02087	し:シ	-1.577772
-4.475715	しか:シカ	-0.1263474
-4.475715	しげ:シゲ	-0.1263474
-4.475715	しめる:シメル	-0.1261731
-4.475715	しよ:シヨ	-0.1263474
-4.475715	じ:ジ	-0.1221149
-4.475715	じゃんじゃん:ジャンジャン	-0.1263329
-4.174685	すでに:スデニ	-0.1251402
-4.475715	すみよし台:スミヨシダイ	-0.1133895
-2.203873	する:スル	-0.4140271
-4.475715	すゑ:スヱ	-0.1085745
-3.998594	ず:ズ	-0.2022724
-3.998594	せ:セ	-0.2192074
-4.475715	せる:セル	-0.1261731
-4.475715	そう:ソウ	-0.1263474
-4.475715	そごう:ソゴウ	-0.1085745
-3.299623	その:ソノ	-0.1807665
-4.475715	その後:ソノゴ	-0.1133895
-4.174685	それ:ソレ	-0.1199241
-2.011822	た:タ	-0.2312607
-4.174685	たけ:タケ	-0.1261004
-4.475715	たち:タチ	-0.1239735
-3.361771	ため:タメ	-0.3448508
-3.873655	ため池:タメイケ	-0.09425431
-3.396533	だ:ダ	-0.4504582
-3.776745	だっ:ダッ	-1.136077
-3.873655	ちなん:チナン	-0.3758703
-3.475715	つ:ツ	-0.7089288
-4.475715	つく:ツク	-0.1255915
-4.475715	つくら:ツクラ	-0.1246739
-2.320379	て:テ	-0.7781059
-1.778485	で:デ	-0.7827274
-4.475715	できる:デキル	-0.1263184
-1.855579	と:ト	-0.7952513
-3.873655	という:トイウ	-0.1260713
-4.475715	とき:トキ	-0.1133895
-2.984353	として:トシテ	-0.1053874
-4.174685	とともに:トトモニ	-0.1252422
-4.174685	とも:トモ	-0.1263329
-3.196961	な:ナ	-0.1579017
-3.697563	ない:ナイ	-0.1425556
-4.475715	ないし:ナイシ	-0.1263038
-4.475715	なお:ナオ	-0.103093
-4.475715	なかっ:ナカッ	-0.1221149
-4.174685	ながら:ナガラ	-0.1029091
-4.475715	なぎなた:ナギナタ	-0.1263329
-4.475715	なく:ナク	-0.1254314
-4.475715	なす:ナス	-0.1050346
-3.396533	なっ:ナッ	-1.494961
-4.475715	なつ:ナツ	-0.1085745
-3.271595	など:ナド	-0.3456013
-4.174685	なら:ナラ	-0.1263183
-4.475715	なり:ナリ	-0.103093
-3.697563	なる:ナル	-0.07624656
-1.531232	に:ニ	-0.6530961
-4.475715	にあたる:ニアタル	-0.1261731
-3.396533	において:ニオイテ	-0.2366591
-3.361771	における:ニオケル	-0.1383525
-3.133292	にかけて:ニカケテ	-0.1894647
-4.174685	について:ニツイテ	-0.108529
-4.475715	にて:ニテ	-0.1259405
-3.521472	によって:ニヨッテ	-0.1556385
-3.521472	により:ニヨリ	-0.1018612
-3.873655	による:ニヨル	-0.1260423
-4.475715	に対し:ニタイシ	-0.103093
-4.475715	に当たる:ニアタル	-0.1257806
-4.475715	に関し:ニカンシ	-0.103093
-4.475715	に関する:ニカンスル	-0.1263474
-1.397984	の:ノ	-0.2478414
-4.174685	のち:ノチ	-0.2722156
-4.475715	ので:ノデ	-0.103093
-3.873655	のみ:ノミ	-0.0944732
-1.396533	は:ハ	-1.269164
-4.475715	はしる:ハシル	-0.1261731
-3.873655	はじめ:ハジメ	-0.1688019
-3.873655	はん:ハン	-0.3992138
-4.475715	ば:バ	-0.1263474
-4.475715	ひさ:ヒサ	-0.103093
-3.998594	ひとつ:ヒトツ	-0.1965655
-4.475715	ひとみ:ヒトミ	-0.1085745
-4.475715	ふるっ:フルッ	-0.1221149
-4.475715	ふれあい:フレアイ	-0.1259841
-4.475715	ぶり:ブリ	-0.1262021
-2.970565	へ:ヘ	-0.9391622
-3.998594	ほか:ホカ	-0.4961722
-4.475715	ほど:ホド	-0.108635
-4.475715	ほろ:ホロ	-0.1263474
-4.475715	ま:マ	-0.1263474
-4.475715	まず:マズ	-0.1261876
-4.174685	また:マタ	-0.255482
-4.174685	またがっ:マタガッ	-0.2831062
-4.174685	またがる:マタガル	-0.1255915
-3.475715	または:マタハ	-0.1250965
-4.174685	まち:マチ	-0.2674006
-4.475715	まつる:マツル	-0.1254314
-3.028557	まで:マデ	-0.3302087
-3.998594	まとめ:マトメ	-0.5151942
-4.475715	まる:マル	-0.1239297
-4.475715	みささぎ台:ミササギダイ	-0.1085745
-4.475715	みどり湖:ミドリコ	-0.103093
-4.475715	みな:ミナ	-0.1263474
-4.475715	めん:メン	-0.1200126
-2.984353	も:モ	-0.2105346
-4.475715	もうろう:モウロウ	-0.120263
-3.998594	もしくは:モシクハ	-0.09564385
-4.475715	もっとも:モットモ	-0.1263474
-4.475715	もつ:モツ	-0.1262603
-4.475715	もと:モト	-0.1190683
-3.434322	もの:モノ	-0.08355206
-4.475715	ものの:モノノ	-0.103093
-3.196961	や:ヤ	-0.1142736
-4.475715	やま:ヤマ	-0.1261004
-4.475715	やまと:ヤマト	-0.1239297
-4.475715	ゆう:ユウ	-0.1263474
-4.475715	ゆめ:ユメ	-0.1263038
-3.998594	よう:ヨウ	-0.2122999
-3.873655	より:ヨリ	-0.1249654
-4.475715	ら:ラ	-0.1262893
-3.521472	られ:ラレ	-0.5229599
-3.630617	られる:ラレル	-0.232835
-2.411257	れ:レ	-1.683541
-2.931647	れる:レル	-0.1804667
-4.475715	ろう:ロウ	-0.1243676
-4.475715	わけ:ワケ	-0.1190683
-4.174685	わずか:ワズカ	-0.1262602
-1.838225	を:ヲ	-0.5111839
-4.475715	アクセス:アクセス	-0.1263474
-3.998594	アニメ:アニメ	-0.2181893
-3.998594	アマチュア:アマチュア	-0.2254986
-4.475715	アントレ:アントレ	-0.1263474
-4.475715	イシメン:イシメン	-0.1261004
-4.475715	イリグチ:イリグチ	-0.1239735
-4.475715	インド:インド	-0.1133895
-4.475715	ウエディング:ウエディング	-0.1263474
-4.475715	エフエム:エフエム	-0.1261586
-3.998594	エリア:エリア	-0.213018
-4.475715	カトリック:カトリック	-0.1261731
-4.475715	カ月:カゲツ	-0.1263474
-3.998594	ガス:ガス	-0.1258969
-4.475715	ガラス:ガラス	-0.1263038
-4.475715	キトラ:キトラ	-0.1257661
-4.475715	キネマ:キネマ	-0.1085745
-4.475715	キャンパス:キャンパス	-0.1133895
-4.174685	クハボ:クハボ	-0.1263329
-3.396533	コミュニティ:コミュニティ	-1.204889
-4.475715	コンベンション:コンベンション	-0.1262021
-4.475715	サンワシティ:サンワシティ	-0.1263038
-4.174685	ジャンクション:ジャンクション	-0.1009732
-4.475715	ジャンジャン:ジャンジャン	-0.1263329
-4.475715	ストップ:ストップ	-0.1085745
-4.475715	スマイル:スマイル	-0.1259841
-4.475715	ソムリエ:ソムリエ	-0.1263329
-4.475715	ダラシ:ダラシ	-0.120263
-4.475715	ダリ:ダリ	-0.103093
-4.475715	ダル:ダル	-0.1261295
-4.475715	ッ:ッ	-0.1263184
-4.475715	ツ:ツ	-0.1263474
-4.475715	ツキガタプロダクション:ツキガタプロダクション	-0.1085745
-4.475715	テック:テック	-0.1085745
-3.245266	テレビ:テレビ	-0.6595219
-3.873655	テレビジョン:テレビジョン	-0.3992138
-3.776745	デハボ:デハボ	-0.1261876
-3.572625	トンネル:トンネル	-0.143538
-3.998594	ノ:ノ	-0.2255131
-3.475715	バイパス:バイパス	-0.2332246
-3.060741	バス:バス	-0.4322697
-4.475715	バス停:バステイ	-0.1050346
-4.475715	パック:パック	-0.108635
-4.475715	ヒビキ:ヒビキ	-0.1261149
-4.475715	ピアニスト:ピアニスト	-0.1050346
-4.475715	ファッションモデル:ファッションモデル	-0.1050346
-4.475715	フランス:フランス	-0.1262748
-4.475715	フルマラソン:フルマラソン	-0.1263038
-4.174685	プロ:プロ	-0.1238713
-4.174685	プロダクション:プロダクション	-0.2674006
-4.475715	プロテニス:プロテニス	-0.1261731
-4.475715	ベルト:ベルト	-0.1133895
-4.475715	ベンガル:ベンガル	-0.1263329
-4.475715	ホシエヌ:ホシエヌ	-0.1263038
-3.873655	ホテル:ホテル	-0.1912019
-4.475715	ボクシング:ボクシング	-0.1261731
-4.475715	ポンプ:ポンプ	-0.1261731
-4.475715	マラソン:マラソン	-0.1085745
-4.475715	ミノルタ:ミノルタ	-0.1263474
-4.475715	メイン:メイン	-0.1263474
-4.475715	ユネスコ:ユネスコ	-0.108635
-3.572625	ランプ:ランプ	-0.3433065
-4.475715	レストラン:レストラン	-0.1190683
-4.475715	ロックバンド:ロックバンド	-0.1190683
-3.329587	ヶ:ヶ	-0.6947513
-2.944236	一:イチ	-0.3591659
-2.944236	一つ:ヒトツ	-1.604782
-4.174685	一乗院:イチジョウイン	-0.1019576
-3.572625	一帯:イッタイ	-0.6375904
-4.475715	一恵:カズエ	-0.1085745
-4.475715	一方:イッポウ	-0.1261731
-4.475715	一番:イチバン	-0.1263474
-4.475715	一種:イッシュ	-0.1190683
-3.873655	一級:イッキュウ	-0.2848103
-2.368505	一般:イッパン	-1.305049
-2.862931	一覧:イチラン	-0.9051135
-4.475715	一角:イッカク	-0.1133895
-4.475715	一言:ヒトコト	-0.1263474
-4.475715	一貫:イッカン	-0.108635
-4.475715	一身:イッシン	-0.1261876
-4.475715	一連:イチレン	-0.108635
-4.174685	一郎:イチロウ	-0.1022801
-3.998594	一部:イチブ	-0.08980609
-2.984353	丁目:チョウメ	-0.7237324
-4.174685	七:ナナ	-0.1262457
-4.475715	七条:シチジョウ	-0.1262893
-3.873655	万:マン	-0.1262167
-4.475715	万作:マンサク	-0.1085745
-3.998594	万葉:マンヨウ	-0.2252952
-3.873655	丈:タケ	-0.3827017
-3.013317	三:サン	-0.3299102
-3.998594	三ケ谷:ミカタニ	-0.2221302
-4.475715	三十郎:サンジュウロウ	-0.1085745
-4.475715	三夫:ミツオ	-0.1239735
-4.174685	三宅:ミヤケ	-0.1207194
-4.475715	三室山:ミムロヤマ	-0.120263
-4.174685	三山:サンザン	-0.1138232
-4.475715	三島:ミシマ	-0.1207341
-4.174685	三昧田:サンマイデン	-0.117737
-4.475715	三木:ミキ	-0.1263329
-3.697563	三本松:サンボンマツ	-0.1372879
-3.998594	三条:サンジョウ	-0.2254986
-4.475715	三条宮前:サンジョウミヤマエ	-0.1207341
-4.475715	三浦:ミウラ	-0.1263329
-4.174685	三碓:ミツガラス	-0.1202188
-4.475715	三笠山:ミカサヤマ	-0.1133895
-4.475715	三輪:ミワ	-0.1263329
-4.174685	三輪山:ミワヤマ	-0.105553
-3.396533	三郷:ミサト	-0.6699008
-3.196961	三重:ミエ	-1.064836
-3.697563	三野:ミノ	-0.1262166
-3.998594	上:ウエ	-0.1080748
-3.434322	上:ジョウ	-0.3405068
-4.475715	上げ:アゲ	-0.1221149
-3.873655	上三橋:カミミツハシ	-0.1894109
-4.174685	上中:カミナカ	-0.1199536
-4.475715	上代:ジョウダイ	-0.1263184
-3.434322	上北山:カミキタヤマ	-0.8466768
-4.475715	上市:カミイチ	-0.1133895
-4.475715	上樋口:カミヒグチ	-0.1262748
-4.174685	上池原:カミイケハラ	-0.1133745
-4.174685	上流:ジョウリュウ	-0.1079991
-4.475715	上深川:カミフカワ	-0.1207341
-4.475715	上演:ジョウエン	-0.124878
-4.475715	上牧:ウエマキ	-0.1207341
-4.475715	上田:ウエダ	-0.1263474
-4.475715	上町:ウエマチ	-0.1133895
-4.174685	上笠間:カミカサマ	-0.1199241
-4.475715	上質:ジョウシツ	-0.1190683
-3.873655	上野:ウエノ	-0.1251985
-3.697563	下:カ	-0.1813183
-4.174685	下:シタ	-0.1058728
-4.475715	下井足:シモイダニ	-0.1133895
-3.998594	下京:シモギョウ	-0.5187435
-4.475715	下仁興:シモニゴウ	-0.1207341
-4.174685	下北山:シモキタヤマ	-0.2834564
-4.475715	下山:シタヤマ	-0.1207341
-3.434322	下市:シモイチ	-0.3686773
-4.475715	下旬:ゲジュン	-0.1133895
-4.475715	下桑原:シモクワバラ	-0.1234036
-4.174685	下毛:シモゲ	-0.2850864
-4.475715	下永:シモナガ	-0.1200126
-4.475715	下流:カリュウ	-0.1257515
-4.475715	下渕:シタフチ	-0.1258969
-4.174685	下狭川:シモサガワ	-0.1206899
-3.873655	下田:シモダ	-0.1217334
-4.475715	下田東:シモダヒガシ	-0.1200126
-4.174685	下田西:シモダニシ	-0.1255624
-4.475715	下級:カキュウ	-0.1259841
-4.475715	下総:シモウサ	-0.1263474
-4.475715	下荻:シモオギ	-0.1234036
-4.475715	下記:カキ	-0.1133895
-4.475715	不入:フニュウ	-0.1263329
-4.475715	不明:フメイ	-0.1050346
-4.475715	不正:フセイ	-0.1263474
-4.475715	不破:フワ	-0.1263474
-4.475715	不空:フクウ	-0.1260132
-4.475715	与:アズカ	-0.124878
-4.174685	世:セイ	-0.1050194
-4.475715	世:ヨ	-0.1085745
-4.475715	世代:セダイ	-0.1259551
-3.998594	世尊:セソン	-0.2249318
-3.873655	世界:セカイ	-0.1982494
-3.434322	世紀:セイキ	-0.1452256
-4.475715	世襲:セシュウ	-0.1222029
-4.475715	世論:セロン	-0.1239735
-3.475715	丘:オカ	-0.1314199
-3.521472	丘陵:キュウリョウ	-0.09496397
-4.475715	並び立つ:ナラビタツ	-0.1263474
-4.475715	並ぶ:ナラブ	-0.1262893
-3.521472	中:チュウ	-0.1651259
-4.475715	中:ナカ	-0.1190683
-4.475715	中世:チュウセイ	-0.108635
-4.174685	中之:ナカノ	-0.117737
-4.174685	中吉野:ナカヨシノ	-0.1253441
-4.475715	中和:チュウワ	-0.1263184
-3.998594	中国:チュウゴク	-0.2237375
-3.630617	中央:チュウオウ	-0.1610516
-4.174685	中奥:ナカオク	-0.1199831
-4.174685	中学:チュウガク	-0.103047
-2.751439	中学校:チュウガッコウ	-1.040492
-4.475715	中宮:チュウグウ	-0.1257661
-4.475715	中宮:ナカミヤ	-0.1263474
-4.475715	中将:チュウジョウ	-0.1263329
-4.475715	中尾山:ナカオヤマ	-0.1257661
-4.475715	中山:チュウザン	-0.1207341
-4.475715	中山道:ナカセンドウ	-0.1263474
-4.475715	中川:ナカガワ	-0.1261731
-3.361771	中心:チュウシン	-0.6580546
-4.475715	中戸:ナカト	-0.1200126
-4.475715	中旬:チュウジュン	-0.1245573
-3.434322	中期:チュウキ	-0.3356082
-4.475715	中流:チュウリュウ	-0.1263184
-3.998594	中町:ナカマチ	-0.09492621
-4.475715	中石切:ナカイシキリ	-0.1258242
-3.776745	中等:チュウトウ	-1.140208
-4.174685	中筋出作:ナカスジシュツサク	-0.1199683
-3.245266	中継:チュウケイ	-0.8311961
-4.475715	中菜畑:ナカナバタ	-0.1133895
-4.475715	中葉:チュウヨウ	-0.1263474
-3.873655	中西部:チュウセイブ	-0.3638254
-4.174685	中退:チュウタイ	-0.2638608
-4.475715	中郡:ナカグン	-0.103093
-4.174685	中部:チュウブ	-0.2674611
-4.475715	中野:ナカノ	-0.1262167
-4.475715	中高:ナカダカ	-0.1263474
-4.475715	丸子:マルコ	-0.1261004
-4.475715	丸岡:マルオカ	-0.1263329
-4.475715	丹後庄:タンゴノショウ	-0.1207341
-4.174685	丹治:タンジ	-0.1068461
-4.475715	丹生:タンジョウ	-0.1262167
-4.174685	丹生:ニュウ	-0.1075898
-3.521472	主:オモ	-1.061347
-4.475715	主:ヌシ	-0.1085745
-4.475715	主として:シュトシテ	-0.1260859
-3.998594	主催:シュサイ	-0.2034355
-4.475715	主婦:シュフ	-0.1200126
-4.475715	主宰:シュサイ	-0.1050346
-4.475715	主流:シュリュウ	-0.1261149
-4.475715	主神:シュシン	-0.1262748
-3.361771	主要:シュヨウ	-1.239389
-4.174685	丼:ドンブリ	-0.1084836
-4.174685	久度:クド	-0.1019576
-4.475715	久松:ヒサマツ	-0.1257661
-3.630617	久米:クメ	-0.2524142
-4.475715	乙:オツ	-0.1263474
-3.697563	九:キュウ	-0.2791137
-3.776745	乱:ラン	-0.29314
-4.475715	乾:イヌイ	-0.1263474
-4.475715	亀:ヒサシ	-0.108635
-4.174685	亀山:カメヤマ	-0.1159705
-4.475715	予報:ヨホウ	-0.1263329
-4.174685	予定:ヨテイ	-0.1085593
-4.174685	予選:ヨセン	-0.2638608
-4.475715	事:コト	-0.120263
-3.095504	事件:ジケン	-0.5045123
-3.873655	事務:ジム	-0.3828616
-3.434322	事務所:ジムショ	-0.4485532
-4.475715	事情:ジジョウ	-0.1262312
-3.361771	事業:ジギョウ	-0.3023854
-3.153496	二:ニ	-0.2631557
-4.475715	二上:フタカミ	-0.1263329
-4.475715	二上:フタガミ	-0.1241633
-4.174685	二上山:ニジョウザン	-0.1240173
-4.475715	二名:ニミョウ	-0.1207341
-4.475715	二条:ニジョウ	-0.1207341
-4.475715	二階堂:ニカイドウ	-0.1234036
-4.475715	二階堂上ノ庄:ニカイドウカミノショウ	-0.1207341
-4.475715	二階堂北菅田:ニカイドウキタスガタ	-0.1207341
-3.434322	五:ゴ	-0.2323378
-4.174685	五井:ゴイ	-0.117737
-4.174685	五位堂:ゴイドウ	-0.125213
-4.475715	五城目:ゴジョウメ	-0.1207341
-4.475715	五新線:ゴシンセン	-0.1085745
-4.475715	五月:ゴガツ	-0.1262603
-4.475715	五条:ゴジョウ	-0.1241633
-2.803617	五條:ゴジョウ	-0.8584797
-4.475715	五條高等学校賀名生分校:五條高等学校賀名生分校	-0.1085745
-4.475715	五郎:ゴロウ	-0.1085745
-4.174685	井:イ	-0.1257806
-4.475715	井上:イノウエ	-0.1263474
-4.475715	交互:コウゴ	-0.1133895
-4.475715	交差:コウサ	-0.1236375
-2.931647	交差点:コウサテン	-0.7565826
-3.998594	交点:コウテン	-0.2060409
-2.944236	交通:コウツウ	-0.2139283
-4.475715	交通省:コウツウショウ	-0.108635
-4.475715	享:トオル	-0.1085745
-3.998594	京:キョウ	-0.5193976
-3.873655	京:ミヤコ	-0.1621251
-4.475715	京滋:ケイジ	-0.1263184
-4.174685	京終:キョウバテ	-0.1259405
-2.832262	京都:キョウト	-0.8204563
-4.174685	京都大:キョウトダイ	-0.28513
-4.475715	京都産業大学:キョウトサンギョウダイガク	-0.1263474
-4.475715	京阪神:ケイハンシン	-0.1263184
-4.475715	亮:アキラ	-0.1085745
-3.196961	人:ジン	-0.7801374
-3.998594	人:ニン	-0.2053416
-4.475715	人:ヒト	-0.1050346
-4.475715	人々:ヒトビト	-0.1200126
-4.475715	人名:ジンメイ	-0.1257661
-3.153496	人物:ジンブツ	-0.7432367
-4.475715	人馬:ジンバ	-0.108635
-4.475715	仁:ジン	-0.1263474
-4.174685	今井:イマイ	-0.2795602
-4.475715	今国府:イマゴウ	-0.1207341
-4.174685	今日:キョウ	-0.1082111
-4.174685	今木:イマギ	-0.1199978
-4.174685	今村:イマムラ	-0.09664033
-3.998594	今里:イマサト	-0.2194136
-3.776745	仏:フツ	-0.1123857
-4.475715	仏像:ブツゾウ	-0.1263038
-4.475715	仏堂:ブツドウ	-0.1050346
-4.475715	仏寺:ブツジ	-0.1085745
-4.475715	仏師:ブッシ	-0.108635
-3.521472	仏教:ブッキョウ	-0.1970386
-4.475715	仏閣:ブッカク	-0.103093
-4.174685	仕え:ツカエ	-0.2809411
-4.174685	他:タ	-0.2722156
-4.475715	付:ツケ	-0.1263474
-4.475715	付け:ツケ	-0.1242801
-3.998594	付属:フゾク	-0.5152822
-3.396533	付近:フキン	-0.4136735
-3.873655	代:ダイ	-0.1622514
-4.475715	代目:ダイメ	-0.1263184
-4.174685	代表:ダイヒョウ	-0.1235937
-3.697563	令:リョウ	-0.7328519
-4.174685	以上:イジョウ	-0.1061468
-4.475715	以下:イカ	-0.108635
-3.697563	以前:イゼン	-0.3149126
-4.475715	以南:イナン	-0.120263
-4.475715	以外:イガイ	-0.1133895
-4.475715	以来:イライ	-0.0966559
-4.475715	以東:イトウ	-0.1085745
-3.873655	以降:イコウ	-0.1560654
-4.475715	仲秋:チュウシュウ	-0.108635
-4.475715	企て:クワダテ	-0.1221149
-3.572625	企業:キギョウ	-0.5233607
-3.998594	伊:イ	-0.09657812
-4.475715	伊予:イヨ	-0.1257806
-3.998594	伊勢:イセ	-0.225455
-4.475715	伊吉:イキチ	-0.1262748
-4.475715	伊藤:イトウ	-0.1263474
-3.873655	伊賀:イガ	-0.389158
-4.475715	伊那:イナ	-0.1263474
-4.475715	伊都:イト	-0.1222615
-4.475715	伎楽:ギガク	-0.1263329
-4.475715	伏:フク	-0.108635
-4.174685	伏見:フシミ	-0.1077718
-3.095504	会:カイ	-0.2492839
-4.475715	会友:カイユウ	-0.1259115
-3.873655	会員:カイイン	-0.393391
-4.475715	会場:カイジョウ	-0.1085745
-4.475715	会式:エシキ	-0.1085745
-3.271595	会社:カイシャ	-0.6578205
-4.174685	会議:カイギ	-0.2847667
-4.174685	会長:カイチョウ	-0.1026177
-4.475715	会館:カイカン	-0.1245573
-4.475715	伝:デン	-0.1260859
-3.998594	伝え:ツタエ	-0.2233727
-4.475715	伝わっ:ツタワッ	-0.1221149
-3.572625	伝わる:ツタワル	-0.1983511
-4.475715	伝承:デンショウ	-0.1261586
-3.873655	伝来:デンライ	-0.3791528
-4.174685	伝統:デントウ	-0.1261149
-3.873655	伝説:デンセツ	-0.1804644
-4.475715	伝香寺:デンコウジ	-0.1085745
-4.475715	伯:ハク	-0.1262167
-4.475715	伯母:オバ	-0.1263474
-4.475715	伯母峰峠:オバミネトウゲ	-0.1085745
-4.475715	伸びる:ノビル	-0.1262312
-4.174685	伽藍:ガラン	-0.108529
-4.174685	但馬:タジマ	-0.111124
-4.475715	位:イ	-0.108635
-3.329587	位置:イチ	-0.9513665
-4.475715	位階:イカイ	-0.108635
-4.174685	住:ジュウ	-0.125737
-4.475715	住ん:スン	-0.1190683
-4.475715	住吉浜:スミヨシハマ	-0.1245573
-3.998594	住宅:ジュウタク	-0.1200273
-3.998594	住居:ジュウキョ	-0.2254115
-4.174685	住川:スガワ	-0.2795602
-4.475715	住民:ジュウミン	-0.1239735
-4.475715	佐:サ	-0.1246302
-4.475715	佐:タスク	-0.1263474
-4.475715	佐世保:サセボ	-0.11603
-3.998594	佐伯:サエキ	-0.1259405
-4.475715	佐保:サホ	-0.1263184
-4.174685	佐保台:サホダイ	-0.1248051
-4.475715	佐保川:サホガワ	-0.1085745
-4.174685	佐倉:サクラ	-0.1199094
-4.475715	佐名伝:サナテ	-0.1133895
-4.475715	佐味:サミ	-0.1263474
-4.475715	佐紀:サキ	-0.1234036
-4.475715	佐藤薬品工業:サトウヤクヒンコウギョウ	-0.1261004
-4.475715	佐賀:サガ	-0.1062381
-4.475715	体:タイ	-0.1162084
-4.475715	体系:タイケイ	-0.1263184
-4.475715	何れ:イズレ	-0.1259115
-4.475715	余り:アマリ	-0.1190683
-4.475715	作:サク	-0.108635
-3.873655	作ら:ツクラ	-0.3978018
-3.873655	作家:サッカ	-0.1446411
-4.174685	作曲:サッキョク	-0.1216306
-4.174685	併せ:アワセ	-0.2809411
-4.174685	使:シ	-0.1082869
-4.475715	使っ:ツカッ	-0.1221149
-4.475715	使わ:ツカワ	-0.1246739
-3.630617	使用:シヨウ	-0.3042197
-4.475715	例祭:レイサイ	-0.1190683
-4.475715	供給:キョウキュウ	-0.1200126
-4.174685	供養:クヨウ	-0.1190536
-4.475715	依:ヨ	-0.1263184
-4.475715	侯:コウ	-0.1263474
-4.475715	俊作:シュンサク	-0.1085745
-4.475715	俊徳:シュントク	-0.1259987
-4.475715	保っ:タモッ	-0.1221149
-4.174685	保存:ホゾン	-0.1259405
-4.475715	保持:ホジ	-0.1260277
-3.630617	保有:ホユウ	-0.6305763
-3.998594	保育:ホイク	-0.5190198
-4.475715	保育園:ホイクエン	-0.1085745
-4.174685	保護:ホゴ	-0.2788387
-4.475715	保険:ホケン	-0.1263038
-4.475715	保養:ホヨウ	-0.1262021
-4.475715	信:シン	-0.1257224
-3.998594	信仰:シンコウ	-0.1081203
-3.873655	信号:シンゴウ	-0.399301
-4.475715	信濃川:シナノガワ	-0.126144
-4.174685	信用組合:シンヨウクミアイ	-0.1022801
-4.174685	信貴:シギ	-0.1263183
-4.475715	信貴南畑:シギミナミハタ	-0.1200126
-3.521472	信貴山:シギサン	-0.1378254
-4.475715	信貴畑:シギハタ	-0.1133895
-3.873655	修:オサム	-0.3655386
-3.998594	修験:シュゲン	-0.1057205
-4.475715	俳人:ハイジン	-0.1050346
-3.873655	俳優:ハイユウ	-0.3375401
-4.475715	俵口:タワラグチ	-0.1207341
-4.475715	倉:クラ	-0.1260132
-3.998594	停車:テイシャ	-0.5192524
-3.113987	停車場:テイシャジョウ	-1.007937
-4.475715	健児:ケンジ	-0.1085745
-4.475715	傍系:ボウケイ	-0.1241049
-4.475715	傔人:傔人	-0.1050346
-4.174685	備後:ビンゴ	-0.284912
-4.174685	傷害:ショウガイ	-0.1259987
-4.174685	像:ゾウ	-0.1126106
-3.044351	僧:ソウ	-1.033915
-4.475715	僧坊:ソウボウ	-0.1263184
-4.475715	儀式:ギシキ	-0.108635
-4.475715	儀礼:ギレイ	-0.108635
-4.475715	優:ユウ	-0.1263329
-4.475715	優勝:ユウショウ	-0.1262748
-3.220442	元:モト	-0.1388904
-4.475715	元和:ガンワ	-0.1261731
-4.475715	元年:ガンネン	-0.1239735
-4.475715	元服:ゲンプク	-0.120263
-3.873655	元町:モトマチ	-0.3589369
-3.998594	元興寺:ガンコウジ	-0.2124346
-3.998594	元興寺:ガンゴウジ	-0.2075725
-4.475715	兄:アニ	-0.1133895
-4.475715	兄弟:キョウダイ	-0.1085745
-4.174685	先:サキ	-0.1061468
-3.998594	光:ヒカリ	-0.1262602
-4.475715	光枝:ミツエ	-0.1239735
-4.475715	児:ジ	-0.1263184
-4.174685	児童:ジドウ	-0.1239297
-4.174685	入:ニュウ	-0.28513
-4.475715	入る:ハイル	-0.1262021
-4.174685	入之波:シオノハ	-0.1195702
-3.998594	入野:イリノ	-0.1194374
-4.475715	全:ゼン	-0.1062381
-4.475715	全て:スベテ	-0.1200126
-4.475715	全勝:ゼンショウ	-0.1263474
-3.873655	全国:ゼンコク	-0.1972018
-3.998594	全域:ゼンイキ	-0.213018
-4.475715	全日:ゼンジツ	-0.1262603
-4.475715	全部:ゼンブ	-0.1190683
-4.475715	全長:ゼンチョウ	-0.1262893
-4.475715	八:ハチ	-0.1263474
-4.174685	八木:ハチボク	-0.2848539
-3.998594	八木:ヤギ	-0.2177015
-4.475715	八条:ハチジョウ	-0.1241633
-4.475715	八角:ハッカク	-0.1263184
-4.475715	公:オオヤケ	-0.1263329
-4.475715	公会堂:コウカイドウ	-0.1085745
-3.873655	公共:コウキョウ	-0.1253004
-4.475715	公卿:クゲ	-0.1050346
-3.361771	公園:コウエン	-0.3934681
-3.998594	公安:コウアン	-0.519354
-4.475715	公家:クゲ	-0.1263184
-3.873655	公益:コウエキ	-0.3989667
-4.174685	公社:コウシャ	-0.08633228
-2.606483	公立:コウリツ	-1.150031
-4.475715	公選:コウセン	-0.1263329
-3.776745	六:ロク	-0.1258097
-4.174685	六条西:ロクジョウニシ	-0.2722156
-4.475715	六田:ロクデン	-0.1241633
-4.475715	共同通信社:キョウドウツウシンシャ	-0.1261876
-3.475715	共学:キョウガク	-0.571498
-3.271595	兵庫:ヒョウゴ	-0.755249
-4.475715	具:グ	-0.1263184
-4.475715	典:テン	-0.1085745
-4.475715	典子:ノリコ	-0.1085745
-4.475715	典薬:テンヤク	-0.1263184
-4.475715	典雅:テンガ	-0.1190683
-4.475715	兼:ケン	-0.1263474
-4.475715	内:ウチ	-0.1263474
-3.220442	内:ナイ	-1.342543
-4.475715	内乱:ナイラン	-0.1190683
-4.475715	内側:ウチガワ	-0.103093
-4.475715	内務:ナイム	-0.1263329
-4.475715	内務省:ナイムショウ	-0.1263038
-4.475715	内山:ウチヤマ	-0.1263474
-4.174685	内牧:ウチマキ	-0.1199094
-4.475715	内省:ナイセイ	-0.1133895
-3.998594	内膳:ナイゼン	-0.5138134
-4.475715	内藤:ナイトウ	-0.1263474
-4.475715	内親王:ナイシンノウ	-0.1085745
-3.630617	円:エン	-0.1055377
-4.174685	円:マドカ	-0.2850719
-4.475715	円満寺:エンマンジ	-0.1085745
-4.475715	再:サイ	-0.1263184
-3.873655	写真:シャシン	-0.1975804
-4.475715	冨田:トミタ	-0.1133895
-4.475715	冬美:フユミ	-0.103093
-4.174685	准:ジュン	-0.1259405
-4.174685	処理:ショリ	-0.2824637
-4.475715	処遇:ショグウ	-0.1200126
-4.475715	出先:デサキ	-0.1262021
-4.475715	出勤:シュッキン	-0.1222029
-4.475715	出口:デグチ	-0.1234036
-4.174685	出土:シュツド	-0.1194522
-4.174685	出産:シュッサン	-0.1261295
-4.475715	出羽海:デワノウミ	-0.1263184
-2.285383	出身:シュッシン	-1.423856
-4.174685	刀:カタナ	-0.08639598
-4.475715	刀:ガタナ	-0.1085745
-4.475715	刀工:トウコウ	-0.103093
-4.174685	分:フン	-0.1241487
-4.475715	分の:ブンノ	-0.1261586
-4.174685	分校:ブンコウ	-0.2674006
-4.174685	分立:ブンリツ	-0.281029
-4.475715	分霊:ブンレイ	-0.124878
-4.174685	切幡:キリハタ	-0.1103411
-4.475715	刑:ケイ	-0.1200126
-4.475715	刑罰:ケイバツ	-0.108635
-4.475715	列挙:レッキョ	-0.1222029
-4.475715	初:ハツ	-0.108635
-4.174685	初めて:ハジメテ	-0.1263329
-4.475715	初代:ショダイ	-0.0966559
-3.434322	初期:ショキ	-0.5245231
-3.776745	初瀬:ハツセ	-0.08115758
-4.475715	初等:ショトウ	-0.1262457
-4.475715	初級:ショキュウ	-0.1243676
-3.697563	初頭:ショトウ	-0.2462424
-4.475715	判明:ハンメイ	-0.1222029
-4.475715	別:ベツ	-0.1239735
-4.174685	別名:ベツメイ	-0.08056085
-4.475715	別命:ベツメイ	-0.108635
-4.475715	別所:ベッショ	-0.1263474
-4.174685	利:リ	-0.1262167
-3.998594	利用:リヨウ	-0.2198995
-3.630617	制:セイ	-0.2284022
-4.475715	制覇:セイハ	-0.1133895
-4.475715	刷:スリ	-0.1263329
-4.475715	剃る:ソル	-0.103093
-3.697563	前:ゼン	-0.195524
-3.998594	前:マエ	-0.08828674
-3.873655	前半:ゼンハン	-0.3520928
-3.873655	前方後円墳:ゼンポウコウエンフン	-0.3921963
-3.434322	前期:ゼンキ	-0.4268041
-3.998594	前身:ゼンシン	-0.09462945
-4.475715	前述:ゼンジュツ	-0.108635
-4.174685	剛:ツヨシ	-0.2674006
-4.475715	剣:ケン	-0.1085745
-4.174685	剣道:ケンドウ	-0.125766
-4.475715	副:フク	-0.1263474
-4.475715	創始:ソウシ	-0.1222029
-4.475715	創建:ソウケン	-0.108635
-4.475715	創業:ソウギョウ	-0.108635
-4.475715	力:ツトム	-0.1085745
-4.475715	力:リョク	-0.1259115
-3.697563	力士:リキシ	-0.3289647
-4.475715	加え:クワエ	-0.1221149
-4.475715	加守:カモリ	-0.1133895
-4.174685	助:スケ	-0.09511353
-3.998594	助命:ジョメイ	-0.1195259
-4.174685	助教授:ジョキョウジュ	-0.09737067
-4.475715	劫:コウ	-0.1260132
-3.998594	労働:ロウドウ	-0.2247572
-4.475715	労働省:ロウドウショウ	-0.108635
-4.475715	勅:ミコトノリ	-0.1190683
-4.475715	勅旨:チョクシ	-0.1263474
-4.475715	勇:イサミ	-0.1258678
-4.475715	動き:ウゴキ	-0.108635
-4.475715	勘:カン	-0.1258678
-3.998594	務め:ツトメ	-0.2192074
-4.475715	勝元:カツモト	-0.108635
-4.475715	勝賀山:カツガヤマ	-0.1263038
-4.174685	勢:ゼイ	-0.108529
-4.174685	勢井:ゼイ	-0.1199831
-4.174685	勢力:セイリョク	-0.1195554
-4.475715	勢野東:セヤヒガシ	-0.1133895
-4.475715	勤務:キンム	-0.1222029
-3.998594	化:カ	-0.1184919
-4.475715	化粧:ケショウ	-0.1261876
-3.361771	北:キタ	-0.1611262
-4.475715	北九州:キタキュウシュウ	-0.1262457
-4.174685	北側:キタガワ	-0.09009037
-4.475715	北八木:キタヤギ	-0.1261731
-4.475715	北六田:キタムダ	-0.1133895
-4.475715	北口:キタグチ	-0.1241633
-4.475715	北多摩:キタタマ	-0.1222615
-4.475715	北大和:キタヤマト	-0.1252131
-4.475715	北宇智:キタウチ	-0.1260277
-4.475715	北山川:キタヤマガワ	-0.1085745
-4.475715	北岳:キタダケ	-0.103093
-4.475715	北御門:キタミカド	-0.1207341
-3.873655	北東:ホクトウ	-0.3988794
-4.475715	北椿尾:キタツバオ	-0.1207341
-4.475715	北海道大学:ホッカイドウダイガク	-0.1262021
-4.475715	北端:ホクタン	-0.108635
-4.475715	北花内:キタハナウチ	-0.1234036
-2.785519	北葛城:キタカツラギ	-1.69487
-3.630617	北西:ホクセイ	-0.3026938
-4.475715	北辺:ホクヘン	-0.108635
-3.697563	北部:ホクブ	-0.1671974
-4.174685	北野:キタノ	-0.1199831
-4.475715	匠:タクミ	-0.1263329
-2.794473	区:ク	-0.2785928
-3.998594	区分:クブン	-0.2077541
-3.873655	区域:クイキ	-0.37482
-3.998594	区検:クケン	-0.2193842
-4.475715	区画:クカク	-0.1263474
-4.174685	区間:クカン	-0.2674006
-4.475715	医:イ	-0.1259841
-4.174685	医学:イガク	-0.1263183
-4.475715	医学部:イガクブ	-0.1263474
-3.521472	医師:イシ	-0.3986632
-4.475715	医療:イリョウ	-0.108635
-4.475715	医薬品:イヤクヒン	-0.1200126
-3.434322	十:ジュウ	-0.1942603
-4.475715	十市:トイチ	-0.1263184
-4.475715	十文字:ジュウモンジ	-0.1263474
-3.196961	十津川:トツカワ	-0.5497599
-4.475715	十輪院:ジュウリイン	-0.1207341
-4.475715	千:セン	-0.1263038
-4.475715	千光寺:センコウジ	-0.1085745
-4.475715	千手:センジュ	-0.1260132
-4.475715	千曲川:チクマガワ	-0.120263
-4.174685	千股:チマタ	-0.1229354
-4.174685	千葉:チバ	-0.2650642
-4.475715	千賀子:チカコ	-0.1085745
-4.475715	半分:ハンブン	-0.1200126
-4.475715	半坂:ハンサカ	-0.1258242
-4.174685	卒:ソツ	-0.2638608
-3.776745	卒業:ソツギョウ	-0.2654904
-4.475715	協:キョウ	-0.1263474
-3.697563	協会:キョウカイ	-0.1633094
-4.475715	協議:キョウギ	-0.1260132
-3.475715	南:ミナミ	-0.1379009
-4.475715	南下:ナンカ	-0.1222029
-4.475715	南中:ナンチュウ	-0.1243676
-4.174685	南中:ミナミナカ	-0.2795602
-4.475715	南京終:ミナミキョウバテ	-0.1207341
-4.475715	南佐久:ミナミサク	-0.1222615
-3.873655	南北:ナンボク	-0.3865174
-3.572625	南大阪線:ミナミオオサカセン	-0.4919398
-4.475715	南巨摩:ミナミコマ	-0.1222615
-4.475715	南明寺:ナンメイジ	-0.1085745
-4.475715	南朝:ナンチョウ	-0.1133895
-3.998594	南東:ナントウ	-0.5188308
-4.174685	南松浦:ミナミマツウラ	-0.2810877
-4.475715	南河内:ミナミカワチ	-0.1222615
-4.475715	南海:ナンカイ	-0.1263474
-3.776745	南田原:ミナミタバル	-0.1739507
-4.475715	南画:ナンガ	-0.1257951
-4.475715	南畑:ミナミハタ	-0.1261149
-4.475715	南秋田:ミナミアキタ	-0.1222615
-4.475715	南紀:ナンキ	-0.1260859
-4.174685	南花内:ミナミハナウチ	-0.2847231
-3.998594	南西:ナンセイ	-0.5188308
-4.174685	南郡山:ミナミコオリヤマ	-0.2795602
-3.396533	南部:ナンブ	-0.5560959
-3.998594	南都:ナント	-0.09654701
-3.998594	南都七大寺:ナントシチダイジ	-0.1892852
-4.475715	南阿田:ミナミアダ	-0.1207341
-4.475715	単:タン	-0.1263329
-3.776745	単位:タンイ	-0.2405812
-4.475715	博:ハク	-0.1085745
-4.475715	博:ヒロシ	-0.103889
-4.475715	博士:ハカセ	-0.103093
-3.776745	博物館:ハクブツカン	-0.1350414
-4.475715	占める:シメル	-0.1050346
-4.475715	占部:ウラベ	-0.1262167
-4.475715	危険:キケン	-0.1200126
-4.475715	卸:オロシ	-0.1262021
-4.475715	厚化粧:アツゲショウ	-0.1200126
-3.998594	厚生:コウセイ	-0.1257224
-4.475715	原典:ゲンテン	-0.120263
-4.174685	原始:ゲンシ	-0.1261295
-4.174685	原生:ゲンセイ	-0.2851445
-4.475715	厨子:ズシ	-0.1085745
-4.475715	参宮:サングウ	-0.1259987
-4.475715	参議院:サンギイン	-0.1262893
-4.475715	又は:マタハ	-0.1258678
-4.475715	又新:マタシン	-0.1263184
-4.475715	叉:マタ	-0.1262457
-3.434322	及び:オヨビ	-0.1342612
-4.475715	友:トモ	-0.1262748
-4.475715	友理:ユリ	-0.1085745
-4.475715	反乱:ハンラン	-0.1190683
-4.475715	取水:シュスイ	-0.1222029
-3.776745	受け:ウケ	-0.3119003
-4.475715	受ける:ウケル	-0.1239735
-4.475715	叛乱:ハンラン	-0.1050346
-4.475715	叡:アキラ	-0.1085745
-4.475715	口:クチ	-0.1241633
-4.475715	口:グチ	-0.1258533
-4.475715	口大野:クチオオノ	-0.1260277
-3.697563	古:コ	-0.172523
-3.873655	古い:フルイ	-0.1048058
-4.174685	古く:フルク	-0.2674006
-3.697563	古代:コダイ	-0.1690183
-2.862931	古墳:コフン	-0.803424
-4.475715	古市:フルイチ	-0.1207341
-4.174685	古市場:フルイチバ	-0.1068461
-3.998594	古瀬:コセ	-0.1068309
-4.475715	古都:コト	-0.0966559
-4.475715	古銅:コドウ	-0.1263474
-4.475715	可憐:カレン	-0.1260859
-4.475715	可能:カノウ	-0.1263329
-4.174685	台:ダイ	-0.1128354
-4.475715	台ケ原:ダイガハラ	-0.1261731
-3.998594	史:シ	-0.108302
-4.174685	史上:シジョウ	-0.1263329
-4.174685	史家:シカ	-0.2619191
-4.174685	史跡:シセキ	-0.1038125
-3.998594	右:ミギ	-0.2254986
-4.174685	右京:ウキョウ	-0.1250965
-4.475715	右翼:ウヨク	-0.1263184
-2.252998	号:ゴウ	-0.09260668
-4.475715	号し:ゴウシ	-0.103093
-4.174685	司:ツカサ	-0.1022187
-4.475715	司会:シカイ	-0.1085745
-3.776745	各地:カクチ	-0.2981632
-4.174685	合:ゴウ	-0.2849992
-4.475715	合併:ガッペイ	-0.1262312
-4.475715	合成:ゴウセイ	-0.1263474
-3.776745	合流:ゴウリュウ	-0.1740841
-4.475715	合計:ゴウケイ	-0.1263474
-4.174685	吉:ヨシ	-0.1261876
-4.475715	吉備:キビ	-0.1263329
-4.475715	吉備真備:キビノマキビ	-0.108635
-4.475715	吉元:ヨシモト	-0.1263474
-4.174685	吉新:ヨシシン	-0.1068461
-4.475715	吉永:ヨシナガ	-0.1263474
-3.998594	吉田:ヨシダ	-0.2249318
-2.28259	吉野:ヨシノ	-1.025834
-3.630617	吉野山:ヨシノヤマ	-0.235937
-3.776745	吉野川:ヨシノガワ	-0.1128804
-4.174685	吉野神宮:ヨシノジングウ	-0.1238274
-4.475715	吉野線:ヨシノセン	-0.1262893
-3.630617	同:ドウ	-0.1061011
-4.174685	同乗:ドウジョウ	-0.2848539
-3.998594	同名:ドウメイ	-0.5017142
-3.028557	同市:ドウシ	-0.09681445
-3.299623	同村:ドウソン	-0.1589961
-4.475715	同校:ドウコウ	-0.1263184
-3.572625	同町:ドウチョウ	-0.1255478
-3.873655	同盟:ドウメイ	-0.1687396
-3.776745	名:ナ	-0.072432
-3.329587	名:メイ	-0.6647252
-3.873655	名づけ:ナヅケ	-0.3993591
-4.475715	名乗っ:ナノッ	-0.1242801
-4.475715	名刹:メイサツ	-0.103093
-4.475715	名前:ナマエ	-0.1050346
-4.475715	名城大学:メイジョウダイガク	-0.1259551
-4.475715	名声:メイセイ	-0.1200126
-4.475715	名張:ナバリ	-0.11603
-4.475715	名張川:ナバリガワ	-0.1133895
-4.475715	名月:メイゲツ	-0.108635
-4.475715	名目:メイモク	-0.108635
-3.329587	名称:メイショウ	-0.4846365
-3.434322	名誉:メイヨ	-1.167261
-4.475715	名跡:ミョウセキ	-0.1050346
-4.174685	名高い:ナダカイ	-0.08056085
-4.174685	吐山:ハヤマ	-0.117737
-3.998594	向:コウ	-0.2247135
-4.475715	向かい:ムカイ	-0.1263038
-4.475715	君:キミ	-0.1263184
-4.475715	含み:フクミ	-0.103093
-4.475715	含む:フクム	-0.1259987
-4.475715	含め:フクメ	-0.103093
-4.475715	吹奏楽:スイソウガク	-0.1263474
-3.271595	呂:リョ	-1.212662
-4.475715	呉:クレ	-0.11603
-4.475715	周囲:シュウイ	-0.1133895
-4.174685	周年:シュウネン	-0.2788387
-3.475715	周辺:シュウヘン	-0.2154634
-4.475715	周遊:シュウユウ	-0.103093
-4.475715	呰人:呰人	-0.1085745
-4.475715	呰麻:呰麻	-0.1261295
-4.475715	味噌:ミソ	-0.1261295
-3.521472	呼ば:ヨバ	-0.66062
-4.475715	呼び出し:ヨビダシ	-0.1242801
-4.174685	呼び名:ヨビナ	-0.2778945
-4.475715	呼称:コショウ	-0.1050346
-4.174685	命名:メイメイ	-0.2837042
-4.475715	和:カズ	-0.1263474
-4.475715	和:ワ	-0.1262457
-4.475715	和子:カズコ	-0.1085745
-4.475715	和文:ワブン	-0.1263329
-4.475715	和歌:ワカ	-0.108635
-2.895931	和歌山:ワカヤマ	-0.8661404
-4.475715	和正:カズマサ	-0.1085745
-4.475715	和気:ワケ	-0.1263184
-4.475715	和美:カズミ	-0.1085745
-4.475715	和銅:ワドウ	-0.1263184
-4.475715	咲:サキ	-0.1263474
-4.174685	品:ヒン	-0.2638608
-4.475715	品位:ヒンイ	-0.120263
-4.475715	員:イン	-0.1263184
-4.475715	哲:アキラ	-0.1085745
-4.475715	哲学:テツガク	-0.1260277
-4.475715	哲次:テツジ	-0.1085745
-3.776745	唐:トウ	-0.246194
-4.174685	唯一:ユイイツ	-0.1085896
-4.174685	商:ショウ	-0.1049736
-4.174685	商工:ショウコウ	-0.285159
-4.475715	商工会:ショウコウカイ	-0.1262893
-4.174685	商店:ショウテン	-0.285159
-3.776745	商業:ショウギョウ	-0.408897
-3.998594	問題:モンダイ	-0.07970464
-4.475715	善:ゼン	-0.1257661
-4.475715	善弘:ヨシヒロ	-0.1085745
-4.174685	喜:キ	-0.1263038
-4.475715	喜蔵:ヨシゾウ	-0.1260132
-4.475715	営ん:イトナン	-0.1261876
-3.196961	営業:エイギョウ	-1.404651
-4.475715	嗣:嗣	-0.108635
-4.174685	嘉幡:カバタ	-0.2795602
-4.475715	嚆矢:コウシ	-0.120263
-3.521472	四:ヨン	-0.4920467
-4.174685	四天王:シテンノウ	-0.1085593
-3.998594	四条:シジョウ	-0.2169318
-4.475715	四條畷:シジョウナワテ	-0.11603
-4.174685	回:カイ	-0.1262748
-4.475715	回遊:カイユウ	-0.1263474
-4.475715	因ん:チナン	-0.1190683
-4.174685	団体:ダンタイ	-0.1128654
-4.174685	団地:ダンチ	-0.08633228
-4.475715	困窮:コンキュウ	-0.1260277
-4.475715	図:ズ	-0.120263
-4.475715	図る:ハカル	-0.1263474
-3.998594	図像:ズゾウ	-0.2050676
-4.475715	図書:トショ	-0.1263184
-3.630617	図書館:トショカン	-0.2605658
-3.873655	国:クニ	-0.3817629
-3.196961	国:コク	-0.3722268
-4.174685	国内:コクナイ	-0.1085896
-4.475715	国分台:コクブダイ	-0.1262167
-3.998594	国分寺:コクブンジ	-0.08345614
-4.475715	国勝:クニカツ	-0.1263038
-4.475715	国司:コクシ	-0.1239735
-4.174685	国営:コクエイ	-0.1258969
-4.174685	国土:コクド	-0.1258533
-4.174685	国定:コクテイ	-0.2849992
-3.776745	国家:コッカ	-0.3286993
-4.475715	国府:コクフ	-0.1085745
-4.475715	国文学:コクブンガク	-0.1262748
-4.475715	国有:コクユウ	-0.1257806
-3.998594	国東:クニサキ	-0.1101301
-4.475715	国東半島:クニサキハントウ	-0.108635
-4.174685	国栖:クズ	-0.1199978
-3.361771	国立:コクリツ	-0.2370788
-4.475715	国粋:コクスイ	-0.1260132
-2.998594	国道:コクドウ	-0.2767564
-4.475715	国鉄御所駅前通り:コクテツゴセエキマエドオリ	-0.1200126
-4.174685	国際:コクサイ	-0.2840392
-4.475715	囿煎:囿煎	-0.1263474
-4.174685	圏:ケン	-0.1199978
-4.174685	園:エン	-0.1022187
-4.475715	園生:エンセイ	-0.1085745
-4.475715	園芸:エンゲイ	-0.1243676
-4.174685	圓:エン	-0.1263329
-4.475715	土佐:トサ	-0.1252131
-4.174685	土器:ドキ	-0.108302
-4.174685	土地:トチ	-0.1263038
-4.475715	土居:ドイ	-0.1263038
-3.572625	土木:ドボク	-0.9540827
-4.475715	圧倒的:アットウテキ	-0.1260859
-3.396533	在住:ザイジュウ	-0.440955
-4.475715	在日:ザイニチ	-0.1263474
-4.475715	在籍:ザイセキ	-0.1222029
-3.329587	地:チ	-0.1226216
-4.475715	地下:チカ	-0.1257951
-4.475715	地下鉄:チカテツ	-0.1262603
-4.475715	地主:ジヌシ	-0.103093
-3.776745	地区:チク	-0.1267866
-3.245266	地名:チメイ	-0.9249709
-3.077775	地域:チイキ	-0.4366778
-3.873655	地帯:チタイ	-0.3745682
-4.475715	地形:チケイ	-0.1262167
-2.832262	地方:チホウ	-0.4712372
-3.998594	地方裁判所:チホウサイバンショ	-0.08855619
-4.475715	地方銀行:チホウギンコウ	-0.1050346
-4.475715	地点:チテン	-0.1200126
-3.776745	地理:チリ	-0.2479859
-4.475715	地福寺:ジフクジ	-0.1085745
-4.475715	地誌:チシ	-0.1190683
-4.174685	坂:サカ	-0.1202483
-4.475715	坂:ザカ	-0.1241633
-4.475715	坂上:サカガミ	-0.1262893
-4.475715	坂出:サカイデ	-0.11603
-4.174685	坊:ボウ	-0.123389
-4.475715	坪:ツボ	-0.1133895
-4.174685	坪生:ツボウ	-0.1207194
-4.174685	型:ガタ	-0.1263183
-4.475715	城:グスク	-0.1241633
-4.174685	城:ジョウ	-0.1022187
-3.873655	城主:ジョウシュ	-0.09659369
-4.475715	城内:キウチ	-0.1252131
-4.475715	城内:ジョウナイ	-0.1133895
-4.174685	城戸:キド	-0.2722156
-4.475715	城野:ジョウノ	-0.1252131
-3.998594	域:イキ	-0.1121307
-4.475715	執る:トル	-0.1262021
-4.475715	執行:シッコウ	-0.1236375
-4.475715	基:キ	-0.1239735
-4.475715	基:モト	-0.1263474
-4.174685	基づい:モトヅイ	-0.2831062
-4.475715	基づく:モトヅク	-0.1263329
-3.776745	基地:キチ	-0.1473259
-4.475715	基本:キホン	-0.1262893
-4.174685	埼玉:サイタマ	-0.2650642
-4.475715	堀内:ホリウチ	-0.1263474
-4.475715	堂:ドウ	-0.1263474
-4.475715	堤:ツツミ	-0.1262021
-4.174685	堰:セキ	-0.2674006
-3.361771	場:ジョウ	-0.2085011
-4.475715	場所:バショ	-0.1133895
-3.998594	塔:トウ	-0.2252807
-4.174685	塔頭:タッチュウ	-0.1086047
-4.475715	塗ら:ヌラ	-0.1262748
-4.475715	塗り:ヌリ	-0.108635
-3.998594	塚:ツカ	-0.5188453
-4.475715	塞:塞	-0.1050346
-3.697563	塩尻:シオジリ	-1.490978
-4.475715	塩焼:シオヤキ	-0.1262603
-3.299623	境:サカイ	-0.9642667
-4.475715	境内:ケイダイ	-0.1245573
-3.697563	墓:ハカ	-0.1643159
-4.475715	墓地:ボチ	-0.1050346
-4.475715	墓域:ボイキ	-0.1050346
-4.174685	墓誌:ボシ	-0.1009732
-4.475715	増:ゾウ	-0.1133895
-4.174685	墨俣:スノマタ	-0.1201894
-3.998594	墳:フン	-0.5121476
-3.873655	墾田:コンデン	-0.1807822
-4.174685	士:シ	-0.1045615
-4.475715	声優:セイユウ	-0.1085745
-3.998594	壱分:イチブ	-0.1204692
-4.174685	壺阪:ツボサカ	-0.1257515
-4.475715	変える:カエル	-0.1050346
-4.475715	変更:ヘンコウ	-0.1222029
-3.998594	夏:ナツ	-0.1943083
-3.776745	外:ガイ	-1.139946
-4.475715	外交:ガイコウ	-0.1259841
-4.475715	外国:ガイコク	-0.1263329
-4.475715	外科:ゲカ	-0.1259551
-3.873655	多:タ	-0.1260568
-4.174685	多い:オオイ	-0.1046531
-4.174685	多く:オオク	-0.2849992
-4.475715	多武峰:トウノミネ	-0.1085745
-4.174685	多聞:タモン	-0.2848394
-4.475715	多胡:タゴ	-0.1263474
-4.475715	夜:ヨル	-0.1262167
-4.475715	夜行:ヤコウ	-0.1263184
-4.475715	夜道:ヨミチ	-0.1190683
-4.475715	夜須:ヤス	-0.1262603
-3.220442	大:ダイ	-0.1096828
-4.475715	大久保:オオクボ	-0.1207341
-3.873655	大乗:ダイジョウ	-0.3991411
-3.572625	大仏:ダイブツ	-0.09053223
-4.475715	大仏殿:ダイブツデン	-0.1085745
-4.475715	大仲:オオナカ	-0.1263474
-3.776745	大会:タイカイ	-0.17617
-4.475715	大伴:オオトモ	-0.1263329
-4.174685	大保:タイホ	-0.1207194
-4.475715	大僧正:ダイソウジョウ	-0.1259115
-3.998594	大分:オオイタ	-0.4993173
-4.174685	大又:オオマタ	-0.1199241
-4.174685	大台:オオダイ	-0.1259696
-2.907513	大和:ヤマト	-0.1997101
-4.475715	大和小泉:ヤマトコイズミ	-0.1263184
-3.697563	大和川:ヤマトガワ	-1.501092
-2.735352	大和郡山:ヤマトコオリヤマ	-0.8511105
-2.862931	大和高田:ヤマトタカダ	-0.9047398
-4.475715	大坂:オオサカ	-0.1245573
-4.475715	大型:オオガタ	-0.1262893
-4.475715	大垣:オオガキ	-0.11603
-4.475715	大塔:オオトウ	-0.1085745
-3.873655	大塔:ダイトウ	-0.375959
-4.475715	大塚:オオツカ	-0.1263474
-4.475715	大塩:オオシオ	-0.1200126
-3.174685	大字:ダイジ	-0.1096994
-3.776745	大学:ダイガク	-0.1424728
-4.475715	大学院:ダイガクイン	-0.1263329
-3.630617	大宇陀:オオウダ	-0.2383036
-3.998594	大安:タイアン	-0.519354
-4.475715	大安寺:ダイアンジ	-0.1207341
-4.174685	大宮:オオミヤ	-0.125926
-4.174685	大寺:オオテラ	-0.2788387
-4.475715	大将:タイショウ	-0.1085745
-4.475715	大将軍:ダイショウグン	-0.120263
-4.475715	大山:オオヤマ	-0.1263474
-4.475715	大峠:オオトウゲ	-0.1085745
-4.475715	大峰:オオミネ	-0.1263474
-4.174685	大峰山:オオミネサン	-0.2674611
-4.475715	大峰山脈:オオミネサンミャク	-0.108635
-4.475715	大師:ダイシ	-0.1263184
-4.475715	大広:オオヒロ	-0.1207341
-4.174685	大戦:タイセン	-0.1261295
-4.475715	大抵:タイテイ	-0.1085745
-4.475715	大政:タイセイ	-0.1263474
-3.776745	大本山:ダイホンザン	-0.2703837
-4.475715	大東:ダイトウ	-0.11603
-4.475715	大枝:オオエダ	-0.1263474
-4.174685	大柳生:オオヤギュウ	-0.1195849
-4.174685	大橋:オオハシ	-0.1080445
-4.475715	大歳:オオトシ	-0.1260568
-3.153496	大淀:オオヨド	-1.141806
-4.475715	大滝:オオタキ	-0.1234036
-4.475715	大田:オオタ	-0.1263329
-4.475715	大畑:オオハタ	-0.1133895
-3.697563	大相撲:オオズモウ	-0.7152085
-4.475715	大神:オオガミ	-0.1263474
-4.475715	大福:オオフク	-0.1241633
-4.475715	大福:ダイフク	-0.1259405
-4.475715	大臣:ダイジン	-0.1262312
-4.475715	大蔵:オオクラ	-0.1257661
-4.475715	大西:オオニシ	-0.1200126
-4.475715	大覚寺:ダイカクジ	-0.1263474
-4.475715	大谷:オオヤ	-0.1133895
-4.174685	大谷山:オオタニヤマ	-0.1262748
-4.475715	大路:オオジ	-0.1262021
-4.475715	大軽:オオガル	-0.1207341
-4.174685	大輪田:オオワダ	-0.111124
-4.174685	大迫:オオバサマ	-0.1103411
-4.475715	大造:タイゾウ	-0.1263474
-4.475715	大里:オオサト	-0.1222615
-4.174685	大野:オオノ	-0.1199978
-2.669535	大阪:オオサカ	-0.8469632
-4.475715	大阪芸術大学:オオサカゲイジュツダイガク	-0.1263184
-4.475715	大麻:タイマ	-0.1261295
-4.174685	天:テン	-0.1262893
-4.475715	天の川:アマノガワ	-0.125926
-4.174685	天台宗:テンダイシュウ	-0.2674611
-4.475715	天国:テンゴク	-0.1085745
-4.475715	天寿:テンジュ	-0.1260859
-3.697563	天川:アマカワ	-1.499578
-3.873655	天平:テンピョウ	-0.1984529
-3.998594	天文:テンモン	-0.2249027
-4.475715	天武天皇:テンムテンノウ	-0.108635
-2.704863	天理:テンリ	-0.6814251
-3.998594	天理大学:テンリダイガク	-0.1079839
-3.998594	天理教:テンリキョウ	-0.1214544
-3.630617	天皇:テンノウ	-0.0609337
-4.475715	天皇陵:テンノウリョウ	-0.1263474
-4.475715	天神山:テンジンヤマ	-0.1257661
-4.475715	天辻:テンツジ	-0.1262457
-4.475715	天野川:アマノガワ	-0.1085745
-4.475715	天龍:テンリュウ	-0.1239735
-4.475715	太:タイ	-0.1241633
-4.174685	太:フト	-0.285159
-4.174685	太:フトシ	-0.1085442
-4.475715	太夫:タユウ	-0.1085745
-4.475715	太子:タイシ	-0.1207341
-4.475715	太山寺:タイサンジ	-0.1133895
-4.174685	太田:オオタ	-0.1263329
-4.475715	太郎:タロウ	-0.1262457
-4.475715	奇:キ	-0.1263184
-3.998594	奈:奈	-0.2194431
-4.475715	奈備:奈備	-0.1262748
-3.998594	奈和:奈和	-0.5193105
-4.475715	奈止:奈止	-0.1262021
-1.179708	奈良:ナラ	-1.092191
-4.174685	奈良丸:ナラマル	-0.1019576
-3.521472	奈良井:ナライ	-0.113108
-3.776745	奈良井川:ナライガワ	-0.08067381
-4.174685	奈良先端科学技術大学院大学:ナラセンタンカガクギジュツダイガクインダイガク	-0.1262748
-4.174685	奈良公園:ナラコウエン	-0.108302
-3.697563	奈良原:ナラハラ	-0.1124907
-3.271595	奈良大学:ナラダイガク	-0.3534782
-4.475715	奈良大学附属高等学校:ナラダイガクフゾクコウトウガッコウ	-0.1085745
-3.245266	奈良女子大学:ナラジョシダイガク	-0.278769
-4.174685	奈良学園:ナラガクエン	-0.1084382
-4.174685	奈良尾:ナラオ	-0.1189797
-3.998594	奈良屋:ナラヤ	-0.1084231
-4.475715	奈良岡:ナラオカ	-0.1263474
-4.475715	奈良工業高等専門学校:ナラコウギョウコウトウセンモンガッコウ	-0.1085745
-4.475715	奈良放送局:ナラホウソウキョク	-0.1085745
-3.475715	奈良教育大学:ナラキョウイクダイガク	-0.3363408
-4.475715	奈良文化女子短期大学:ナラブンカジョシタンキダイガク	-0.1263474
-4.174685	奈良本:ナラモト	-0.1263329
-4.174685	奈良梨:ナラナシ	-0.1081051
-4.475715	奈良橋:ナラハシ	-0.1246302
-4.475715	奈良津:ナラヅ	-0.1207341
-4.475715	奈良漬:ナラヅケ	-0.1200126
-4.174685	奈良田:ナラダ	-0.1258824
-3.521472	奈良盆地:ナラボンチ	-0.2354578
-3.776745	奈良県立医科大学:ナラケンリツイカダイガク	-0.1517976
-4.475715	奈良県立短期大学:ナラケンリツタンキダイガク	-0.103889
-4.475715	奈良育英高等学校:ナライクエイコウトウガッコウ	-0.1262893
-4.475715	奈良輪:ナラワ	-0.1252276
-4.475715	奈良銀行:ナラギンコウ	-0.1085745
-4.475715	奈良間:ナラマ	-0.1263474
-3.873655	奈良阪:ナラザカ	-0.2794867
-4.475715	奈麻:奈麻	-0.1261295
-4.475715	契機:ケイキ	-0.1259115
-4.475715	奥:オク	-0.1263474
-4.475715	奥中:オクナカ	-0.1263474
-4.475715	奥山:オクヤマ	-0.1200126
-4.475715	奥州:オウシュウ	-0.11603
-4.475715	奨励:ショウレイ	-0.108635
-4.475715	奨学:ショウガク	-0.1260132
-4.174685	女:オンナ	-0.1085593
-3.873655	女優:ジョユウ	-0.1330094
-4.174685	女児:ジョジ	-0.1262893
-3.572625	女子:ジョシ	-0.2380507
-4.475715	女子美術大学:ジョシビジュツダイガク	-0.1263184
-4.475715	女官:ニョカン	-0.1050346
-3.630617	女性:ジョセイ	-0.1230693
-4.475715	女流:ジョリュウ	-0.1262457
-4.475715	女郎:ジョロウ	-0.1085745
-4.475715	如意輪寺:ニョイリンジ	-0.1085745
-4.475715	如来:ニョライ	-0.1200126
-3.873655	妖怪:ヨウカイ	-0.3781626
-4.475715	妙:タエ	-0.1257661
-4.475715	妙:ミョウ	-0.1263329
-4.475715	妙心寺:ミョウシンジ	-0.1261149
-4.475715	妹:イモウト	-0.1085745
-4.475715	始まっ:ハジマッ	-0.1221149
-4.475715	始まる:ハジマル	-0.0966559
-4.475715	始め:ハジメ	-0.103093
-4.174685	姓:セイ	-0.1019576
-3.697563	委員:イイン	-1.500961
-4.475715	委嘱:イショク	-0.1190683
-3.776745	委託:イタク	-0.3250179
-4.475715	姥神:ウバガミ	-0.1262312
-4.174685	姫:ヒメ	-0.1262893
-4.475715	娘:ムスメ	-0.1085745
-4.174685	婆:ババ	-0.1262021
-4.475715	婆さん:バアサン	-0.1085745
-4.475715	嫡流:チャクリュウ	-0.1085745
-3.630617	子:コ	-0.0637121
-4.475715	子守:コモリ	-0.1133895
-4.475715	孔:アナ	-0.1263184
-3.697563	字:ジ	-0.1257369
-2.873655	存在:ソンザイ	-2.318309
-4.475715	孝司:タカシ	-0.1085745
-4.475715	孝明天皇:コウメイテンノウ	-0.120263
-4.475715	季:キ	-0.1263474
-4.475715	季節:キセツ	-0.108635
-3.873655	学:ガク	-0.1260859
-4.475715	学び:マナビ	-0.1263474
-4.475715	学僧:ガクソウ	-0.1239735
-3.998594	学制:ガクセイ	-0.2078146
-3.521472	学園:ガクエン	-0.3376913
-4.174685	学園前:ガクエンマエ	-0.0950511
-2.338994	学校:ガッコウ	-0.8401605
-4.475715	学生:ガクセイ	-0.1263184
-3.572625	学科:ガッカ	-0.1537254
-4.475715	学習院:ガクシュウイン	-0.1259551
-3.475715	学者:ガクシャ	-0.58318
-4.475715	学舎:ガクシャ	-0.1085745
-4.475715	学術:ガクジュツ	-0.1262893
-4.174685	学部:ガクブ	-0.1262748
-4.174685	学長:ガクチョウ	-0.2638608
-4.475715	学院:ガクイン	-0.1085745
-4.475715	孫:マゴ	-0.1263474
-4.174685	孫子:マゴコ	-0.2845922
-3.998594	宅:タク	-0.1239151
-4.174685	宇井:ウイ	-0.1103411
-4.475715	宇多:ウダ	-0.1133895
-4.174685	宇太:宇太	-0.125926
-4.475715	宇治:ウジ	-0.11603
-4.475715	宇治山田:ウジヤマダ	-0.1260859
-4.475715	宇遅:宇遅	-0.1257515
-4.174685	宇都:ウト	-0.285159
-4.475715	宇野:ウノ	-0.1258242
-2.785519	宇陀:ウダ	-0.9134648
-4.174685	宇陀川:ウダガワ	-0.09009037
-4.475715	守:モリ	-0.1085745
-4.174685	安:ヤス	-0.1262021
-4.475715	安全:アンゼン	-0.1262748
-4.475715	安土:アヅチ	-0.1263474
-3.776745	安堵:アンド	-1.134696
-4.475715	安宿:ヤスヤド	-0.1262603
-4.475715	安富:ヤストミ	-0.1263474
-4.475715	安寺:アテラ	-0.1085745
-4.475715	安山岩:アンザンガン	-0.1050346
-4.174685	安岐:アキ	-0.1206899
-3.998594	安曇:アズミ	-0.2254405
-4.475715	安田:ヤスダ	-0.1263474
-4.475715	安藤:アンドウ	-0.1263474
-3.998594	宗:タカシ	-0.1262748
-3.434322	宗:ムネ	-1.131483
-4.475715	宗と:ムネト	-0.1085745
-4.174685	宗像:ムナカタ	-0.2845486
-4.174685	宗川野:ムネガワノ	-0.1103411
-4.174685	宗形:ムナカタ	-0.1263183
-4.475715	宗教:シュウキョウ	-0.1257951
-3.998594	宗派:シュウハ	-0.2075119
-3.060741	官:カン	-0.7419518
-4.174685	官僚:カンリョウ	-0.08056085
-4.475715	官制:カンセイ	-0.1261876
-3.998594	官職:カンショク	-0.2002296
-4.475715	定:テイ	-0.1263184
-4.475715	定め:サダメ	-0.1262312
-4.174685	定時:テイジ	-0.2850864
-4.475715	定着:テイチャク	-0.1222029
-4.475715	宛:アテ	-0.1263474
-4.174685	宝:タカラ	-0.1263329
-4.475715	宝山寺:ホウザンジ	-0.1234036
-4.475715	宝来:タカラギ	-0.1207341
-4.475715	宝来:ホウライ	-0.1262457
-4.174685	宝蔵:ホウゾウ	-0.1259987
-4.475715	実兄:ジッケイ	-0.1263038
-4.475715	実家:ジッカ	-0.1085745
-4.475715	実施:ジッシ	-0.124878
-4.174685	実業:ジツギョウ	-0.2840392
-4.475715	客員:キャクイン	-0.1259551
-3.776745	室:シツ	-0.09918344
-4.475715	室:ムロ	-0.1261004
-3.572625	室生:ムロウ	-0.4848313
-3.998594	室町:ムロマチ	-0.2219985
-3.697563	宮:ミヤ	-0.1365302
-4.475715	宮ノ下:ミヤノシタ	-0.125926
-4.475715	宮中:キュウチュウ	-0.108635
-4.475715	宮山:ミヤヤマ	-0.1257661
-4.475715	宮林:ミヤバヤシ	-0.1263474
-3.998594	宮殿:キュウデン	-0.2040769
-4.174685	宮滝:ミヤタキ	-0.113135
-4.475715	害:ガイ	-0.1263329
-4.475715	家:イエ	-0.1133895
-2.88465	家:カ	-0.7670743
-3.697563	家庭:カテイ	-0.5192087
-4.475715	家政学部:カセイガクブ	-0.1263184
-4.475715	家族:カゾク	-0.1261731
-4.475715	家業:カギョウ	-0.120263
-3.998594	家系:カケイ	-0.09122567
-4.475715	家老:カロウ	-0.1263329
-4.174685	容疑:ヨウギ	-0.1010348
-4.174685	宿:ヤド	-0.1085593
-4.475715	宿場:シュクバ	-0.1050346
-4.475715	宿禰:スクネ	-0.1263329
-4.475715	寄:ヤドリキ	-0.1258242
-4.475715	密告:ミッコク	-0.1262312
-4.475715	富国:フコク	-0.1261731
-4.475715	富士:フジ	-0.1262893
-4.475715	富山:トヤマ	-0.1062381
-4.475715	富本:トミモト	-0.1263474
-4.475715	富田:トミタ	-0.1261876
-4.475715	富貴寺:フウキジ	-0.1085745
-3.873655	富雄:トミオ	-0.1963267
-4.475715	富雄北:トミオキタ	-0.1252276
-4.475715	富雄川:トミオカワ	-0.1133895
-4.475715	富雄川:トミオガワ	-0.1085745
-3.776745	察:サッ	-0.2244774
-4.174685	寧楽:ネイラク	-0.1256206
-4.475715	審:シン	-0.1263474
-4.475715	審査:シンサ	-0.1260132
-3.998594	寮:リョウ	-0.1905937
-2.862931	寺:テラ	-0.4738807
-3.697563	寺僧:ジソウ	-1.479983
-4.475715	寺前:テラマエ	-0.1263329
-4.475715	寺南:テラミナミ	-0.1263329
-4.475715	寺口:テラグチ	-0.1263474
-4.475715	寺山:テラヤマ	-0.1257661
-4.475715	寺川:テラガワ	-0.1261876
-4.475715	寺東:テラヒガシ	-0.1258533
-4.174685	寺社:ジシャ	-0.1262893
-4.174685	寺跡:テラアト	-0.1022187
-2.624456	寺院:ジイン	-1.044155
-4.475715	対抗:タイコウ	-0.1262603
-4.475715	対比:タイヒ	-0.1236375
-3.998594	対象:タイショウ	-0.1006498
-4.475715	寿:コトブキ	-0.1260132
-3.630617	専修:センシュウ	-0.632741
-4.174685	専用:センヨウ	-0.1259405
-3.776745	専門:センモン	-0.2921627
-3.776745	将軍:ショウグン	-0.2042301
-4.475715	尊:ミコト	-0.1239735
-4.475715	尋:ヒロ	-0.1263474
-4.475715	導入:ドウニュウ	-0.108635
-3.475715	小:ショウ	-0.2048941
-3.998594	小倉:コクラ	-0.2169318
-4.475715	小僧:コゾウ	-0.1085745
-4.475715	小南:コミナミ	-0.1258242
-4.475715	小原:オハラ	-0.108635
-4.475715	小売:コウリ	-0.1200126
-4.475715	小学:ショウガク	-0.1085745
-2.58362	小学校:ショウガッコウ	-1.303393
-4.475715	小学生:ショウガクセイ	-0.1263474
-4.475715	小山:コヤマ	-0.1200126
-4.174685	小島:コジマ	-0.1207194
-3.697563	小川:オガワ	-0.1512413
-4.475715	小惑星:ショウワクセイ	-0.108635
-4.475715	小村:コムラ	-0.1262893
-4.475715	小林:コバヤシ	-0.1085745
-3.998594	小橡:コトチ	-0.5130918
-4.475715	小殿:オドノ	-0.1234036
-3.873655	小泉:コイズミ	-0.375486
-4.475715	小瀬:コセ	-0.1207341
-4.475715	小百合:サユリ	-0.1239735
-4.475715	小県:チイサガタ	-0.1222615
-4.475715	小綱:コヅナ	-0.1207341
-3.998594	小説:ショウセツ	-0.5188744
-4.475715	小野:オノ	-0.1262167
-4.174685	小野田:オノダ	-0.1159407
-4.475715	小野田線支線:オノダセンシセン	-0.108635
-3.998594	小阪:コサカ	-0.1233158
-4.475715	小麦:コムギ	-0.1263474
-4.475715	少年:ショウネン	-0.1261731
-4.475715	尚紀:ナオキ	-0.1085745
-4.174685	尺土:シャクド	-0.111124
-4.475715	尼:アマ	-0.1261586
-4.174685	尼寺:アマデラ	-0.2638608
-4.475715	尼辻北:アマガツジキタ	-0.1207341
-4.475715	尾:オ	-0.1260277
-4.174685	尾張:オワリ	-0.2851009
-4.475715	尾鷲:オワセ	-0.11603
-2.970565	局:キョク	-0.6107879
-4.475715	局長:キョクチョウ	-0.1190683
-4.475715	居住:キョジュウ	-0.1222029
-4.475715	居館:キョカン	-0.1261149
-4.475715	屈曲:クッキョク	-0.1222029
-4.174685	屋:ヤ	-0.08430499
-4.174685	屋敷:ヤシキ	-0.08633228
-4.174685	展示:テンジ	-0.1259114
-4.475715	展開:テンカイ	-0.1222029
-4.174685	属し:ゾクシ	-0.2831062
-4.475715	属す:ゾクス	-0.0966559
-3.873655	属する:ゾクスル	-0.1046226
-4.475715	屯:タムロ	-0.1263474
-3.776745	山:サン	-0.1172776
-3.697563	山:ヤマ	-0.09626102
-4.475715	山あい:ヤマアイ	-0.1133895
-3.998594	山上:サンジョウ	-0.1128954
-4.475715	山上ヶ岳:サンジョウガダケ	-0.1259551
-4.174685	山下:ヤマシタ	-0.1241487
-3.873655	山口:ヤマグチ	-0.1540105
-3.776745	山地:サンチ	-0.1158697
-4.174685	山城:ヤマシロ	-0.2674611
-3.998594	山寺:ヤマデラ	-0.2074665
-4.475715	山岳:サンガク	-0.1200126
-4.475715	山梨:ヤマナシ	-0.1062381
-3.361771	山添:ヤマゾイ	-0.937456
-3.998594	山田:ヤマダ	-0.1069676
-4.475715	山脈:サンミャク	-0.1050346
-4.475715	山腹:サンプク	-0.1261586
-3.271595	山辺:ヤマベ	-1.24118
-4.475715	山間:サンカン	-0.103093
-3.697563	山陵:サンリョウ	-0.2737117
-4.475715	山陽:サンヨウ	-0.1263329
-4.174685	山麓:サンロク	-0.2722156
-4.475715	岐神:岐神	-0.1262748
-3.998594	岐阜:ギフ	-0.1810288
-4.174685	岡:オカ	-0.09009037
-4.475715	岡寺:オカデラ	-0.1241633
-4.174685	岡山:オカヤマ	-0.2650642
-4.475715	岡崎:オカザキ	-0.11603
-4.174685	岩:イワ	-0.1085593
-4.475715	岩壺:イワツボ	-0.1258969
-4.174685	岩屋:イワヤ	-0.1199683
-4.475715	岩崎工業:イワサキコウギョウ	-0.1261004
-4.475715	岩手:イワテ	-0.1062381
-4.475715	岩船:イワフネ	-0.1085745
-2.907513	峠:トウゲ	-1.109531
-4.475715	峰:ホウ	-0.1262457
-4.475715	峰:ミネ	-0.1241633
-4.475715	島内:トウナイ	-0.1190683
-4.475715	島根:シマネ	-0.1062381
-4.475715	崎:サキ	-0.1263474
-4.475715	崖:ガケ	-0.1085745
-4.475715	嶋:シマ	-0.0966559
-3.475715	川:ガワ	-0.3313927
-3.396533	川上:カワカミ	-0.705689
-4.475715	川井:カワイ	-0.1263329
-4.475715	川原:カワラ	-0.1200126
-4.475715	川口:カワグチ	-0.1263329
-3.998594	川合:カワイ	-0.1037513
-3.998594	川西:カワニシ	-0.5138134
-4.475715	州:シュウ	-0.1263329
-4.475715	巣:ス	-0.1263474
-4.475715	巣山:スヤマ	-0.1257661
-3.998594	工:コウ	-0.2252516
-4.475715	工事:コウジ	-0.1262893
-4.475715	工場:コウジョウ	-0.1050346
-4.475715	工学:コウガク	-0.1263474
-3.873655	工業:コウギョウ	-0.3819301
-3.873655	工芸:コウゲイ	-0.1978714
-4.475715	工藤:クドウ	-0.1263474
-3.998594	左京:サキョウ	-0.1117854
-3.998594	左衛門:サエモン	-0.184331
-3.873655	巨勢:コセ	-0.1978714
-4.475715	巨大:キョダイ	-0.1260859
-4.475715	差別:サベツ	-0.1262457
-4.475715	巻:カン	-0.1085745
-1.628759	市:シ	-0.3160449
-3.873655	市内:シナイ	-0.1046684
-4.475715	市原:イチハラ	-0.11603
-4.174685	市営:シエイ	-0.1262893
-4.475715	市域:シイキ	-0.1200126
-4.174685	市尾:イチノオ	-0.111124
-4.174685	市山:イチヤマ	-0.2795602
-4.174685	市川:イチカワ	-0.2851445
-4.475715	市役所:シヤクショ	-0.1085745
-4.475715	市田:イチダ	-0.1207341
-4.475715	市町:シチョウ	-0.1133895
-4.475715	市町村:シチョウソン	-0.1200126
-2.704863	市立:シリツ	-0.1452475
-4.174685	市街:シガイ	-0.09786721
-3.998594	市街地:シガイチ	-0.21906
-4.174685	市道:シドウ	-0.1190092
-4.475715	市長:シチョウ	-0.1050346
-4.475715	布教:フキョウ	-0.1050346
-4.475715	布施:フセ	-0.1241633
-4.475715	希:マレ	-0.1263474
-3.998594	帝塚山:テヅカヤマ	-0.2242913
-4.475715	帝塚山南:テヅカヤマミナミ	-0.1260568
-4.475715	帝塚山大学:テヅカヤマダイガク	-0.1263329
-4.475715	帝塚山西:テヅカヤマニシ	-0.1260568
-4.475715	師:シ	-0.1190683
-3.521472	師範:シハン	-0.9980057
-4.475715	帯:タイ	-0.1262021
-4.475715	帰宅:キタク	-0.1263474
-4.475715	常:ツネ	-0.1263329
-4.475715	常任:ジョウニン	-0.1263474
-4.174685	常陸:ヒタチ	-0.284912
-4.475715	幕府:バクフ	-0.1263474
-4.475715	幢寺:幢寺	-0.1085745
-4.174685	平:タイラ	-0.1085593
-4.475715	平たい:ヒラタイ	-0.1263474
-4.174685	平原:ヘイゲン	-0.1193193
-3.475715	平城:ヒラジロ	-0.2252103
-3.630617	平城京:ヘイジョウキョウ	-0.2384539
-4.475715	平城東:ヒラジョウヒガシ	-0.1255915
-4.174685	平城西:ヒラジョウニシ	-0.1244552
-3.245266	平安:ヘイアン	-1.251729
-4.475715	平尾:ヒラオ	-0.1133895
-3.998594	平田:ヒラタ	-0.2095359
-4.174685	平畑:ヒラハタ	-0.2851155
-4.475715	平端:ヒラハタ	-0.1260277
-4.475715	平等:ビョウドウ	-0.1257661
-4.475715	平等寺:ビョウドウジ	-0.108635
-3.271595	平群:ヘグリ	-0.8452244
-2.812957	年:ネン	-0.424454
-3.776745	年代:ネンダイ	-0.2171724
-4.174685	年度:ネンド	-0.08939512
-4.174685	年生:ネンセイ	-0.1085593
-3.998594	年間:ネンカン	-0.5064687
-4.475715	幸夫:ユキオ	-0.1085745
-4.475715	幸徳:コウトク	-0.1263329
-4.475715	幸男:ユキオ	-0.1085745
-4.475715	幹事:カンジ	-0.1050346
-4.475715	幹彦:ミキヒコ	-0.1085745
-3.998594	幹線:カンセン	-0.1076505
-4.475715	幹部:カンブ	-0.1263474
-4.475715	幹部候補生学校:カンブコウホセイガッコウ	-0.1239735
-4.475715	幼少:ヨウショウ	-0.1228183
-3.361771	幼稚園:ヨウチエン	-0.2857756
-3.998594	庁:チョウ	-0.07839285
-3.998594	広:ヒロ	-0.1263183
-3.630617	広がる:ヒロガル	-0.1444571
-3.873655	広域:コウイキ	-0.1262312
-4.475715	広多賀谷:ヒロタガヤ	-0.1133895
-3.998594	広島:ヒロシマ	-0.4993173
-4.475715	広目:ヒロメ	-0.1085745
-3.133292	広陵:コウリョウ	-0.7970193
-4.475715	庄吾:ショウゴ	-0.1085745
-4.475715	店:テン	-0.1085745
-3.998594	店舗:テンポ	-0.09005879
-4.475715	庚申:コウシン	-0.1263184
-2.656171	府:フ	-0.4135865
-4.475715	府内:フナイ	-0.1261876
-4.475715	府民:フミン	-0.120263
-4.174685	府県:フケン	-0.1261585
-4.475715	府県境:フケンキョウ	-0.1133895
-4.475715	府県警:フケンケイ	-0.1262893
-4.174685	府警:フケイ	-0.2851155
-4.475715	度:ド	-0.1259115
-4.475715	度々:タビタビ	-0.1263474
-3.998594	庭園:テイエン	-0.1855271
-4.475715	庵:アン	-0.103093
-4.475715	庶流:庶流	-0.1241049
-4.475715	康善:ヤスヨシ	-0.1085745
-4.174685	廃園:ハイエン	-0.1127755
-3.697563	廃校:ハイコウ	-0.512738
-4.475715	廃立:ハイリツ	-0.1200126
-4.475715	延:ノベ	-0.1263474
-4.475715	延々と:エンエント	-0.1263474
-4.475715	延べ:ノベ	-0.1222029
-4.174685	延長:エンチョウ	-0.2851155
-4.475715	建つ:タツ	-0.1260713
-4.174685	建て:タテ	-0.2850573
-4.475715	建て替え:タテカエ	-0.1262312
-4.475715	建物:タテモノ	-0.1050346
-3.998594	建立:コンリュウ	-0.2062839
-3.873655	建築:ケンチク	-0.1253878
-3.776745	建設:ケンセツ	-0.1772018
-3.776745	建造:ケンゾウ	-1.140222
-3.998594	弁:ベン	-0.1200715
-4.174685	弁護士:ベンゴシ	-0.2619191
-4.475715	式:シキ	-0.1263184
-4.174685	弓:ユミ	-0.1257515
-4.475715	弓削:ユゲ	-0.1263329
-4.475715	弓場:ユバ	-0.1263474
-4.475715	引牛:引牛	-0.1258242
-4.475715	引田:ヒキタ	-0.1263329
-4.475715	引眉:ヒキマユ	-0.120263
-4.475715	引継:ヒキツギ	-0.1262893
-4.475715	弘仁寺:コウジンジ	-0.1085745
-4.475715	弘和:ヒロカズ	-0.1239735
-4.475715	弥:ワタル	-0.1263474
-3.998594	弥生:ヤヨイ	-0.5158976
-4.475715	弾圧:ダンアツ	-0.124878
-4.475715	彌:イヤ	-0.1260568
-4.475715	当:トウ	-0.1085745
-4.475715	当主:トウシュ	-0.108635
-4.174685	当初:トウショ	-0.2674006
-4.174685	当地:トウチ	-0.1263038
-4.475715	当時:トウジ	-0.108635
-4.475715	当麻:トウマ	-0.1262167
-3.998594	当麻寺:タイマデラ	-0.1080597
-3.521472	形:カタチ	-0.4347417
-4.475715	形:ガタ	-0.1085745
-3.521472	形式:ケイシキ	-1.051613
-4.475715	形態:ケイタイ	-0.1200126
-4.475715	形成:ケイセイ	-0.103093
-4.475715	彦:彦	-0.1085745
-4.475715	彫刻:チョウコク	-0.1257951
-4.475715	影響:エイキョウ	-0.1239735
-4.475715	役員:ヤクイン	-0.1050346
-4.475715	往復:オウフク	-0.1261731
-3.630617	律:リツ	-0.6345755
-3.697563	律令制:リツリョウセイ	-0.217879
-4.475715	後:コウ	-0.0966559
-3.630617	後:ゴ	-0.253056
-4.475715	後:ノチ	-0.103093
-3.998594	後半:コウハン	-0.2077844
-4.475715	後援:コウエン	-0.1236375
-3.776745	後期:コウキ	-0.2981632
-4.475715	後遺症:コウイショウ	-0.1259115
-4.174685	徒歩:トホ	-0.1261585
-4.475715	従:従	-0.1085745
-4.475715	得:エ	-0.1221149
-3.998594	御:ゴ	-0.1263183
-4.174685	御園:ミソ	-0.1199683
-4.174685	御室:オムロ	-0.2849411
-4.475715	御嶽:ミタケ	-0.1263329
-4.475715	御廟:ゴビョウ	-0.1262603
-3.475715	御所:ゴショ	-0.2280263
-3.028557	御所:ゴセ	-1.452066
-4.174685	御所線:ゴセセン	-0.2674006
-3.998594	御杖:ミツエ	-0.205965
-4.475715	御門:ミカド	-0.1257661
-4.475715	復元:フクゲン	-0.1222029
-4.475715	復帰:フッキ	-0.1222029
-4.174685	徳:トク	-0.1263183
-4.475715	徳島:トクシマ	-0.1062381
-4.475715	徳政:トクセイ	-0.1263329
-4.475715	徹:テッ	-0.1050346
-4.475715	必要:ヒツヨウ	-0.120263
-4.475715	忌:イミ	-0.1257515
-4.475715	忌部:イムベ	-0.1263038
-3.998594	忍海:オシミ	-0.2103188
-3.998594	志:ココロザシ	-0.1085442
-4.475715	志摩スペイン村:シマスペインムラ	-0.1190683
-4.475715	志賀:シガ	-0.1263474
-4.475715	志都美:シヅミ	-0.1252276
-4.475715	志麻:シマ	-0.1261295
-4.475715	応える:コタエル	-0.1262312
-4.475715	応仁:オウニン	-0.108635
-4.475715	念仏:ネンブツ	-0.1257661
-3.998594	念仏宗:ネンブツシュウ	-0.5017142
-3.998594	思わ:オモワ	-0.2250336
-4.475715	怡土:怡土	-0.1263329
-4.174685	性:セイ	-0.1239589
-4.475715	怪火:カイカ	-0.1050346
-4.475715	恋の窪:コイノクボ	-0.1260423
-4.475715	恒美:ツネミ	-0.1085745
-4.475715	息子:ムスコ	-0.1200126
-3.998594	情報:ジョウホウ	-0.1261149
-4.475715	惇夫:アツオ	-0.1085745
-4.475715	惜しま:オシマ	-0.1246739
-4.475715	想定:ソウテイ	-0.124878
-4.475715	意味:イミ	-0.1236375
-4.475715	意識:イシキ	-0.1239735
-4.475715	愛:アイ	-0.1085745
-3.697563	愛媛:エヒメ	-0.7121564
-3.998594	愛知:アイチ	-0.4993173
-3.998594	愛称:アイショウ	-0.1965655
-4.174685	感得:カントク	-0.281029
-4.475715	愷:愷	-0.1085745
-4.475715	慈光:慈光	-0.1260132
-3.697563	慈恩寺:ジオンジ	-0.1528726
-4.475715	慶:ケイ	-0.1085745
-4.475715	慶寺:ケイジ	-0.1085745
-4.475715	憲吉:ケンキチ	-0.1262457
-3.998594	成:シゲル	-0.1892852
-4.475715	成:ナル	-0.1085745
-4.475715	成人:セイジン	-0.1200126
-4.475715	成果:セイカ	-0.1262312
-3.998594	成立:セイリツ	-0.2213097
-4.475715	我:ワガ	-0.1262021
-4.475715	戒:戒	-0.1085745
-4.475715	戒重:カイジュウ	-0.1133895
-4.475715	戒長:戒長	-0.1257661
-4.475715	戦い:タタカイ	-0.1085745
-3.998594	戦前:センゼン	-0.09492621
-4.475715	戦績:センセキ	-0.1263329
-4.475715	戦闘:セントウ	-0.1190683
-3.998594	戸毛:トウゲ	-0.1067398
-4.475715	房:ボウ	-0.1263474
-3.013317	所:ショ	-0.7132978
-2.970565	所在:ショザイ	-1.305555
-3.998594	所在地:ショザイチ	-0.2001681
-3.396533	所属:ショゾク	-0.2794093
-3.776745	所管:ショカン	-1.122597
-3.998594	所蔵:ショゾウ	-0.2225838
-4.475715	所轄:ショカツ	-0.108635
-3.998594	所長:ショチョウ	-0.1797557
-4.174685	手:テ	-0.1263329
-4.475715	手越:テゴシ	-0.1234036
-4.174685	才谷:サイタニ	-0.1199094
-4.475715	技:ワザ	-0.1260859
-4.475715	技士:ギシ	-0.108635
-4.475715	技師:ギシ	-0.1262021
-4.475715	技能:ギノウ	-0.1262748
-4.174685	技術:ギジュツ	-0.1179888
-4.475715	投げ:ナゲ	-0.1263474
-4.475715	抜く:ヌク	-0.1259115
-4.475715	抜け:ヌケ	-0.1242801
-3.776745	担当:タントウ	-1.136165
-4.475715	拓実:タクジツ	-0.103093
-4.475715	招聘:ショウヘイ	-0.124878
-3.776745	拠点:キョテン	-0.1512196
-4.475715	拡幅:カクフク	-0.1261731
-4.475715	拡張:カクチョウ	-0.108635
-4.174685	拾生:ヒロウ	-0.09511353
-4.475715	持:ジ	-0.1263184
-4.475715	持た:モタ	-0.1262748
-4.475715	持ち帰る:モチカエル	-0.1262748
-4.475715	持っ:モッ	-0.1221149
-4.475715	持つ:モツ	-0.1050346
-4.475715	持明院:ジミョウイン	-0.1263474
-4.475715	指し:サシ	-0.103093
-4.475715	指し示す:サシシメス	-0.1263474
-3.153496	指す:サス	-0.5904868
-3.521472	指定:シテイ	-0.1891133
-4.475715	指導:シドウ	-0.1260277
-4.475715	指揮:シキ	-0.1200126
-4.475715	指摘:シテキ	-0.124878
-4.475715	按察:按察	-0.1263329
-4.475715	挙行:キョコウ	-0.124878
-4.475715	挫傷:ザショウ	-0.120263
-4.475715	捜査:ソウサ	-0.108635
-4.475715	捻出:ネンシュツ	-0.1236375
-4.475715	採取:サイシュ	-0.124878
-4.475715	採用:サイヨウ	-0.1222029
-4.174685	接し:セッシ	-0.2831062
-4.475715	接続:セツゾク	-0.1236375
-4.174685	推定:スイテイ	-0.2837042
-4.475715	推測:スイソク	-0.124878
-4.475715	掲げ:カカゲ	-0.1221149
-4.475715	掲載:ケイサイ	-0.1222029
-4.475715	揚水:ヨウスイ	-0.1222029
-4.475715	握っ:ニギッ	-0.1221149
-4.475715	揺るぎなく:ユルギナク	-0.1263474
-4.475715	摂社:セッシャ	-0.1263329
-4.174685	撮影:サツエイ	-0.1195849
-4.475715	撰:セン	-0.120263
-3.697563	支分:支分	-1.501208
-4.174685	支局:シキョク	-0.09009037
-4.475715	支店:シテン	-0.1200126
-4.475715	支払:シハライ	-0.1263474
-4.475715	支持:シジ	-0.1200126
-3.776745	支援:シエン	-1.13833
-3.521472	支流:シリュウ	-0.3574416
-4.174685	支社:シシャ	-0.2674611
-4.475715	支給:シキュウ	-0.124878
-3.697563	支部:シブ	-0.2059498
-4.475715	改名:カイメイ	-0.1222029
-4.475715	改善:カイゼン	-0.1200126
-4.475715	改造:カイゾウ	-0.1222029
-4.475715	改革:カイカク	-0.1263184
-4.174685	放火:ホウカ	-0.1248488
-3.196961	放送:ホウソウ	-0.2532944
-4.475715	政務:セイム	-0.1200126
-4.475715	政変:セイヘン	-0.1190683
-4.174685	政府:セイフ	-0.123696
-4.475715	政彦:マサヒコ	-0.1085745
-4.475715	政権:セイケン	-0.1200126
-3.998594	政治:セイジ	-0.2249318
-4.475715	政策:セイサク	-0.1050346
-4.475715	故:コ	-0.103093
-4.174685	救急:キュウキュウ	-0.1263038
-4.475715	救済:キュウサイ	-0.1263474
-4.174685	教:キョウ	-0.2674006
-4.475715	教団:キョウダン	-0.1262312
-4.475715	教師:キョウシ	-0.1050346
-3.028557	教授:キョウジュ	-1.132342
-4.475715	教派:キョウハ	-0.1263329
-4.475715	教科書:キョウカショ	-0.1261004
-3.998594	教習所:キョウシュウジョ	-0.07832797
-3.572625	教育:キョウイク	-0.5691749
-4.475715	教諭:キョウユ	-0.1239735
-4.475715	教養:キョウヨウ	-0.1257515
-4.475715	散楽:サルガク	-0.108635
-4.475715	数:カズ	-0.1162084
-4.174685	整備:セイビ	-0.1224814
-4.475715	整理:セイリ	-0.1261731
-4.475715	敷地:シキチ	-0.1261004
-4.475715	敷設:フセツ	-0.1200126
-4.475715	文:ブン	-0.1263038
-4.475715	文京:ブンキョウ	-0.1256642
-4.174685	文化:ブンカ	-0.1263038
-3.245266	文化財:ブンカザイ	-0.2659094
-3.776745	文学:ブンガク	-0.1825136
-3.630617	文学部:ブンガクブ	-0.2095151
-4.475715	文庫:ブンコ	-0.1085745
-4.475715	文明:ブンメイ	-0.1263184
-4.174685	文昭:フミアキ	-0.1084382
-4.475715	文芸:ブンゲイ	-0.1263329
-4.475715	斉:ヒトシ	-0.1263474
-3.572625	斑鳩:イカル	-0.2313038
-3.095504	斑鳩:イカルガ	-1.392312
-3.697563	料理:リョウリ	-0.177539
-4.475715	斜面:シャメン	-0.1133895
-3.873655	新:シン	-0.1246739
-4.475715	新しい:アタラシイ	-0.11603
-3.572625	新宮:シングウ	-0.3183605
-4.174685	新庄:シンジョウ	-0.1185067
-4.475715	新庄線:シンジョウセン	-0.1085745
-4.475715	新紺屋:シンコンヤ	-0.1207341
-4.174685	新聞:シンブン	-0.1084836
-4.174685	新設:シンセツ	-0.2837042
-4.174685	方言:ホウゲン	-0.1010348
-4.475715	方面:ホウメン	-0.1133895
-3.434322	施設:シセツ	-0.4635439
-3.998594	旅館:リョカン	-0.4981139
-4.475715	旋頭歌:セドウカ	-0.1085745
-3.329587	日:ニチ	-0.5359993
-4.475715	日:ヒ	-0.1133895
-4.475715	日下部:クサカベ	-0.1263474
-4.475715	日吉:ヒヨシ	-0.1261876
-4.475715	日展:ニッテン	-0.1263474
-4.174685	日日:ヒニチ	-0.285159
-2.594901	日本:ニッポン	-0.641237
-4.475715	日本人:ニッポンジン	-0.1260568
-4.475715	日本女子大学:ニホンジョシダイガク	-0.108635
-4.475715	日本書紀:ニホンショキ	-0.1085745
-4.475715	日本棋院:ニホンキイン	-0.1261876
-3.998594	日本語:ニホンゴ	-0.09456694
-4.475715	日程:ニッテイ	-0.108635
-4.174685	日笠:ヒカサ	-0.1207194
-3.873655	日置:ヒオキ	-0.1259405
-4.475715	日置川:ヒキガワ	-0.108635
-4.475715	日航:ニッコウ	-0.0966559
-3.697563	日蓮:ニチレン	-1.501223
-3.873655	日記:ニッキ	-0.08630045
-4.475715	日高:ヒダカ	-0.1260859
-3.630617	旧:キュウ	-0.09534758
-4.174685	旧制:キュウセイ	-0.1261731
-4.475715	旧名:キュウメイ	-0.1085745
-4.475715	旧居:キュウキョ	-0.1085745
-4.475715	早世:ソウセイ	-0.1222029
-3.998594	早川:ハヤカワ	-0.2137499
-4.475715	旭ヶ丘:アサヒガオカ	-0.1252276
-4.475715	昇:ノボリ	-0.1257661
-3.060741	明日香:アスカ	-0.9346027
-4.174685	明治:メイジ	-0.2850283
-4.475715	明治天皇:メイジテンノウ	-0.1133895
-4.475715	明治維新:メイジイシン	-0.1262603
-4.475715	明神:ミョウジン	-0.108635
-4.475715	映:ウツ	-0.1263474
-4.475715	映像:エイゾウ	-0.1263038
-3.361771	映画:エイガ	-0.3550794
-4.475715	春:ハル	-0.1133895
-3.998594	春日:カスガ	-0.1262893
-4.475715	春日:シュンジツ	-0.1262167
-3.776745	春日大社:カスガタイシャ	-0.1632131
-3.776745	春日山:カスガヤマ	-0.1258097
-3.998594	春日野:カスガノ	-0.2019045
-4.174685	昭和:ショウワ	-0.1205722
-3.873655	時:ジ	-0.09273479
-4.475715	時:トキ	-0.1262603
-4.475715	時に:トキニ	-0.1260859
-2.090108	時代:ジダイ	-0.9943305
-4.475715	時期:ジキ	-0.1133895
-4.475715	普:ヒロシ	-0.1263474
-4.475715	景:ケイ	-0.1263474
-4.475715	景明:カゲアキ	-0.103093
-3.572625	智:サトシ	-0.6588334
-4.174685	智光:トモミツ	-0.1238274
-4.475715	智子:サトコ	-0.1085745
-4.475715	智雄:トモオ	-0.1085745
-3.998594	暗:クラ	-0.2249608
-4.475715	暗い:クライ	-0.1263474
-4.475715	暴動:ボウドウ	-0.1260132
-4.174685	暴行:ボウコウ	-0.1259841
-4.475715	曲:キョク	-0.1050346
-4.475715	曲芸:キョクゲイ	-0.1133895
-4.475715	更に:サラニ	-0.1261004
-3.873655	書:ショ	-0.07823063
-4.475715	書き:カキ	-0.1263474
-4.174685	書物:ショモツ	-0.08639598
-3.998594	曹洞宗:ソウトウシュウ	-0.5017142
-3.475715	曼荼羅:マンダラ	-0.5362314
-4.475715	曽我川:ソガガワ	-0.1085745
-3.697563	曽爾:ソニ	-0.2772474
-4.174685	最:サイ	-0.1261876
-4.174685	最も:モットモ	-0.1260423
-4.475715	最上:サイジョウ	-0.1263184
-4.475715	最初:サイショ	-0.1190683
-4.475715	最古:サイコ	-0.108635
-3.998594	最大:サイダイ	-0.2076482
-4.475715	最高:サイコウ	-0.108635
-4.475715	會:會	-0.1085745
-3.299623	月:ツキ	-0.1277611
-3.873655	月ヶ瀬:ツキガセ	-0.1245864
-4.475715	月瀬:ツキセ	-0.1263184
-4.475715	有し:ユウシ	-0.1242801
-4.475715	有償:ユウショウ	-0.1259841
-3.998594	有力:ユウリョク	-0.2179529
-3.776745	有名:ユウメイ	-0.2891752
-4.475715	有子:ユウコ	-0.1050346
-4.174685	有数:ユウスウ	-0.2674611
-3.873655	有料:ユウリョウ	-0.3990975
-4.475715	有本:アリモト	-0.1263474
-4.475715	有里:アリサト	-0.1207341
-4.174685	朗:ロウ	-0.2674006
-3.998594	朝:アサ	-0.2077844
-4.475715	朝:チョウ	-0.1261004
-4.475715	朝倉:アサクラ	-0.1241633
-3.776745	朝廷:チョウテイ	-0.2987306
-4.475715	朝日山:アサヒヤマ	-0.1263184
-4.174685	朝鮮:チョウセン	-0.124353
-4.475715	朝鮮半島:チョウセンハントウ	-0.1245573
-4.475715	朝鮮学園:チョウセンガクエン	-0.1239735
-3.697563	期:キ	-0.1935742
-4.475715	期間:キカン	-0.108635
-4.475715	木:キ	-0.1234036
-4.475715	木戸:キド	-0.1200126
-4.475715	木曽:キソ	-0.108635
-3.776745	木津:コッツ	-0.2301342
-4.174685	木津川:キヅガワ	-0.2748562
-4.475715	木祖:キソ	-0.1246302
-4.475715	未来:ミライ	-0.1252131
-4.475715	未遂:ミスイ	-0.1133895
-4.475715	末:マツ	-0.1263474
-3.776745	末期:マッキ	-0.3031901
-4.475715	末社:マッシャ	-0.1190683
-3.697563	本:ホン	-0.1717369
-4.475715	本因坊:ホンインボウ	-0.1263474
-4.174685	本堂:ホンドウ	-0.1086047
-4.475715	本家:ホンケ	-0.1263329
-4.475715	本尊:ホンゾン	-0.1259115
-4.475715	本山:ホンザン	-0.1190683
-4.475715	本山:モトヤマ	-0.1241633
-4.174685	本庁:ホンチョウ	-0.2674611
-4.475715	本店:ホンテン	-0.1200126
-4.475715	本拠:ホンキョ	-0.1200126
-3.998594	本流:ホンリュウ	-0.1965655
-3.998594	本町:ホンチョウ	-0.1176778
-4.174685	本町:ホンマチ	-0.1082414
-3.329587	本社:ホンシャ	-1.266096
-4.174685	本線:ホンセン	-0.1084988
-3.521472	本部:ホンブ	-0.3093313
-3.873655	本願寺:ホンガンジ	-0.3992429
-3.998594	朱雀:スザク	-0.1240027
-3.873655	杉:スギ	-0.06683816
-4.475715	杉浦:スギウラ	-0.1263474
-4.475715	材木:ザイモク	-0.1263329
-2.400168	村:ムラ	-0.1970164
-4.475715	村営:ソンエイ	-0.1259841
-3.873655	村国:ムラクニ	-0.1983802
-4.475715	村岡:ムラオカ	-0.1133895
-4.475715	村立:ソンリツ	-0.1262748
-4.475715	村越:ムラコシ	-0.1133895
-4.475715	条:ジョウ	-0.1252131
-3.998594	条例:ジョウレイ	-0.1185807
-4.475715	杣ノ川:ソマノカワ	-0.1207341
-4.174685	杣之内:ソマノウチ	-0.1201304
-4.475715	来迎:ライゴウ	-0.1263474
-4.174685	東:アズマ	-0.2851009
-3.521472	東:ヒガシ	-0.2217219
-4.475715	東の川:ヒガシノカワ	-0.1262748
-4.174685	東中:ヒガシナカ	-0.2831938
-3.521472	東京:トウキョウ	-0.5541728
-4.475715	東京大学:トウキョウダイガク	-0.1262021
-4.475715	東京文理科大:トウキョウブンリカダイ	-0.1263038
-4.475715	東佐味:ヒガシサビ	-0.1200126
-4.475715	東側:ヒガシガワ	-0.1262457
-4.475715	東儀:トウキ	-0.1257951
-3.873655	東北:トウホク	-0.3820904
-4.475715	東南:トウナン	-0.1260132
-4.475715	東口:ヒガシグチ	-0.1263184
-3.630617	東吉野:ヒガシヨシノ	-0.8713228
-4.475715	東向中:ヒガシムキナカ	-0.1207341
-4.475715	東国:トウゴク	-0.108635
-4.475715	東坊城:ヒガシボウジョウ	-0.1207341
-3.998594	東大:トウダイ	-0.225455
-4.174685	東大和:ヒガシヤマト	-0.1130002
-3.630617	東大寺:トウダイジ	-0.1155634
-3.776745	東大阪:ヒガシオオサカ	-0.318797
-4.174685	東奈良:ヒガシナラ	-0.12498
-4.475715	東室:ヒガシムロ	-0.1262457
-4.475715	東川:ヒガシガワ	-0.1259987
-4.475715	東成:ヒガシナリ	-0.1256642
-4.475715	東方:トウホウ	-0.1133895
-4.475715	東明寺:トウミョウジ	-0.1085745
-4.174685	東村山:ヒガシムラヤマ	-0.1160002
-4.475715	東洋:トウヨウ	-0.1262748
-4.475715	東海:トウカイ	-0.1263474
-4.475715	東海旅客鉄道:トウカイリョカクテツドウ	-0.1262603
-4.174685	東生駒:ヒガシイコマ	-0.1262893
-4.475715	東紀寺:ヒガシキデラ	-0.1207341
-4.475715	東花園:ヒガシハナゾノ	-0.1241633
-4.174685	東西:トウザイ	-0.2722156
-4.174685	東部:トウブ	-0.1133745
-4.475715	東金:ヒガシカナ	-0.1263329
-4.174685	杵築:キヅキ	-0.1160002
-3.998594	松:マツ	-0.1085139
-4.475715	松下:マツシタ	-0.1263474
-4.475715	松原:マツバラ	-0.11603
-4.174685	松塚:マツヅカ	-0.111124
-4.174685	松尾寺:マツオジ	-0.1103411
-4.475715	松尾山:マツオヤマ	-0.1085745
-4.475715	松山:マツヤマ	-0.1085745
-3.998594	松本:マツモト	-0.1159259
-4.174685	松阪:マツサカ	-0.2748562
-4.475715	板:イタ	-0.1263474
-3.998594	林:リン	-0.06074923
-3.998594	林業:リンギョウ	-0.1022187
-4.475715	林野庁:リンヤチョウ	-0.108635
-4.475715	枚方:ヒラカタ	-0.11603
-4.174685	果無山脈:ハテナシサンミャク	-0.09009037
-4.475715	枝:エダ	-0.1133895
-4.475715	架かっ:カカッ	-0.1242801
-3.873655	架かる:カカル	-0.3827162
-3.873655	柏原:カシワバラ	-0.1718088
-4.475715	染織:センショク	-0.1263038
-3.998594	柔道:ジュウドウ	-0.2249318
-4.475715	柱:ハシラ	-0.1260568
-3.697563	柳本:ヤナギモト	-0.3421047
-4.475715	柳沢:ヤナギサワ	-0.1263474
-3.697563	柳生:ヤギュウ	-0.1483294
-4.475715	柿本:カキノモト	-0.1133895
-4.475715	栃原:トチハラ	-0.1261149
-4.475715	栃木:トチギ	-0.1062381
-4.174685	栄:サカエ	-0.1060859
-4.475715	栄え:サカエ	-0.1221149
-4.475715	栗山:クリヤマ	-0.1257951
-3.697563	校:コウ	-0.1850809
-4.174685	校長:コウチョウ	-0.2619191
-4.475715	栢森:カヤノモリ	-0.1200126
-3.220442	株式会社:カブシキガイシャ	-0.5796211
-4.475715	根拠地:コンキョチ	-0.120263
-4.475715	根本:コンポン	-0.1262167
-4.475715	格:カク	-0.1190683
-4.174685	桂:カツラ	-0.1263183
-4.475715	桃山:モモヤマ	-0.1228183
-4.174685	案件:アンケン	-0.2788387
-4.475715	桐朋学園大学:トウホウガクエンダイガク	-0.1259551
-4.475715	桑名:クワナ	-0.11603
-4.174685	桜:サクラ	-0.2846504
-2.794473	桜井:サクライ	-0.8015051
-3.998594	桜井線:サクライセン	-0.207739
-4.475715	桧:ヒノキ	-0.1234036
-4.475715	梅山:ウメヤマ	-0.1257661
-4.475715	梅林:バイリン	-0.1234036
-4.475715	梓:アズサ	-0.1263329
-4.174685	梓川:アズサガワ	-0.1138232
-4.475715	森:モリ	-0.1258242
-4.475715	森林:シンリン	-0.1263184
-4.174685	森田:モリタ	-0.1263183
-4.475715	植田:ウエダ	-0.1263329
-4.475715	検:ケン	-0.1263038
-4.174685	検定:ケンテイ	-0.09862646
-4.475715	検察:ケンサツ	-0.1263474
-4.475715	検察庁:ケンサツチョウ	-0.1085745
-4.475715	検査:ケンサ	-0.1263474
-4.475715	検討:ケントウ	-0.1236375
-4.475715	検車:ケンシャ	-0.1256642
-3.873655	椿井:ツバイ	-0.1058576
-4.174685	楊貴:楊貴	-0.2851009
-4.475715	楢:ナラ	-0.1263329
-4.174685	楢川:ナラカワ	-0.2834564
-4.475715	業:ゴウ	-0.1200126
-4.475715	業務:ギョウム	-0.1263474
-4.475715	業平橋:ナリヒラバシ	-0.1085745
-4.475715	楯:タテ	-0.1085745
-4.475715	極めて:キワメテ	-0.1263329
-4.174685	極楽寺:ゴクラクジ	-0.1190536
-3.873655	楽:ラク	-0.1189945
-4.475715	楽園:ラクエン	-0.1261731
-4.475715	楽堂:ガクドウ	-0.1085745
-4.475715	楽曲:ガッキョク	-0.1050346
-4.475715	榊:サカキ	-0.108635
-3.521472	榛原:ハイバラ	-0.4887615
-4.475715	榮:サカエ	-0.1263474
-4.475715	槇島:マキジマ	-0.1207341
-4.475715	構え:カマエ	-0.1221149
-4.475715	構内:コウナイ	-0.1133895
-4.475715	槍:ヤリ	-0.1200126
-4.174685	槍術:ソウジュツ	-0.1128654
-4.475715	様:サマ	-0.1239735
-4.475715	様々:サマザマ	-0.1260859
-4.475715	標高:ヒョウコウ	-0.1263474
-4.475715	権:ケン	-0.1260277
-4.475715	権勢:ケンセイ	-0.1200126
-4.475715	権威:ケンイ	-0.1200126
-4.475715	横:ヨコ	-0.1263474
-4.475715	横大路:ヨコオオジ	-0.120263
-4.475715	横山:ヨコヤマ	-0.1263474
-4.475715	横川:ヨコガワ	-0.1263329
-4.475715	横断:オウダン	-0.1222029
-4.475715	横河原線:ヨコガワラセン	-0.108635
-3.521472	横浜:ヨコハマ	-0.903096
-3.873655	横田:ヨコタ	-0.3747163
-4.475715	樹脂:ジュシ	-0.1263038
-4.475715	樺太:カラフト	-0.1261876
-4.475715	樽沢:タルサワ	-0.1133895
-3.630617	橋:キョウ	-0.1054107
-3.998594	橋:ハシ	-0.1965655
-4.475715	橋梁:キョウリョウ	-0.1085745
-4.475715	橘:タチバナ	-0.1257661
-3.998594	橘奈良麻呂:タチバナノナラマロ	-0.2053416
-4.475715	橘諸兄:タチバナノモロエ	-0.108635
-4.475715	機:キ	-0.1133895
-4.475715	機構:キコウ	-0.1239735
-4.475715	機能:キノウ	-0.1263474
-3.776745	機関:キカン	-0.1160895
-2.727527	橿原:カシハラ	-0.943503
-3.998594	橿原神宮:カシハラジングウ	-0.1263183
-4.475715	橿原線:カシハラセン	-0.1085745
-4.475715	檜垣本:ヒガイモト	-0.1133895
-4.174685	櫛羅:クジラ	-0.1199831
-3.998594	櫟本:イチノモト	-0.2195904
-3.998594	次:ジ	-0.5193831
-4.475715	次男:ジナン	-0.103093
-4.174685	歌:ウタ	-0.1198062
-4.475715	歌っ:ウタッ	-0.1242801
-4.475715	歌わ:ウタワ	-0.1246739
-3.572625	歌人:カジン	-0.9329152
-4.475715	歌唱:カショウ	-0.1222029
-4.475715	歌手:カシュ	-0.1050346
-4.475715	歌謡:カヨウ	-0.1050346
-3.998594	正:セイ	-0.1085442
-4.174685	正:タダシ	-0.1263038
-3.697563	正宗:マサムネ	-1.483583
-4.475715	正室:セイシツ	-0.103093
-4.475715	正式:セイシキ	-0.1261586
-4.475715	正暦寺:ショウレキジ	-0.1085745
-4.475715	正覚寺:ショウカクジ	-0.1085745
-4.475715	正親町:オオギマチ	-0.1262603
-4.475715	武吉:タケヨシ	-0.1085745
-4.475715	武官:ブカン	-0.1050346
-4.475715	武家:ブケ	-0.1263329
-4.475715	武道:ブドウ	-0.1257951
-4.174685	歯科:シカ	-0.2850573
-4.475715	歳:サイ	-0.108635
-4.475715	歳:トシ	-0.1085745
-4.475715	歴代:レキダイ	-0.1263329
-4.475715	歴任:レキニン	-0.1222029
-3.396533	歴史:レキシ	-0.11907
-3.998594	死亡:シボウ	-0.218647
-4.475715	残さ:ノコサ	-0.1246739
-4.475715	残っ:ノコッ	-0.1242801
-4.475715	残り:ノコリ	-0.1085745
-4.475715	残留:ザンリュウ	-0.1263474
-3.998594	段:ダン	-0.2041989
-4.174685	殺人:サツジン	-0.2848394
-4.174685	殺害:サツガイ	-0.2848394
-4.475715	殺陣師:タテシ	-0.1050346
-4.475715	殿:トノ	-0.1207341
-3.998594	殿:ドノ	-0.1070739
-4.475715	毅:アツシ	-0.1085745
-3.998594	母:ハハ	-0.07832797
-4.475715	母体:ボタイ	-0.120263
-3.873655	毎年:マイトシ	-0.1259696
-4.475715	毎週:マイシュウ	-0.1263474
-3.998594	比:ヒ	-0.2076785
-4.475715	比企:ヒキ	-0.1222615
-3.998594	比曽:ヒソ	-0.2060409
-4.174685	毛原:ケバラ	-0.1199831
-3.697563	氏:シ	-0.1788671
-4.475715	氏族:シゾク	-0.1261731
-4.475715	民:ミン	-0.1258678
-4.475715	民主党:ミンシュトウ	-0.0966559
-3.776745	民俗:ミンゾク	-0.182659
-4.475715	民家:ミンカ	-0.1259115
-4.475715	民放:ミンポウ	-0.1262021
-4.475715	民衆:ミンシュウ	-0.108635
-4.475715	気:キ	-0.1263038
-4.475715	気象:キショウ	-0.1263474
-3.998594	水:ミズ	-0.1260132
-4.475715	水分:スイブン	-0.1260568
-4.475715	水川:ミズカワ	-0.1133895
-4.475715	水平:スイヘイ	-0.1262748
-3.299623	水系:スイケイ	-1.141962
-4.475715	水道:スイドウ	-0.1133895
-4.174685	水銀:スイギン	-0.285159
-4.475715	水間:ミズマ	-0.1258242
-4.475715	水間:ミマ	-0.1207341
-4.174685	氷上:ヒカミ	-0.1261731
-4.475715	永久:エイキュウ	-0.1257661
-4.174685	永年:エイネン	-0.285159
-4.475715	汎称:ハンショウ	-0.1190683
-4.475715	江刺:エサシ	-0.1262748
-3.697563	江戸:エド	-0.7116075
-4.174685	池:イケ	-0.1262312
-4.174685	池:チ	-0.1022801
-4.475715	池之内:イケノウチ	-0.1200126
-4.475715	池原:イケハラ	-0.1262603
-4.475715	池泉:イケイズミ	-0.1263474
-3.998594	池田:イケダ	-0.1132697
-4.475715	池谷:イケガヤ	-0.1263474
-4.475715	池郷川:イケゴウガワ	-0.1133895
-4.475715	汲む:クム	-0.120263
-4.475715	沓掛:クツカケ	-0.1207341
-3.998594	河内:カワウチ	-0.1260132
-3.998594	河内:カワチ	-0.2252371
-4.174685	河内永和:カワチエイワ	-0.2829895
-4.174685	河原屋:カワラヤ	-0.1229354
-3.077775	河合:カワイ	-0.5455027
-4.475715	河崎:カワサキ	-0.1263474
-3.434322	河川:カセン	-1.138763
-4.475715	油:アブラ	-0.1200126
-4.475715	油阪:アブラサカ	-0.1241633
-4.475715	治:チ	-0.1263474
-4.475715	治世:チセイ	-0.1133895
-3.630617	沿い:ゾイ	-0.6217629
-4.475715	泉:イズミ	-0.1261586
-3.396533	法:ホウ	-0.1130047
-2.919412	法人:ホウジン	-0.4600167
-4.174685	法令:ホウレイ	-0.2778945
-4.475715	法会:ホウエ	-0.1190683
-4.475715	法務省:ホウムショウ	-0.1239735
-4.174685	法学:ホウガク	-0.1259551
-4.475715	法学部:ホウガクブ	-0.1263329
-4.475715	法楽寺:ホウラクジ	-0.1085745
-3.998594	法相:ホウショウ	-0.5192814
-4.475715	法華:ホッケ	-0.1207341
-4.174685	法華寺:ホッケジ	-0.1027097
-3.998594	法蓮:ホウレン	-0.2019045
-4.475715	法起寺:ホウキジ	-0.108635
-4.174685	法輪寺:ホウリンジ	-0.2674006
-3.361771	法隆寺:ホウリュウジ	-0.1801329
-4.475715	法隆寺南:ホウリュウジミナミ	-0.1200126
-4.475715	法雲寺:ホウウンジ	-0.1085745
-4.174685	注ぐ:ソソグ	-0.28513
-4.475715	注連:シメ	-0.1200126
-3.998594	洞:ホラ	-0.1067094
-3.873655	洞川:ドロガワ	-0.1062229
-3.873655	活動:カツドウ	-0.1874038
-4.475715	活用:カツヨウ	-0.1222029
-3.697563	活躍:カツヤク	-1.497151
-3.245266	派:ハ	-1.332468
-3.697563	流:リュウ	-0.1234091
-4.475715	流し:ナガシ	-0.1242801
-3.873655	流れ:ナガレ	-0.09537879
-3.299623	流れる:ナガレル	-0.274145
-3.998594	流域:リュウイキ	-0.1004648
-4.475715	流派:リュウハ	-0.108635
-4.475715	流行:リュウコウ	-0.1222029
-4.174685	浄:キヨシ	-0.1260568
-3.998594	浄土:ジョウド	-0.2249899
-4.475715	浄土変相:ジョウドヘンゾウ	-0.1263474
-3.572625	浄土宗:ジョウドシュウ	-0.5104692
-3.873655	浄土真宗:ジョウドシンシュウ	-0.3994318
-4.475715	浜:ハマ	-0.1263184
-4.475715	浪:ナミ	-0.1263474
-4.174685	浪曲:ロウキョク	-0.1086198
-4.475715	浮世絵:ウキヨエ	-0.1263474
-4.475715	浮孔:ウキアナ	-0.1241633
-3.998594	海:ウミ	-0.09503549
-4.475715	海水浴:カイスイヨク	-0.1261731
-4.475715	海田:カイタ	-0.1263474
-4.475715	消滅:ショウメツ	-0.1222029
-3.873655	消防:ショウボウ	-0.1979587
-4.475715	涼子:リョウコ	-0.1085745
-4.174685	淀川:ヨドガワ	-0.1131649
-4.475715	深津:フカヅ	-0.1085745
-4.475715	淵:フチ	-0.1245573
-4.475715	混合:コンゴウ	-0.120263
-4.475715	混雑:コンザツ	-0.1263038
-4.475715	清:キヨシ	-0.1085745
-4.475715	清彦:キヨヒコ	-0.1085745
-4.475715	清水:シミズ	-0.1263474
-3.998594	清水谷:シミズタニ	-0.2162053
-4.475715	清治:キヨジ	-0.1085745
-4.174685	清海:キヨミ	-0.1238274
-4.475715	清美:キヨミ	-0.1257515
-4.475715	済:スミ	-0.1133895
-4.475715	渡来:トライ	-0.1259696
-3.873655	温:ユタカ	-0.389158
-2.998594	温泉:オンセン	-1.004015
-4.475715	湖南:コナミ	-0.1257224
-4.475715	湧出:ユウシュツ	-0.1236375
-3.873655	湯:ユ	-0.1079233
-4.475715	湾:ワン	-0.1133895
-4.475715	満額:マンガク	-0.1263474
-4.475715	源:ミナモト	-0.1200126
-4.174685	源流:ゲンリュウ	-0.2790892
-4.475715	滅ぼし:ホロボシ	-0.1242801
-4.475715	滅亡:メツボウ	-0.1200126
-3.271595	滋賀:シガ	-1.14375
-4.475715	滞在:タイザイ	-0.1263329
-4.475715	演歌:エンカ	-0.1263474
-4.475715	漢字:カンジ	-0.1263474
-4.475715	漢音:カンオン	-0.1200126
-4.475715	漬物:ツケモノ	-0.1260859
-4.475715	潔:キヨシ	-0.1085745
-4.475715	澤山:サワヤマ	-0.1263184
-4.475715	濠:ホリ	-0.1263184
-4.475715	瀬:セ	-0.103093
-4.174685	火:ヒ	-0.1084231
-3.998594	災害:サイガイ	-0.225426
-4.475715	炊き込み:タキコミ	-0.1263474
-4.475715	点在:テンザイ	-0.1236375
-4.475715	烏:カラス	-0.0966559
-4.475715	烏川:カラスガワ	-0.1133895
-4.475715	無い:ナイ	-0.1259115
-4.174685	無形:ムケイ	-0.1260423
-4.475715	焼:ショウ	-0.1085745
-4.475715	照:アキラ	-0.1085745
-4.475715	照寺:ショウジ	-0.1085745
-4.475715	照焼:テリヤキ	-0.1263329
-4.174685	熊野川:クマノガワ	-0.0950511
-4.475715	父:チチ	-0.108635
-4.475715	片丘:カタオカ	-0.103093
-4.475715	片桐:カタギリ	-0.1252131
-4.475715	牧野:マキノ	-0.1257661
-3.630617	物:ブツ	-0.1924513
-4.475715	物:モノ	-0.1050346
-4.475715	物流:ブツリュウ	-0.1262457
-4.475715	物理:ブツリ	-0.1263038
-4.475715	物産:ブッサン	-0.1239735
-4.174685	特に:トクニ	-0.09657812
-3.776745	特別:トクベツ	-1.140252
-4.475715	特急:トッキュウ	-0.1263329
-4.475715	特殊:トクシュ	-0.1260859
-4.475715	特異:トクイ	-0.1261731
-4.475715	特許庁:トッキョチョウ	-0.1263329
-4.475715	牽牛:ケンギュウ	-0.1262603
-4.475715	犬飼:イヌカイ	-0.1207341
-4.475715	犯罪:ハンザイ	-0.1260277
-4.475715	状:ジョウ	-0.108635
-4.475715	状況:ジョウキョウ	-0.1262312
-4.475715	狐井:キツイ	-0.1133895
-3.998594	独立:ドクリツ	-0.1262602
-4.475715	独自:ドクジ	-0.108635
-4.475715	献納:ケンノウ	-0.1222029
-4.475715	猿:サル	-0.1263184
-4.475715	猿沢:サルサワ	-0.1263329
-4.475715	獣:シシ	-0.1262312
-4.475715	獣:ジュウ	-0.1262312
-3.697563	玄:ゲン	-0.1259841
-4.475715	玉作:タマツクリ	-0.1257515
-4.174685	玉手:タマデ	-0.1199831
-4.475715	玉置山:タマキサン	-0.1085745
-4.475715	玉蔵:タマクラ	-0.1260132
-4.475715	玉虫:タマムシ	-0.1263474
-4.475715	玉造:タマツクリ	-0.1241633
-3.630617	王:オウ	-0.6813715
-2.998594	王寺:オウジ	-0.6609724
-4.475715	珥氏:珥氏	-0.1085745
-3.873655	現:ゲン	-0.09654702
-4.475715	現れ:アラワレ	-0.1221149
-4.475715	現代:ゲンダイ	-0.108635
-3.013317	現在:ゲンザイ	-0.8796798
-3.873655	球場:キュウジョウ	-0.2597994
-4.174685	理:リ	-0.108529
-4.475715	理事:リジ	-0.1263038
-4.475715	理学部:リガクブ	-0.1263474
-4.475715	瑠璃光:ルリコウ	-0.1263474
-4.475715	環:タマキ	-0.1263474
-4.174685	環境:カンキョウ	-0.1261876
-4.475715	環境省:カンキョウショウ	-0.108635
-3.998594	環状:カンジョウ	-0.2095359
-4.475715	甘:アマ	-0.1085745
-4.475715	甚:甚	-0.120263
-4.475715	生:セイ	-0.1085745
-4.475715	生:ナマ	-0.1263474
-4.174685	生き:イキ	-0.2809411
-3.153496	生まれ:ウマレ	-1.110826
-4.475715	生徒:セイト	-0.1200126
-4.475715	生放送:ナマホウソウ	-0.1190683
-4.475715	生活:セイカツ	-0.1263038
-4.475715	生産:セイサン	-0.124878
-2.422636	生駒:イコマ	-0.9955676
-4.475715	生駒山:イコマヤマ	-0.108635
-4.174685	生駒山地:イコマサンチ	-0.2788387
-4.475715	産出:サンシュツ	-0.1200126
-4.475715	産地:サンチ	-0.108635
-4.475715	産業:サンギョウ	-0.1263474
-3.873655	用い:モチイ	-0.3831088
-4.475715	用品:ヨウヒン	-0.108635
-4.174685	用水路:ヨウスイロ	-0.2778945
-4.174685	用語:ヨウゴ	-0.2778945
-3.998594	田:タ	-0.1202041
-4.475715	田中:タナカ	-0.1263474
-4.475715	田井:ダイ	-0.1133895
-4.475715	田井新:タイシン	-0.1207341
-4.475715	田原:タハラ	-0.1262748
-3.329587	田原本:タワラモト	-0.7557288
-4.174685	田原本線:タワラモトセン	-0.2674006
-4.475715	田口:タグチ	-0.1246302
-4.475715	田名部:タナベ	-0.1263184
-4.475715	田地:デンチ	-0.108635
-4.475715	田川:タガワ	-0.1241633
-3.776745	田辺:タナベ	-0.1582739
-4.475715	由来:ユライ	-0.1236375
-4.475715	由美子:ユミコ	-0.1085745
-4.475715	由良:ユラ	-0.1263474
-4.475715	甲子園:コウシエン	-0.0966559
-4.174685	甲斐:カイ	-0.1263038
-4.475715	甲賀:コウガ	-0.1257661
-4.475715	男:オトコ	-0.1085745
-3.521472	男女:ダンジョ	-0.9998547
-3.998594	男子:ダンシ	-0.1086047
-4.475715	男子校:ダンシコウ	-0.1050346
-1.890254	町:マチ	-0.4584847
-4.475715	町下:マチシタ	-0.11603
-4.174685	町内:チョウナイ	-0.2722156
-4.475715	町屋:マチヤ	-0.1239735
-4.475715	町歩:チョウブ	-0.1263329
-4.475715	町田:マチダ	-0.11603
-3.572625	町立:チョウリツ	-0.2385046
-4.475715	町立大淀病院:チョウリツオオヨドビョウイン	-0.1260132
-4.475715	町西:マチニシ	-0.1263474
-4.475715	画き:エガキ	-0.1263329
-4.174685	画家:ガカ	-0.09737067
-4.475715	界:カイ	-0.1245573
-4.174685	畑:ハタケ	-0.1198799
-4.475715	留:トメ	-0.1263474
-4.174685	畝傍:ウネビ	-0.1085442
-4.475715	畝傍山:ウネビヤマ	-0.1263038
-4.475715	畝傍御陵前:ウネビゴリョウマエ	-0.1263184
-4.475715	畠中:ハタケナカ	-0.1263184
-4.174685	畠田:ハタケダ	-0.1198799
-4.174685	畠田:ハタダ	-0.1261149
-3.998594	略称:リャクショウ	-0.221339
-3.998594	番:バン	-0.1259696
-4.475715	番匠田中:バンジョウタナカ	-0.1207341
-3.873655	番地:バンチ	-0.3483781
-4.475715	番目:バンメ	-0.108635
-3.776745	番組:バングミ	-0.1507661
-4.475715	畫藝:畫藝	-0.1263474
-4.475715	異なっ:コトナッ	-0.1221149
-3.776745	當麻:タイマ	-0.1570882
-4.475715	畿内:キナイ	-0.1190683
-4.475715	疋相:ヒキソ	-0.1133895
-3.630617	病院:ビョウイン	-0.2145393
-4.174685	発し:ハッシ	-0.2619191
-4.475715	発展:ハッテン	-0.124878
-4.174685	発布:ハップ	-0.2837042
-4.475715	発掘:ハックツ	-0.1263474
-3.776745	発生:ハッセイ	-1.136165
-4.174685	発着:ハッチャク	-0.2824637
-3.998594	発砲:ハッポウ	-0.2213684
-4.475715	発祥:ハッショウ	-0.1261586
-3.998594	発行:ハッコウ	-0.1202777
-4.475715	発表:ハッピョウ	-0.1263329
-3.776745	発見:ハッケン	-1.13884
-4.475715	発達:ハッタツ	-0.1236375
-4.475715	発願:ホツガン	-0.1262312
-3.697563	登大路:ノボリオオジ	-0.2746167
-3.697563	登美:トミ	-1.501107
-4.475715	登美ケ丘:トミガオカ	-0.1252131
-3.998594	登録:トウロク	-0.2238687
-3.998594	白:シロ	-0.2254405
-4.475715	白土:シラツチ	-0.1207341
-4.475715	白山:ハクサン	-0.1263184
-4.174685	白川渡:シラカワド	-0.1229354
-4.475715	白庭台:シラニワダイ	-0.1085745
-4.174685	白橿:シラカシ	-0.1189797
-4.475715	白毫寺:ビャクゴウジ	-0.1207341
-4.475715	白百合学園:シラユリガクエン	-0.1085745
-4.475715	白石:シライシ	-0.1263474
-4.174685	白粉:オシロイ	-0.1263183
-4.475715	白藤:シラフジ	-0.1262312
-3.630617	百:ヒャク	-0.1653358
-4.475715	百楽荘:ヒャクラクソウ	-0.1085745
-4.475715	百済:クタラ	-0.1258969
-4.475715	百済寺:クダラデラ	-0.1085745
-4.174685	百貨店:ヒャッカテン	-0.09737067
-3.361771	的:テキ	-0.400824
-4.475715	皇:スメラギ	-0.1263184
-4.475715	皇女:オウジョ	-0.1262603
-3.873655	皇族:コウゾク	-0.3781626
-3.998594	盆地:ボンチ	-0.1131949
-4.475715	益:エキ	-0.1085745
-4.174685	益田:マスダ	-0.1263183
-4.475715	盛長:モリナガ	-0.108635
-3.873655	監督:カントク	-0.1526566
-4.475715	目:メ	-0.108635
-4.475715	目抜き通り:メヌキドオリ	-0.1190683
-4.475715	目的:モクテキ	-0.1190683
-4.475715	目論み:モクロミ	-0.1262457
-4.475715	目録:モクロク	-0.120263
-4.475715	直:タダシ	-0.1085745
-4.475715	直:チョク	-0.1263329
-4.475715	直哉:ナオヤ	-0.1263474
-4.475715	直営:チョクエイ	-0.108635
-4.475715	直系:チョッケイ	-0.1263474
-4.475715	直線:チョクセン	-0.1259696
-4.475715	相当:ソウトウ	-0.108635
-4.475715	省:ショウ	-0.1085745
-4.475715	眉:マユ	-0.1200126
-4.174685	看板:カンバン	-0.2851155
-3.998594	看護:カンゴ	-0.2254405
-1.344096	県:ケン	-0.8614745
-4.475715	県人:ケンジン	-0.1263184
-3.396533	県内:ケンナイ	-0.4601567
-4.475715	県域:ケンイキ	-0.1258969
-4.475715	県境:ケンキョウ	-0.1262603
-4.475715	県庁:ケンチョウ	-0.1263184
-3.572625	県知事:ケンチジ	-0.4735099
-2.785519	県立:ケンリツ	-0.233842
-3.873655	県警:ケンケイ	-0.07644214
-4.174685	県議会:ケンギカイ	-0.2851155
-2.389355	県道:ケンドウ	-1.630997
-4.475715	眞山:マヤマ	-0.1263474
-4.475715	真:シン	-0.1263474
-4.475715	真奈:マナ	-0.1085745
-4.475715	真弓:マユミ	-0.1085745
-4.174685	真美:マミ	-0.2849847
-3.697563	真言:シンゴン	-1.501208
-3.174685	真言宗:シンゴンシュウ	-0.5701004
-4.475715	真間:ママ	-0.1133895
-4.475715	真鶴:マナヅル	-0.1263474
-4.475715	真麻:マサ	-0.1261295
-4.475715	矢板:ヤイタ	-0.11603
-4.174685	矢田:ヤタ	-0.2795602
-4.475715	矢田:ヤダ	-0.1262312
-4.174685	矢田原:ヤダワラ	-0.117737
-4.475715	矢田寺:ヤタデラ	-0.1234036
-4.475715	矢田山:ヤタヤマ	-0.1207341
-4.174685	矢走:ヤバセ	-0.2788387
-4.174685	知ら:シラ	-0.1258387
-4.174685	知事:チジ	-0.08639598
-3.998594	短期大学:タンキダイガク	-0.224859
-4.475715	短距離:タンキョリ	-0.1190683
-3.776745	石:イシ	-0.1262312
-3.998594	石:セキ	-0.1009117
-4.174685	石上宅嗣:イソノカミノヤカツグ	-0.2850573
-4.475715	石井:イシイ	-0.1263038
-4.475715	石城:セキジョウ	-0.1260859
-3.776745	石川:イシカワ	-0.2192743
-4.475715	石木:イシキ	-0.1207341
-4.475715	石碑:セキヒ	-0.108635
-4.475715	石窟:セックツ	-0.1262893
-4.174685	石造:セキゾウ	-0.2850864
-3.776745	研究:ケンキュウ	-0.1825136
-3.873655	研究所:ケンキュウジョ	-0.3831233
-4.174685	碑文:ヒブン	-0.08633228
-4.475715	碩:セキ	-0.1085745
-4.475715	磐:イワ	-0.1263184
-4.475715	磐城:イワキ	-0.1241633
-4.475715	磨崖仏:マガイブツ	-0.1050346
-4.475715	磯:イソ	-0.1263474
-3.299623	磯城:シキ	-1.20002
-4.475715	磯壁:イソカベ	-0.1200126
-4.475715	示す:シメス	-0.1262021
-3.697563	社:シャ	-0.2616096
-3.998594	社会:シャカイ	-0.1133595
-4.475715	社会保険庁:シャカイホケンチョウ	-0.108635
-4.475715	社口:ヤシログチ	-0.1241633
-4.475715	社名:シャメイ	-0.1133895
-3.998594	社団:シャダン	-0.518918
-4.174685	社長:シャチョウ	-0.09737067
-4.475715	祖:ソ	-0.120263
-4.475715	祝戸:イワイド	-0.1200126
-4.174685	神:カミ	-0.1263329
-4.475715	神体:シンタイ	-0.1190683
-4.475715	神倉:カンノクラ	-0.1133895
-4.475715	神功:シンコウ	-0.1261731
-3.630617	神奈川:カナガワ	-0.6146115
-3.998594	神宮前:ジングウマエ	-0.5172426
-4.174685	神戸:コウベ	-0.09218518
-4.174685	神木:シンボク	-0.2790892
-4.475715	神末:コウズエ	-0.108635
-4.475715	神武:ジンム	-0.1263474
-3.153496	神社:ジンジャ	-0.5348666
-4.174685	神道:シントウ	-0.1189058
-4.475715	神野寺:ジンノジ	-0.1085745
-4.475715	神野山:コウノヤマ	-0.1261731
-4.475715	神鏡:シンキョウ	-0.1200126
-4.475715	祠:ホコラ	-0.1190683
-4.475715	祥:サチ	-0.1085745
-3.998594	祭:サイ	-0.2014135
-4.475715	祭礼:サイレイ	-0.1190683
-4.475715	祭祀:サイシ	-0.1236375
-4.475715	禁止:キンシ	-0.124878
-4.475715	禅:ゼン	-0.1263474
-4.475715	福:フク	-0.1262021
-3.998594	福井:フクイ	-0.4993173
-3.521472	福住:フクスミ	-0.4227635
-4.174685	福山:フクヤマ	-0.2748562
-4.475715	福山線:フクヤマセン	-0.1085745
-3.873655	福岡:フクオカ	-0.3523892
-4.475715	福島:フクシマ	-0.1263474
-4.475715	福祉:フクシ	-0.1258388
-4.475715	秀:シゲル	-0.1263474
-4.475715	秀哉:ヒデヤ	-0.1263329
-4.475715	私有:シユウ	-0.1200126
-3.361771	私立:シリツ	-0.2153954
-4.475715	私設:シセツ	-0.1263184
-4.174685	私財:シザイ	-0.126144
-4.475715	秋津:アキツ	-0.1261149
-4.475715	秋田:アキタ	-0.1062381
-3.776745	秋篠:アキシノ	-0.3865539
-4.475715	秋野:アキノ	-0.1262167
-3.697563	科:カ	-0.2793318
-3.873655	科学:カガク	-0.1983221
-3.998594	秦:ハタ	-0.1260277
-4.475715	秦庄:ハタノショウ	-0.1133895
-4.475715	称名寺:ショウミョウジ	-0.1085745
-4.475715	称念寺:ショウネンジ	-0.1085745
-4.475715	移:ウツリ	-0.1263329
-4.475715	移転:イテン	-0.1263184
-4.475715	税:ゼイ	-0.1133895
-4.475715	種:シュ	-0.1190683
-4.475715	種類:シュルイ	-0.1239735
-4.174685	稲:イネ	-0.1199978
-4.174685	稻淵:稻淵	-0.1133446
-4.475715	積:セキ	-0.1085745
-4.475715	穗:ミノル	-0.1263474
-3.776745	穴虫:アナムシ	-0.1625131
-4.475715	穴闇:ナグラ	-0.1200126
-4.475715	空白:クウハク	-0.1259987
-4.475715	窃盗:セットウ	-0.1263329
-4.475715	窪之庄:クボノショウ	-0.1263329
-4.475715	窯:カマ	-0.1261731
-4.174685	立:リツ	-0.09009037
-4.475715	立ち:タチ	-0.1263474
-4.475715	立っ:タッ	-0.1221149
-4.475715	立命館大学:リツメイカンダイガク	-0.1259551
-4.174685	立地:リッチ	-0.2778945
-4.475715	立野:タチノ	-0.1261149
-4.475715	立香:タツカ	-0.1263474
-3.873655	竜田:タツタ	-0.1255333
-3.998594	竜田川:タツタガワ	-0.1043935
-4.174685	竜門山:リュウモンザン	-0.2849847
-3.873655	競技:キョウギ	-0.1978278
-3.873655	競艇:キョウテイ	-0.399301
-3.998594	競輪:ケイリン	-0.2233727
-4.475715	競馬:ケイバ	-0.108635
-4.174685	竹:タケ	-0.1263038
-4.475715	竹村:タケムラ	-0.0966559
-4.475715	竹林:タケバヤシ	-0.1257661
-4.475715	竹林:チクリン	-0.1260132
-3.776745	笠:カサ	-0.1626958
-4.475715	笠:リュウ	-0.1263474
-4.475715	笠置:カサギ	-0.1262893
-4.475715	笠置山地:カサギサンチ	-0.1261004
-3.153496	第:ダイ	-0.5118818
-4.475715	筆者:ヒッシャ	-0.1262312
-3.776745	等:トウ	-0.1585814
-4.475715	筑紫:ツクシ	-0.1261876
-3.776745	筒井:ツツイ	-0.1631522
-4.475715	答志:トウシ	-0.1207341
-3.873655	箇所:カショ	-0.1604794
-4.475715	管区:カンク	-0.1085745
-3.998594	管理:カンリ	-0.116773
-2.984353	管轄:カンカツ	-1.243993
-4.475715	管領:カンリョウ	-0.1263329
-4.475715	箱根:ハコネ	-0.1207341
-4.475715	箸:ハシ	-0.1263474
-4.475715	節:フシ	-0.1260132
-3.873655	築か:キズカ	-0.3978018
-4.475715	築山:ツキヤマ	-0.1133895
-4.475715	築山:ツクヤマ	-0.1241633
-4.174685	築造:チクゾウ	-0.2837042
-4.174685	篠原:シノハラ	-0.1199831
-4.475715	篠楽:ササガク	-0.1133895
-3.697563	簡易:カンイ	-0.3578252
-4.475715	簡裁:カンサイ	-0.120263
-4.475715	米:ベイ	-0.1262893
-4.174685	粟原:アワラ	-0.1198799
-4.475715	精:シラゲ	-0.1263184
-4.475715	精:セイ	-0.1263184
-4.475715	糸島:イトシマ	-0.11603
-3.998594	系:ケイ	-0.2075725
-4.475715	系譜:ケイフ	-0.1263329
-4.475715	紀:キノ	-0.1260568
-4.174685	紀の川:キノカワ	-0.1083474
-4.475715	紀伊:キイ	-0.1263474
-4.475715	紀勢本線:キセイホンセン	-0.1262457
-4.475715	紀勢線:キセイセン	-0.1245573
-4.475715	紀和:キワ	-0.1262893
-4.475715	紀寺:キデラ	-0.1207341
-3.776745	約:ヤク	-0.1262021
-4.475715	紐:ヒモ	-0.1263474
-4.475715	紙:シ	-0.1050346
-3.396533	級:キュウ	-0.6575251
-4.174685	素麺:ソウメン	-0.1081657
-4.475715	索:サク	-0.1263474
-4.475715	紫:ムラサキ	-0.1263474
-4.475715	紫園:シオン	-0.120263
-4.174685	細川:ホソカワ	-0.1263183
-4.475715	終わっ:オワッ	-0.1221149
-3.873655	終末:シュウマツ	-0.3994027
-2.88465	終点:シュウテン	-1.595961
-4.475715	終着駅:シュウチャクエキ	-0.1050346
-4.174685	組合:クミアイ	-0.1009732
-3.873655	組織:ソシキ	-0.1873144
-4.475715	組長:クミチョウ	-0.1239735
-3.998594	経:ヘ	-0.5173594
-4.174685	経営:ケイエイ	-0.1194522
-4.174685	経済:ケイザイ	-0.2850428
-4.475715	経理:ケイリ	-0.1252131
-3.998594	経由:ケイユ	-0.5152822
-4.475715	経緯:ケイイ	-0.1245573
-4.475715	経路:ケイロ	-0.1239735
-3.095504	結ぶ:ムスブ	-0.2458916
-3.873655	結ん:ムスン	-0.3758703
-4.174685	結崎:ユウザキ	-0.1199831
-4.475715	結成:ケッセイ	-0.124878
-4.475715	絞め技:シメワザ	-0.1261295
-3.998594	給与:キュウヨ	-0.1263183
-4.475715	給食:キュウショク	-0.1262893
-4.475715	統:ミツル	-0.108635
-4.475715	統一:トウイツ	-0.1263184
-3.998594	統合:トウゴウ	-0.2198995
-4.475715	綏靖:綏靖	-0.1262603
-4.174685	継:ツギ	-0.2674006
-4.475715	継が:ツガ	-0.1246739
-4.174685	継承:ケイショウ	-0.1263183
-4.174685	続く:ツヅク	-0.1258242
-4.174685	続け:ツヅケ	-0.2809411
-4.475715	総:ソウ	-0.1262748
-4.475715	総て:スベテ	-0.108635
-4.475715	総会:ソウカイ	-0.1263329
-3.998594	総合:ソウゴウ	-0.1259841
-4.174685	総本山:ソウホンザン	-0.1202188
-3.361771	総称:ソウショウ	-0.6454535
-4.475715	緑ヶ丘:ミドリガオカ	-0.1255915
-2.168219	線:セン	-1.373803
-4.475715	線上:センジョウ	-0.108635
-4.475715	編年体:ヘンネンタイ	-0.108635
-4.475715	編曲:ヘンキョク	-0.1257951
-3.873655	編纂:ヘンサン	-0.3980059
-4.475715	編集:ヘンシュウ	-0.1222029
-4.475715	練:ネリ	-0.1263329
-4.475715	緻密:チミツ	-0.1260859
-4.475715	縁:エン	-0.1257515
-4.475715	縄:ナワ	-0.1085745
-4.475715	縄文:ジョウモン	-0.1228183
-4.475715	縣坐:縣坐	-0.1260568
-4.475715	繁:シゲル	-0.1263474
-4.475715	繍帳:繍帳	-0.1085745
-4.475715	繰り返し:クリカエシ	-0.103093
-4.475715	繰り返す:クリカエス	-0.1263474
-4.475715	纏:マトイ	-0.1263184
-4.174685	纒:マトイ	-0.2851445
-4.475715	罪:ザイ	-0.108635
-3.630617	置か:オカ	-0.6330473
-4.174685	置き:オキ	-0.2619191
-3.271595	置く:オク	-0.1895185
-4.475715	罰金:バッキン	-0.1263474
-2.998594	署:ショ	-1.45509
-4.475715	羅:ラ	-0.108635
-4.475715	羊:ヒツジ	-0.1263474
-4.475715	美しい:ウツクシイ	-0.1262748
-4.174685	美術:ビジュツ	-0.1199831
-3.475715	美術館:ビジュツカン	-0.3260621
-3.220442	群:グン	-0.3016279
-4.475715	群集:グンシュウ	-0.1263184
-4.475715	群馬:グンマ	-0.1062381
-4.475715	義:ギ	-0.1085745
-4.475715	義成:ヨシナリ	-0.108635
-4.475715	義男:ヨシオ	-0.1085745
-4.174685	羽栗:ハグリ	-0.1263183
-3.873655	翁:オウ	-0.3994027
-4.475715	翔:ショウ	-0.1085745
-4.475715	老:ロウ	-0.1085745
-4.475715	老婆:ロウバ	-0.108635
-4.475715	老舗:シニセ	-0.1263038
-4.475715	考え:カンガエ	-0.1262603
-4.174685	考古:コウコ	-0.1259696
-3.113987	者:シャ	-0.2474214
-4.475715	者:モノ	-0.1258969
-4.174685	聖:キヨシ	-0.1263329
-4.174685	聖子:セイコ	-0.2674006
-4.475715	聖徳:セイトク	-0.1262021
-4.475715	聖徳太子:ショウトクタイシ	-0.1239735
-3.873655	聖武天皇:ショウムテンノウ	-0.1782024
-4.475715	聖衆:ショウジュ	-0.1263474
-4.475715	聞:聞	-0.1085745
-4.475715	聯合:レンゴウ	-0.1263474
-4.475715	聰:サトシ	-0.1262457
-4.475715	聴松:チョウマツ	-0.1263474
-4.475715	職:ショク	-0.1200126
-4.475715	職員:ショクイン	-0.1190683
-4.475715	職場:ショクバ	-0.1133895
-3.697563	職業:ショクギョウ	-0.2243496
-4.475715	聾:ツンボ	-0.1243676
-4.475715	肉:ニク	-0.1263474
-4.174685	肥前:ヒゼン	-0.284912
-3.873655	育ち:ソダチ	-0.1330094
-4.174685	背:セ	-0.1260423
-4.475715	背景:ハイケイ	-0.1133895
-4.475715	胤:タネ	-0.1263329
-4.475715	能力:ノウリョク	-0.1263184
-4.174685	能楽:ノウガク	-0.1085896
-4.475715	脇本:ワキモト	-0.1245573
-4.174685	脚本:キャクホン	-0.2846213
-4.174685	脳:ノウ	-0.1263329
-4.475715	脳出血:ノウシュッケツ	-0.1200126
-3.998594	臣:シン	-0.1079688
-4.174685	臨床:リンショウ	-0.1263329
-4.475715	臨済宗:リンザイシュウ	-0.1263474
-3.521472	自動車:ジドウシャ	-0.3480174
-3.998594	自治体:ジチタイ	-0.5184816
-4.174685	自然:シゼン	-0.1261004
-4.475715	自称:ジショウ	-0.1236375
-3.873655	自衛隊:ジエイタイ	-0.1084383
-3.521472	自転車:ジテンシャ	-0.9975386
-4.174685	至っ:イタッ	-0.1200125
-2.458681	至る:イタル	-1.003961
-4.174685	致死:チシ	-0.2848394
-4.475715	興:キョウ	-0.1085745
-4.475715	興し:オコシ	-0.1221149
-4.475715	興福:コウフク	-0.1260132
-3.697563	興福寺:コウフクジ	-0.2544626
-3.998594	舎:シャ	-0.1199389
-3.697563	舞:マイ	-0.1182157
-4.475715	舞う:マウ	-0.1263474
-4.475715	舟戸:フナト	-0.1085745
-3.998594	航空:コウクウ	-0.5193831
-4.475715	船:フネ	-0.1262603
-4.475715	船井:フナイ	-0.1222615
-4.475715	船宿:フナヤド	-0.1257661
-4.475715	船石:フナイシ	-0.1261149
-3.776745	艦:カン	-1.140121
-4.475715	良典:ヨシノリ	-0.1085745
-4.475715	良福寺:リョウフクジ	-0.1234036
-4.475715	艶:ツヤ	-0.1263474
-4.174685	芝:シバ	-0.2834564
-4.475715	芝西:シバニシ	-0.1255915
-4.475715	芦原:アシハラ	-0.1258242
-3.998594	花:ハナ	-0.09862646
-4.475715	花園大学:ハナゾノダイガク	-0.1133895
-4.475715	花崗岩:カコウガン	-0.108635
-4.475715	芳信:ホウシン	-0.1085745
-4.475715	芳忠:ヨシタダ	-0.103093
-4.475715	芸:ゲイ	-0.1263329
-4.174685	芸能:ゲイノウ	-0.2674611
-3.998594	芸術:ゲイジュツ	-0.2255131
-4.174685	苑:エン	-0.1233597
-4.475715	若しくは:モシクハ	-0.103093
-4.174685	若宮:ワカミヤ	-0.1190536
-4.174685	若草:ワカクサ	-0.1263038
-4.174685	英:エイ	-0.1262748
-4.475715	英俊:エイシュン	-0.1200126
-4.174685	茂:シゲル	-0.2851445
-4.475715	茂雄:シゲオ	-0.1085745
-4.174685	茅原:チハラ	-0.1103411
-4.475715	茨城:イバラキ	-0.1062381
-3.873655	茨木:イバラギ	-0.185088
-4.174685	茶:チャ	-0.09009037
-4.475715	茶人:チャジン	-0.103093
-4.475715	茶会:チャカイ	-0.1263474
-4.174685	茶屋:チャヤ	-0.1170105
-4.475715	茶飯:チャメシ	-0.1085745
-4.475715	草:クサ	-0.1263474
-4.475715	草津:クサツ	-0.11603
-4.475715	荒川:アラカワ	-0.120263
-4.475715	荒田:アレタ	-0.1263474
-4.475715	荻:オギ	-0.1207341
-3.998594	菓子:カシ	-0.08345614
-4.475715	菖蒲:ショウブ	-0.1207341
-4.475715	菖蒲池:ショウブイケ	-0.1207341
-4.475715	菜畑:ナバタケ	-0.1241633
-3.630617	菟田野:ウタノ	-0.2992497
-3.998594	菩提山:ボダイセン	-0.2198847
-4.174685	華:ハナ	-0.1261731
-3.873655	華厳宗:ケゴンシュウ	-0.3817629
-4.174685	華族:カゾク	-0.1022187
-4.174685	萩の台:ハギノダイ	-0.111124
-4.475715	萱生:カヨウ	-0.1207341
-4.475715	萱野:カヤノ	-0.1200126
-4.475715	落:落	-0.125926
-4.174685	落語:ラクゴ	-0.2846213
-3.998594	葉:ハ	-0.1115149
-4.475715	著名:チョメイ	-0.1261876
-4.475715	葛:カズラ	-0.1262748
-4.475715	葛:ツヅラ	-0.1241633
-4.475715	葛下:カツシモ	-0.1262167
-3.153496	葛城:カツラギ	-0.6647817
-4.475715	葛城山:カツラギヤマ	-0.1133895
-4.475715	葛城川:カツラギガワ	-0.1085745
-3.998594	葛本:クズモト	-0.5138134
-4.475715	葵:アオイ	-0.1256642
-4.475715	蒐集:シュウシュウ	-0.1257951
-4.475715	蓋:フタ	-0.1262748
-4.475715	蓮:ハチス	-0.1257661
-4.475715	蓮糸:ハスイト	-0.1262167
-4.475715	蔵本:ゾウホン	-0.1050346
-4.475715	薩摩:サツマ	-0.1200126
-4.475715	薩雄:薩雄	-0.1085745
-4.174685	薬剤師:ヤクザイシ	-0.1196587
-4.475715	薬品:ヤクヒン	-0.1263038
-3.998594	薬師:クスシ	-0.1260859
-4.475715	薬師:ヤクシ	-0.1263474
-3.998594	薬師寺:ヤクシジ	-0.103047
-4.174685	薬水:クスリミズ	-0.111124
-3.873655	藤井:フジイ	-0.09881221
-3.396533	藤原:フジワラ	-0.1257079
-4.475715	藤原不比等:フジワラノフヒト	-0.108635
-4.174685	藤原仲麻呂:フジワラノナカマロ	-0.102019
-4.174685	藤山:フジヤマ	-0.285159
-4.475715	藤岡:フジオカ	-0.1263474
-4.475715	藤田:フジタ	-0.1263474
-4.475715	藩:ハン	-0.1263474
-4.475715	藩士:ハンシ	-0.1263474
-4.475715	藪原:ヤブハラ	-0.1200126
-4.174685	虫:チュウ	-0.108408
-4.174685	虫:ムシ	-0.2850283
-4.475715	蜘蛛:クモ	-0.1262748
-3.998594	蝦夷:エゾ	-0.1060859
-4.174685	融:トオル	-0.1079536
-3.998594	融通:ユウズウ	-0.5193976
-4.475715	衆徒:シュウト	-0.1050346
-3.776745	衆議院:シュウギイン	-0.3922824
-4.174685	行:クダリ	-0.1259551
-4.475715	行う:オコナウ	-0.1263184
-4.475715	行き来:イキキ	-0.1133895
-4.174685	行っ:オコナッ	-0.2831062
-3.697563	行わ:オコナワ	-0.5172426
-4.475715	行基:ギョウキ	-0.1262312
-3.873655	行政:ギョウセイ	-0.1978714
-4.475715	行文:コウブン	-0.1085745
-4.475715	術:ジュツ	-0.1257951
-4.174685	街:ガイ	-0.1022801
-4.174685	街路:ガイロ	-0.2638608
-3.077775	街道:カイドウ	-0.3842673
-4.475715	衛:マモル	-0.1263474
-4.174685	衛門:エモン	-0.1086047
-4.475715	衝田:衝田	-0.1263329
-4.475715	衝突:ショウトツ	-0.1222029
-4.174685	表示:ヒョウジ	-0.2778945
-4.475715	表記:ヒョウキ	-0.1236375
-4.174685	袖ケ浦:ソデガウラ	-0.1151516
-4.475715	被:ヒ	-0.1263474
-3.630617	裁判所:サイバンショ	-0.09316332
-4.475715	装束:ショウゾク	-0.1190683
-4.475715	裕明:ヒロアキ	-0.1085745
-4.475715	製作:セイサク	-0.1222029
-4.475715	製作所:セイサクショ	-0.1085745
-4.475715	製法:セイホウ	-0.1263474
-3.873655	製薬:セイヤク	-0.3828471
-4.174685	製造:セイゾウ	-0.28513
-3.998594	複合:フクゴウ	-0.2252371
-4.475715	複数:フクスウ	-0.1162084
-4.174685	襲撃:シュウゲキ	-0.2848394
-3.329587	西:ニシ	-0.1949252
-3.998594	西の京:ニシノキョウ	-0.2242913
-3.873655	西ノ京:ニシノキョウ	-0.1024796
-4.475715	西三倉堂:ニシミクラドウ	-0.1133895
-4.475715	西中:ニシナカ	-0.1243676
-4.475715	西佐味:ニシサビ	-0.1263329
-4.475715	西光:サイコウ	-0.1260132
-4.475715	西北:セイホク	-0.1257515
-4.475715	西北:ニシキタ	-0.1257515
-4.475715	西南:セイナン	-0.1257515
-4.174685	西原:ニシガハラ	-0.2722156
-4.475715	西口:ニシグチ	-0.1260277
-3.776745	西吉野:ニシヨシノ	-0.3233421
-4.174685	西名阪自動車道:ニシメイハンジドウシャドウ	-0.1022187
-4.174685	西和:セイワ	-0.1150473
-4.475715	西国:サイコク	-0.1263184
-4.475715	西国:サイゴク	-0.1263184
-3.873655	西大寺:サイダイジ	-0.1784611
-4.475715	西大寺北:サイダイジキタ	-0.1252276
-4.475715	西大寺東:サイダイジヒガシ	-0.1207341
-4.475715	西大寺赤田:サイダイジアコダ	-0.1207341
-4.475715	西宮:ニシノミヤ	-0.1133895
-3.998594	西小学校:ニシショウガッコウ	-0.5016537
-4.475715	西山:ニシヤマ	-0.1261149
-4.475715	西川:ニシカワ	-0.1263474
-3.521472	西日本旅客鉄道:ニシニホンリョカクテツドウ	-0.549026
-4.475715	西松:サイマツ	-0.1261586
-4.475715	西河:ニシガワ	-0.1258969
-3.998594	西波多:ニシハタ	-0.1098586
-4.475715	西狭川:ニシサガワ	-0.1234036
-4.475715	西登美ケ丘:ニシトミガオカ	-0.1262312
-4.475715	西福寺:サイフクジ	-0.1085745
-3.697563	西部:セイブ	-0.4999254
-4.475715	西阿田:ニシアダ	-0.1207341
-4.475715	西院:サイイン	-0.1263329
-4.475715	要衝:ヨウショウ	-0.108635
-4.475715	見:ミ	-0.1263474
-4.475715	見える:ミエル	-0.1259115
-3.873655	見奈良:ミナラ	-0.1828652
-4.174685	見瀬:ミセ	-0.1207047
-3.873655	規格:キカク	-0.3829053
-3.998594	規模:キボ	-0.1197177
-4.475715	視学:シガク	-0.1261295
-4.174685	覚寺:カクジ	-0.2674006
-3.998594	親:オヤ	-0.2250626
-4.475715	親:シン	-0.1263474
-4.475715	親王:シンノウ	-0.108635
-4.475715	観覚寺:カンガクジ	-0.1133895
-3.630617	解放:カイホウ	-0.4467896
-4.475715	解消:カイショウ	-0.1260859
-4.174685	言う:イウ	-0.2638608
-4.174685	言わ:イワ	-0.1241633
-4.475715	言葉:コトバ	-0.1190683
-4.475715	訂:テイ	-0.1085745
-4.475715	計:ケイ	-0.1263474
-3.776745	計画:ケイカク	-0.1101301
-4.174685	訓練:クンレン	-0.1257806
-3.998594	記事:キジ	-0.4981139
-3.572625	記念:キネン	-0.2829191
-4.475715	記者:キシャ	-0.1050346
-4.475715	設け:モウケ	-0.1262748
-4.475715	設備:セツビ	-0.1262893
-4.475715	設定:セッテイ	-0.124878
-3.572625	設立:セツリツ	-0.232867
-3.133292	設置:セッチ	-2.059925
-4.475715	詐取:サシュ	-0.1260132
-4.174685	評論:ヒョウロン	-0.2846213
-4.475715	話さ:ハナサ	-0.1258533
-4.475715	該当:ガイトウ	-0.1236375
-4.475715	認め:ミトメ	-0.1221149
-4.174685	認める:ミトメル	-0.1260277
-4.475715	認可:ニンカ	-0.1263184
-4.475715	認定:ニンテイ	-0.1262748
-4.475715	誕生:タンジョウ	-0.1236375
-4.475715	誕生寺:タンジョウジ	-0.1085745
-4.475715	誘導:ユウドウ	-0.1263474
-3.998594	誘拐:ユウカイ	-0.1248197
-4.174685	語:ゴ	-0.1260132
-4.475715	語り物:カタリモノ	-0.1190683
-4.475715	誠:マコト	-0.1085745
-4.475715	説:セツ	-0.1259115
-4.174685	調理:チョウリ	-0.1263038
-4.475715	諏訪:スワ	-0.1263329
-4.475715	諸:ショ	-0.1263184
-4.475715	諸山:ショザン	-0.1263329
-4.174685	諸白:モロハク	-0.1128654
-4.475715	謙吉:ケンキチ	-0.1085745
-3.998594	講師:コウシ	-0.4981139
-4.475715	證寺:證寺	-0.1085745
-4.475715	警備:ケイビ	-0.1263474
-2.656171	警察:ケイサツ	-0.6403776
-3.998594	警察官:ケイサツカン	-0.1238859
-3.776745	議員:ギイン	-0.2026192
-4.475715	議長:ギチョウ	-0.1200126
-4.475715	譲受:ジョウジュ	-0.1200126
-3.998594	護:マモル	-0.2251789
-4.475715	護持:ゴジ	-0.1260132
-4.174685	讃岐:サヌキ	-0.1260568
-3.776745	谷:タニ	-0.1695526
-4.174685	谷尻:タニシリ	-0.1199389
-4.174685	豆:マメ	-0.2851445
-4.174685	豊山:トヨヤマ	-0.2849411
-4.174685	豊後:ブンゴ	-0.284912
-4.475715	豊明:トヨアケ	-0.108635
-4.174685	豊浦:トヨウラ	-0.1194669
-4.475715	豊科:トヨシナ	-0.1234036
-4.475715	豎省:豎省	-0.1085745
-4.475715	豪商:ゴウショウ	-0.1050346
-3.873655	豪族:ゴウゾク	-0.3619986
-4.475715	貞婦:テイフ	-0.1050346
-4.475715	負わ:オワ	-0.1263184
-3.873655	財団:ザイダン	-0.3989667
-3.873655	販売:ハンバイ	-0.1864641
-4.174685	貫く:ツラヌク	-0.1262602
-4.475715	責任:セキニン	-0.1260277
-3.153496	貴族:キゾク	-0.8703553
-4.475715	費用:ヒヨウ	-0.1200126
-4.475715	資:シ	-0.103093
-3.998594	資料:シリョウ	-0.5192668
-4.475715	資格:シカク	-0.1260277
-4.475715	賓庵:賓庵	-0.1085745
-4.475715	賜:タマモノ	-0.1263474
-4.475715	贄:ニエ	-0.1085745
-4.174685	赤滝:アカタキ	-0.1193193
-4.475715	赤膚:アカハダ	-0.1263474
-4.174685	走る:ハシル	-0.1241341
-3.434322	起:オコシ	-1.078614
-4.475715	起き:オキ	-0.1221149
-4.174685	起こし:オコシ	-0.2809411
-4.174685	起源:キゲン	-0.1019576
-2.471393	起点:キテン	-2.124127
-4.475715	超:チョウ	-0.1263474
-4.475715	超え:コエ	-0.1242801
-3.873655	越:エツ	-0.2415764
-4.475715	越:コシ	-0.1133895
-4.475715	越え:コエ	-0.1242801
-4.475715	越える:コエル	-0.1258242
-4.475715	越塚:コシヅカ	-0.1263474
-4.174685	越部:コシベ	-0.111124
-4.174685	足:アシ	-0.2674006
-3.475715	跡:アト	-0.2610294
-4.475715	跨る:マタガル	-0.1258533
-3.572625	路:ロ	-0.106238
-3.153496	路線:ロセン	-0.453807
-4.475715	車:クルマ	-0.1263474
-4.174685	車:シャ	-0.1186102
-3.776745	車両:シャリョウ	-0.158689
-4.475715	車庫:シャコ	-0.1085745
-4.174685	車掌:シャショウ	-0.123272
-4.174685	車木:クルマキ	-0.2788387
-4.475715	軍:グン	-0.120263
-4.475715	軍事:グンジ	-0.1263474
-4.475715	軍団:グンダン	-0.1050346
-4.475715	軒:ケン	-0.1200126
-4.174685	転:ウタテ	-0.285159
-4.475715	転:テン	-0.1263474
-4.475715	転送:テンソウ	-0.1263329
-4.475715	載:ノ	-0.1085745
-4.475715	輝い:カガヤイ	-0.1221149
-4.475715	輝石:キセキ	-0.1263474
-3.521472	輪:リン	-0.2375016
-4.475715	辰也:タツヤ	-0.1085745
-4.475715	辰巳:タツミ	-0.1262312
-4.475715	農学:ノウガク	-0.1260277
-3.998594	農政:ノウセイ	-0.2249318
-4.174685	農林水産省:ノウリンスイサンショウ	-0.2674611
-4.475715	農業:ノウギョウ	-0.1263329
-4.174685	農民:ノウミン	-0.1239151
-4.475715	農鳥岳:ノウトリダケ	-0.1200126
-4.174685	辻:ツジ	-0.1261731
-4.475715	辻山:ツジヤマ	-0.1263474
-4.174685	辻本:ツジモト	-0.1262748
-4.475715	迂回:ウカイ	-0.1236375
-4.174685	迎える:ムカエル	-0.2847376
-4.174685	近い:チカイ	-0.285159
-4.174685	近く:チカク	-0.2722156
-3.998594	近世:キンセイ	-0.1242947
-4.475715	近代:キンダイ	-0.1260423
-4.475715	近似:キンジ	-0.1222029
-4.475715	近年:キンネン	-0.108635
-3.475715	近畿:キンキ	-0.2445074
-4.475715	近畿大学:キンキダイガク	-0.1262021
-2.743321	近畿日本鉄道:キンキニホンテツドウ	-0.8010491
-4.475715	近道:チカミチ	-0.1259115
-3.299623	近鉄:キンテツ	-0.259388
-4.475715	近鉄御所:キンテツゴセ	-0.1241633
-4.174685	近鉄百貨店:キンテツヒャッカテン	-0.07764611
-4.475715	迫:ハサマ	-0.108635
-4.475715	述べる:ノベル	-0.1263184
-4.475715	送り:オクリ	-0.1263329
-4.475715	送水:ソウスイ	-0.1263474
-4.475715	逃走:トウソウ	-0.1262893
-4.475715	途中:トチュウ	-0.108635
-4.475715	通:ドオリ	-0.1257661
-4.475715	通じ:ツウジ	-0.1242801
-4.174685	通り:トオリ	-0.1199831
-3.998594	通り:ドオリ	-0.2073454
-3.873655	通る:トオル	-0.1222469
-4.174685	通信:ツウシン	-0.1262457
-4.475715	通勤:ツウキン	-0.1200126
-4.475715	通常:ツウジョウ	-0.1262312
-4.475715	通称:ツウショウ	-0.1050346
-4.475715	通過:ツウカ	-0.1263474
-4.475715	造:ミヤツコ	-0.1257661
-4.475715	造ら:ツクラ	-0.1246739
-4.475715	造営:ゾウエイ	-0.1236375
-4.475715	造立:ゾウリュウ	-0.1222029
-4.475715	連:レン	-0.1263329
-3.776745	連合:レンゴウ	-0.3290483
-4.475715	連峰:レンポウ	-0.108635
-4.174685	連盟:レンメイ	-0.285159
-4.475715	連絡:レンラク	-0.1239005
-4.475715	逮捕:タイホ	-0.1222029
-4.475715	進ん:ススン	-0.1190683
-4.174685	遅瀬:オソセ	-0.1199683
-3.873655	遊園:ユウエン	-0.3992865
-4.475715	運ば:ハコバ	-0.1246739
-3.873655	運動:ウンドウ	-0.3989231
-3.776745	運動公園:ウンドウコウエン	-0.1015426
-3.396533	運営:ウンエイ	-0.8191993
-3.361771	運行:ウンコウ	-0.5831301
-4.174685	運転:ウンテン	-0.1259987
-3.776745	運輸:ウンユ	-0.2481022
-3.998594	運送:ウンソウ	-0.2075271
